{"hidden1":{"biases":[
-0.924677, -0.278765, 0.0662083, -0.0806403, -0.803415, -0.0733291, 0.588305, 0.382336, 0.532679, -0.459858, -0.145861, 0.616227, -0.541506, -0.182788, 0.164444, 0.63091, 0.117345, -0.531452, 0.858673, 0.754348, 0.196571, 0.359538, -0.736657, 0.178029, 0.999187, 0.690333, 0.621747, 0.171476, -0.648733, -0.761446, 0.527529, -0.776142, 0.399706, -0.00935429, 0.91769, -0.811197, -0.464766, 0.496606, 0.272856, -0.498369, 0.982806, 0.231486, 0.223156, -0.891245, 0.698801, -0.00938521, 0.247751, 0.264673, -0.860145, -0.958516, 0.906694, -0.926723, -0.53018, -0.947311, 0.0479937, 0.64403, -0.143236, 0.207189, -0.702357, -0.21786, -0.602116, -0.191362, 0.921105, 0.957308, 0.0734547, 0.787558, 0.837168, 0.502842, 1.01772, -0.283653, -0.256077, -0.928923, -0.0670366, -0.142567, -0.116224, -0.552888, -0.601564, 0.749674, -0.583453, 0.319688, 0.252984, -0.0215842, 0.169747, -0.202324
],"weights":[
0.585884, -0.0787356, 0.297832, -0.808697, -0.639035, 0.799094, 0.946913, -0.643122, -0.596807, -0.62323, -0.609464, 0.0619477, 0.503583, 0.944831, -0.340294, -0.534651, -0.614245, -0.197688, 0.272817, -0.523092, 0.353378, -0.736875, -0.192029, -0.109422, 0.583686, 0.856433, 0.22631, -0.673913, -0.334249, 0.87369, -0.321668, 0.532101, 0.0373114, 0.372774, -0.572728, 0.874886, 0.158216, 0.463519, 0.777507, 0.870498, -0.931507, 0.0572581, -0.810203, -0.0891065, 0.31256, -0.684803, 0.406055, 0.75192, 0.317262, 0.513912, 0.891784, 0.413311, 0.196393, -0.694283, 0.48511, 0.630977, 0.127247, -0.382899, -0.247121, 0.80254, -0.201852, 0.868855, 0.269956, -0.0882624, -0.959565, 0.441359, 0.441935, 0.165598, -0.718459, -0.977639, -0.362549, 0.861372, 0.91724, -0.906218, -0.760335, -0.976851, -0.324894, 0.702117, 0.358559, -0.20422, -0.887585, -0.302887, 0.602622, -0.709254, -0.58703, -0.796786, 0.214644, -0.367946, -0.332833, 0.334059, 0.667569, -0.581922, -0.568972, -0.0301142, 0.235817, -0.507168, -0.498625, 0.0796538, -0.170851, -0.987024, -0.843232, -0.117935, 0.862827, 0.7799, -0.282271, 0.374979, -0.303811, -0.928408, -0.929332, 0.320189, -0.616069, -0.466935, 0.663984, 0.204464, -0.582223, 0.102595, 0.740508, -0.846854, -0.22243, 0.893207, -0.878076, -0.614893, 0.543669, -0.0328183, -0.377684, 0.24527, -0.856217, -0.0144588, 0.676896, 0.0584472, 0.213904, 0.00621796, -0.280502, 0.780042, 0.306871, -0.906283, -0.56361, 0.736615, -0.68355, -0.369651, 0.913216, -0.336812, -0.850081, -0.629985, 0.78315, -0.321522, 0.459974, -0.959814, -0.0604491, 0.753541, -0.880649, -0.260927, -0.62075, -0.0919659, -0.751798, 0.819533, 0.801599, 0.417686, -0.032264, -0.387081, -0.0662403, 0.795406, 0.77619, -0.937163, -0.11313, -0.500078, -0.70626, 0.966985, -0.0679966, -0.938328, 0.292469, 0.158625, -0.853479, 0.209867, -0.382536, 0.517321, -0.0731216, -0.50295, 0.842621, -0.232299, -0.191656, 0.58922, -0.433859, 0.114299, -0.327486, 0.0311151, -0.964888, -0.550634, 0.592617, 0.913365, 0.228436, -0.413285, 0.624694, 0.91855, -0.893265, -0.626348, 0.456742, -0.731777, -0.897466, -0.399869, 0.10379, 0.0370412, 0.702403, 0.459695, 0.232341, 0.810967, 0.468431, -0.9797, -0.432695, 0.344067, -0.631261, -0.822402, 0.133239, -0.269395, -0.311856, -0.258457, -0.786228, 0.577453, 0.0637868, -0.243519, 0.0659829, -0.713337, 0.650992, 0.722881, -0.448127, -0.921241, -0.175011, -0.779125, -0.565954, -0.261929, -0.847997, 0.660174, 0.878451, 0.697436, -0.375024, 0.0879122, 0.0888521, 0.0996386, 0.379068, -0.653814, -0.665337, -0.862443, -0.195532, 0.557896, 0.753417, -0.428885, 0.763325, 0.827178, -0.102732, -0.394479, -0.12273, -0.994284, 0.307952, -0.121893, -0.433442, 0.901922, 0.947611, -0.347849, 0.571241, 0.800408, 0.8429, -0.134379, 0.573812, 0.130632, 0.723044, -0.70827, 0.283069, -0.480574, -0.79669, -0.902281, 0.759978, -0.791056, -0.989778, -0.174283, 0.236337, -0.97991, 0.572777, -0.366745, 0.639526, -0.773544, 0.0391213, -0.471653, 0.815294, 0.157824, 0.457327, -0.487236, 0.719764, -0.288997, 0.0935925, -0.924405, -0.4371, 0.380221, 0.78632, -0.34627, -0.887695, 0.837108, 0.641548, 0.47676, 0.781957, 0.74757, 0.917254, 0.541248, 0.562931, -0.391925, -0.449924, -0.153825, 0.482246, 0.952143, 0.43487, -0.667439, -0.69427, -0.53873, -0.367157, -0.910004, 0.19935, -0.823813, -0.481967, -0.544623, 0.883511, -0.474252, -0.888071, 0.712662, 0.728602, 0.887103, 0.785308, -0.84166, 0.277828, 0.229552, -0.845074, 0.72296, -0.657204, 0.579673, 0.630307, 0.778578, 0.711488, 0.967418, -0.47941, 0.695262, -0.0840631, 0.952855, -0.313612, 0.842325, 0.912618, 0.667918, 0.801426, -0.338569, -0.99885, 0.918792, -0.76739, -0.442945, 0.619843, -0.949933, 0.460602, -0.453591, -0.35858, -0.586542, -0.926618, -0.00932292, 0.0163022, -0.228248, -0.140483, 0.16047, 0.193411, 0.303303, -0.295805, -0.772216, -0.480972, -0.763838, 0.141974, 0.173621, 0.72549, -0.129108, -0.578609, -0.265691, 0.606605, -0.409263, 0.212391, -0.786453, 0.418263, 0.694927, 0.120841, -0.144083, 0.120062, -0.728129, 0.767705, -0.879866, 0.342814, -0.623686, -0.10503, -0.34304, 0.473811, -0.409129, -0.184044, -0.791989, -0.0435453, -0.934615, 0.500855, 0.335831, -0.207503, -0.618196, -0.581395, 0.268242, -0.45111, -0.217667, -0.220052, 0.523961, 0.428832, 0.106696, -0.682803, -0.492004, -0.805828, 0.684363, -0.0363837, 0.179769, -0.884941, -0.922366, -0.0132619, 0.164111, 0.710389, 0.280068, 0.994595, -0.886234, 0.574197, -0.49432, 0.436575, 0.443492, -0.425576, -0.0808071, 0.198574, 0.472188, -0.875294, 0.913146, 0.73516, 0.935233, 0.361893, -0.961908, 0.958535, 0.473268, -0.712823, 0.613258, 0.660653, 0.618277, -0.877934, -0.848278, -0.500281, 0.079997, 0.649752, -0.108642, 0.220399, 0.584721, 0.84898, -0.522152, -0.0298365, -0.532288, -0.431129, 0.0856171, -0.0437364, 0.500938, 0.31018, 0.928392, 0.377688, 0.478705, -0.714458, 0.86393, -0.680326, -0.889059, 0.583881, 0.507853, 0.170387, 0.597793, 0.962875, 0.628401, -0.877584, 0.508031, 0.512565, -0.274517, 0.87795, -0.373628, -0.137912, -0.144301, 0.833038, -0.545005, 0.594548, 0.142414, 0.798134, -0.299395, 0.95934, 0.989353, -0.506022, 0.300363, -0.316424, -0.8311, 0.748044, -0.604634, -0.074888, 0.326684, -0.0503507, -0.0868566, -0.741388, -0.427351, -0.457398, 0.148894, -0.744196, 0.385784, 0.900435, 0.0897021, -0.0643519, -0.162524, -0.514105, -0.495773, -0.097331, -0.825576, 0.522565, -0.32231, 0.284913, 0.457143, 0.951968, 0.263991, -0.926098, -0.567389, -0.892074, 0.805388, -0.260275, 0.653744, -0.134228, 0.238123, -0.399152, 0.357717, -0.554307, -0.420204, -0.744097, 0.0260667, -0.430895, -0.956507, -0.866036, 0.263968, -0.586052, 0.647574, -0.212566, -0.162074, -0.99656, -0.0573001, 0.450344, -0.781125, -0.591851, 0.454616, 0.783308, -0.566778, -0.098917, -0.73074, -0.894576, -0.608681, -0.439805, -0.504066, -0.945283, 0.308722, 0.08443, -0.567202, -0.442445, 0.786495, -0.896529, -0.98799, -0.067915, 0.747899, 0.458448, 0.189234, 0.724385, 0.210675, 0.60305, 0.388645, -0.914643, -0.721546, 0.698201, -0.650286, -0.872707, -0.733765, -0.092913, 0.33139, 0.093901, -0.475468, 0.0807437, -0.63208, 0.201307, 0.686544, -0.406136, 0.0574729, 0.356571, 0.607259, -0.301841, 0.69417, 0.249442, 0.670091, 0.837471, -0.426213, 0.438685, -0.554725, -0.902905, -0.698639, -0.0450092, -0.893563, -0.272423, -0.69322, -0.944558, -0.949991, -0.948314, 0.388431, 0.790038, 0.299982, -0.144279, 0.798629, 0.703775, 0.705242, 0.286148, 0.125564, -0.318924, -0.258155, -0.485115, 0.769127, 0.156191, -0.347696, 0.232322, -0.424645, 0.350578, -0.702697, 0.732287, 0.494478, -0.247231, -0.543493, 0.615865, 0.715143, 0.573807, -0.0595239, -0.42464, -0.691298, 0.292543, 0.244817, -0.703152, 0.0647125, -0.76293, 0.865919, -0.192001, 0.377241, 0.667941, -0.842377, -0.405398, 0.378146, -0.889173, 0.439037, 0.638067, -0.756503, -0.886377, 0.629328, -0.146791, 0.683524, -0.230229, 0.754525, 0.576789, -0.0438583, -0.631005, 0.670148, 0.89427, -0.867258, 0.784188, -0.0678401, 0.0990723, 0.318341, -0.747037, 0.681715, 0.948842, -0.393343, 0.986416, -0.637386, 0.628943, 0.92624, -0.524114, 0.546676, -0.0533733, -0.0998916, -0.663977, -0.818705, -0.0429272, -0.652933, -0.726819, -0.775948, 0.156983, 0.784544, -0.52445, 0.219082, -0.0716753, 0.791767, 0.00427286, -0.016507, 0.778634, 0.778136, -0.242682, 0.892212, -0.156283, -0.649347, 0.255159, 0.132318, 0.430476, 0.305444, 0.362332, -0.609649, -0.317316, 0.229624, 0.675629, -0.401703, 0.573939, 0.190612, 0.627676, 0.530239, 0.551186, 0.22327, 0.902757, 0.902628, 0.955872, 0.48155, 0.0877055, -0.685903, 0.894959, -0.896882, 0.533029, 0.20156, 0.128258, -0.278404, 0.564824, -0.214667, -0.942586, 0.384143, -0.551161, 0.65922, -0.0704627, 0.0444481, -0.950462, -0.170421, -0.887503, -0.18278, -0.638765, 0.669718, 0.189811, -0.29897, 0.950584, -0.748368, 0.42701, -0.616373, -0.606676, 0.986937, -0.450281, -0.125861, 0.797913, -0.882267, 0.436071, 0.330949, 0.399471, 0.96198, -0.809449, -0.646134, 0.260522, -0.0229726, -0.701661, 0.111751, 0.505294, 0.270762, -0.838473, -0.577832, -0.232645, 0.979911, -0.574772, 0.059087, -0.573257, 0.0899983, -0.556094, 0.719924, -0.525733, 0.679459, 0.0547574, -0.719907, -0.048469, -0.242339, -0.923303, 0.0825152, 0.927128, 0.598349, 0.473094, 0.316306, -0.937718, 0.607165, -0.377479, 0.250604, -0.839435, -0.025711, 0.0369536, 0.502458, -0.441678, -0.336738, -0.85382, 0.0614294, -0.033627, 0.381075, 0.767957, -0.589731, -0.494315, 0.661064, -0.734559, -0.614861, -0.613251, 0.803196, 0.0283367, 0.514673, -0.999767, -0.964418, 0.788539, 0.158178, -0.998413, 0.240784, -0.698271, 0.981569, 0.80728, 0.362782, 0.391748, 0.968995, 0.615963, -0.2455, -0.891468, 0.428502, -0.34911, -0.0456508, -0.0462499, 0.894882, -0.525117, 0.523586, 0.803265, 0.410314, 0.716939, 0.747193, 0.370121, -0.399988, 0.976915, -0.960356, -0.704167, -0.56278, 0.535636, -0.460991, 0.710334, -0.341668, -0.0232825, 0.681064, -0.935609, 0.139478, 0.0105222, 0.722032, -0.228444, 0.573231, 0.384584, -0.605101, 0.922716, 0.829364, -0.779646, 0.223221, -0.704992, 0.812359, 0.65172, -0.840071, -0.137546, -0.768346, -0.611369, 0.221819, -0.266059, -0.594666, 0.932467, 0.632722, 0.830972, -0.78335, -0.0272407, 0.666942, -0.314594, -0.0248086, 0.0252163, 0.454972, 0.00143699, -0.0462352, -0.957718, -0.583381, -0.496233, -0.293799, -0.856677, 0.816576, 0.715696, -0.444795, -0.109543, -0.0571007, -0.898939, -0.446639, 0.496235, 0.0401565, 0.641829, -0.775729, -0.197254, -0.359594, 0.44417, -0.331607, -0.118286, -0.731068, 0.432868, 0.794989, -0.739832, -0.872313, 0.270671, 0.437126, 0.569354, -0.264332, -0.85534, -0.791388, -0.989211, 0.798274, -0.312387, 0.293818, -0.754657, -0.300169, -0.765105, -0.515551, 0.450214, 0.755856, 0.252646, 0.225934, -0.751752, -0.999068, 0.190793, -0.0896279, -0.0998249, 0.563639, -0.337593, 0.686579, -0.494548, -0.0938031, 0.00716832, 0.758818, -0.723155, -0.720797, -0.741386, -0.470947, 0.998763, 0.342676, -0.528539, -0.163973, -0.454482, -0.292311, 0.69228, -0.504161, 0.671138, 0.133659, 0.60832, 0.191055, -0.535188, 0.503429, 0.421853, -0.3988, 0.562588, 0.716873, -0.464518, -0.904612, 0.90802, 0.779104, 0.310135, 0.337289, -0.228336, 0.27559, -0.170093, -0.96519, 0.783154, 0.614666, -0.892674, -0.287573, 0.968583, 0.789747, 0.784136, -0.00880342, 0.239827, 0.407809, -0.299743, -0.729969, 0.464807, -0.864603, -0.499949, -0.118652, -0.947696, -0.844582, 0.400731, 0.0731752, 0.132073, 0.567186, -0.873252, 0.232137, 0.069754, -0.625205, 0.981208, -0.718753, -0.459703, -0.0814516, -0.656206, 0.495647, 0.690025, 0.357385, -0.933979, -0.295646, 0.757213, 0.420415, 0.18626, 0.764795, 0.744149, 0.297199, 0.453023, -0.736894, 0.671462, -0.285574, 0.110887, 0.323923, -0.407763, -0.777782, 0.861541, 0.452318, -0.372588, -0.627004, -0.290371, -0.590247, -0.958635, -0.106757, 0.101734, -0.0762496, -0.782994, 0.878699, 0.864157, -0.860151, 0.632608, 0.880151, 0.82354, 0.0844021, 0.833545, 0.702977, 0.942736, -0.558072, -1.00053, -0.773326, 0.12978, -0.987063, -0.239686, -0.113691, 0.682259, -0.294077, 0.48193, 0.579601, -0.241758, 0.18255, 0.306175, 0.945092, 0.760473, -0.21012, -0.259683, 0.707979, -0.348722, -0.402803, 0.17122, -0.705839, -0.813868, 0.705103, -0.999241, 0.37115, 0.595506, 0.874289, 0.567017, 0.989541, 0.647207, -0.223608, 0.473637, 0.925455, -0.988198, -0.254641, 0.394579, 0.570149, -0.271575, 0.218092, 0.419088, 0.221111, -0.167954, 0.0999451, -0.598337, -0.346544, 0.0543398, -0.399459, -0.623034, -0.539341, -0.0926063, 0.532743, -0.281454, -0.830313, -0.0444969, 0.95519, -0.506419, 0.992898, 0.320021, -0.809969, -0.677255, -0.802313, -0.362267, -0.581307, -0.488279, 0.894872, 0.744463, -0.25645, -0.893309, 0.193253, -0.946748, 0.416107, 0.00699913, 0.839257, -0.375803, -0.950102, 0.114454, -0.824751, -0.33197, -0.498234, -0.678311, -0.791939, 0.492424, 0.556506, -0.600008, -0.552086, -0.523723, 0.281543, 0.0212156, 0.894661, 0.844957, 0.404613, -0.324921, 0.445887, -0.337104, 0.186357, -0.914974, -0.85869, 0.922072, 0.762464, -0.778127, 0.520701, -0.0766294, 0.309589, -0.519717, -0.321607, -0.791179, 0.420837, -0.0306402, -0.0346185, -0.221299, -0.388356, 0.379698, 0.204129, -0.415717, 0.254387, -0.475356, -0.0443534, 0.908601, -0.96554, -0.646286, 0.270276, 0.112305, 0.659511, 0.566674, 0.354466, 0.683675, 0.000717127, -0.0616075, -0.940799, -0.504984, 0.0992671, 0.0118435, 0.77021, 0.268068, -0.963052, 0.325193, -0.767924, -0.936076, 0.637619, -0.32332, 0.27842, -0.753401, -0.503695, 0.4795, 0.999791, 0.830678, -0.3698, -0.72008, -0.605757, -0.0121074, 0.182016, 0.189988, 0.812288, -0.134131, -0.954324, 0.52879, -0.994469, -0.319933, -0.478395, 0.176568, -0.161448, -0.575311, 0.61347, 0.534668, -0.90933, -0.534377, -0.618829, 0.638504, 0.339238, -0.511151, 0.248745, 0.932941, -0.677068, -0.270449, -0.867142, 0.43427, -0.13556, 0.811779, 0.351904, -0.684064, -0.958552, 0.591137, -0.320687, 0.389204, -0.927387, 0.447624, 0.612239, 0.157504, -0.949787, -0.920405, 0.074049, -0.42268, -0.772811, 0.601914, -0.829877, -0.35519, -0.474549, -0.00612803, -0.505082, -0.0360241, -0.780824, -0.768511, -0.184705, 0.864588, 0.648285, -0.609698, -0.971934, 0.563522, 0.918854, 0.809778, 0.114762, 0.816453, -0.039649, -0.348839, 0.794087, -0.609208, -0.338082, 0.0778167, -0.639984, 0.831597, -0.213447, 0.788815, -0.639632, -0.328617, -0.914713, 0.709651, 0.613266, 0.180796, 0.885512, -0.921509, 0.198656, 0.849128, -0.929635, 0.202186, -0.851088, 0.307541, -0.0683636, -0.0806842, -0.824268, -0.387254, 0.156531, -0.993743, -0.51955, 0.856897, 0.913224, -0.762352, 0.0369675, -0.160298, 0.81274, 0.125154, 0.732476, -0.219561, -0.514793, 0.706843, -0.983657, 0.216442, -0.724867, -0.561163, -0.980169, 0.768579, -0.10548, -0.143668, 0.988641, -0.23891, -0.295819, -0.41966, -0.180243, -0.268403, 0.101131, 0.124422, 0.415198, 0.283064, -0.233736, 0.744096, -0.357775, 0.207666, 0.980191, 0.580915, 0.247523, -0.341539, -0.210605, -0.322646, 0.754018, 0.150144, 0.0123195, 0.211507, -0.784315, -0.973951, -0.304529, 0.431855, -0.498116, 0.506723, -0.113992, -0.385471, -0.955095, -0.0140415, -0.48211, 0.211714, 0.322467, -0.177927, 0.771023, 0.694077, 0.685117, 0.320852, 0.10955, 0.336663, -0.226186, 0.945671, -0.357047, -0.686332, -0.469525, -0.381888, -0.342691, -0.210076, -0.284016, 0.651278, -0.732971, -0.57637, 0.311734, -0.675737, -0.609334, -0.596459, 0.64681, -0.84256, 0.850188, -0.574087, 0.269303, 0.908975, -0.104242, -0.136852, -0.351544, -0.522073, 0.272974, -0.377436, -0.219172, 0.262631, 0.507073, -0.394971, -0.940355, -0.14904, -0.274051, -0.73795, 0.332189, 0.616924, -0.043557, 0.174392, 0.555417, 0.13403, 0.535233, -0.253795, 0.957393, 0.508541, -0.563155, 0.382275, -0.151865, -0.523829, -0.590151, 0.956111, -0.625429, 0.537373, -0.0368487, -0.441888, -0.800836, 0.76114, -0.281111, 0.946547, -0.62939, 0.0841787, -0.602606, -0.573594, -0.46998, 0.833819, -0.685113, -0.948999, 0.203468, -0.840809, -0.280093, 0.768518, 0.770574, -0.31652, -0.544912, -0.0951545, 0.725676, -0.440425, -0.806854, 0.779324, 0.982319, -0.461127, -0.58774, 0.328661, 0.32524, -0.861614, -0.569118, -0.16052, -0.962241, -0.272144, 0.166454, -0.174156, -0.912103, -0.101119, -0.606783, 0.233278, -0.181187, 0.309026, 0.426113, 0.217494, 0.875992, 0.680142, -0.288746, 0.382139, -0.145242, -0.943413, 0.939046, -0.407779, -0.0055838, 0.239139, -0.549216, 0.905039, -0.637843, -0.150242, 0.135419, -0.251366, -0.0368418, 0.255606, 0.62849, -0.380003, 0.210684, -0.497098, 0.957768, -0.772201, 0.983877, -0.0824796, 0.118871, -0.768708, 0.227492, 0.814382, 0.872114, -0.575531, -0.373, 0.676844, -0.0265743, 0.543924, 0.0824199, -0.37987, -0.982763, 0.0105721, 0.377525, 0.36633, 0.665696, -0.0622793, -0.488822, 0.0383613, 0.749549, 0.31388, 0.0732161, 0.248101, -0.898911, 0.494166, 0.810753, -0.445868, 0.690141, -0.998434, -0.212562, 0.590394, -0.154924, 0.342965, 0.725955, -0.410813, 0.541724, 0.0138059, -0.365443, 0.724821, -0.439154, 0.690736, 0.908816, 0.993156, -0.41258, 0.615132, 0.819515, 0.5275, 0.377146, 0.12402, -0.293282, 0.445426, -0.0689214, -0.435513, -0.0861346, 0.0207858, -0.208172, -0.772839, -0.0295508, -0.484498, 0.815877, 0.221019, 0.20225, 0.792052, 0.272613, 0.863449, 0.976308, -0.35017, -0.748244, 0.0831371, 0.13037, 0.425414, -0.922359, -0.0143883, 0.513297, 0.497438, -0.700268, -0.646334, 0.0370986, 0.597605, 0.282864, 0.454639, 0.0540051, -0.891703, -0.119839, 0.28862, 0.745403, -0.594374, 0.341733, 0.32609, -0.900909, -0.255836, -0.644801, -0.783336, 0.27345, 0.916045, 0.59336, 0.0308128, 0.14804, 0.299287, 0.307303, 0.978312, 0.361436, -0.885834, -0.214885, 0.367273, -0.300127, -0.551397, 0.173042, -0.485439, 0.442189, 0.432461, 0.743053, 0.560175, -0.0896527, -0.472487, -0.561283, -0.831345, 0.197682, -0.967904, -0.237937, -0.0999918, 0.297741, -0.227588, -0.300878, -0.902362, 0.416759, 0.687059, -0.909477, 0.930704, -0.887886, 0.815397, -0.933969, 0.659726, 0.121248, -0.422929, -0.230839, -0.443378, -0.507915, -0.388566, 0.38841, -0.187174, 0.73795, -0.00747365, 0.207587, 0.923225, 0.951604, -0.086868, -0.243079, -0.11554, -0.577218, -0.135831, 0.437692, -0.564218, 0.454304, -0.0320114, -0.108652, -0.87983, 0.973182, -0.0881642, 0.943218, -0.764473, -0.473206, -0.0484641, -0.949398, -0.774752, -0.586443, 0.190552, -0.56176, 0.0142575, -0.304484, 0.69054, -0.30846, -0.83729, 0.566167, -0.934856, -0.0809457, -0.957904, -0.719265, 0.125665, -0.056655, -0.756297, -0.0815349, -0.392096, -0.172458, 0.70595, -0.420559, -0.668817, -0.498344, -0.617277, 0.0529208, -0.858178, 0.42694, 0.00172847, 0.810984, 0.964309, -0.914337, 0.289206, -0.245955, 0.780631, 0.561566, 0.217107, 0.819918, -0.739732, -0.947181, -0.490193, 0.671058, 0.66551, 0.359554, -0.969905, -0.359133, -0.254586, -0.850391, 0.0541999, 0.293326, -0.277597, -0.986626, -0.341681, 0.788364, 0.498924, 0.546816, -0.640236, -0.452274, -0.0675344, -0.452596, 0.986727, 0.485482, 0.179376, 0.612791, 0.046859, 0.378276, 0.613542, 0.0635555, 0.746841, -0.630792, 0.713063, 0.580132, -0.318206, -0.816222, -0.609518, 0.0412472, 0.797825, -0.9388, 0.406163, 0.926282, 0.861761, -0.836669, 0.493626, -0.993609, 0.330475, 0.904163, -0.701542, 0.995097, -0.945966, 0.229147, 0.865612, 0.222496, -0.0437869, 0.814914, -0.398073, 0.725423, 0.626034, 0.529809, 0.519643, -0.722127, -0.254861, 0.233074, 0.346966, -0.0666627, 0.315533, 0.971218, -0.395157, -0.145592, 0.50695, 0.278747, -0.303686, 0.597895, -0.853212, 0.490857, -0.617028, -0.68605, 0.324604, -0.411282, 0.500706, 0.457796, 0.409666, 0.116965, 0.451574, -0.417685, -0.501746, 0.367057, 0.0931441, 0.888539, -0.871265, 0.338027, -0.0906767, 0.938744, -0.24475, 0.348622, -0.869559, -0.527301, 0.275459, -0.137752, 0.22963, 0.0811831, -0.543572, -0.101048, 0.970697, 0.339303, -0.745799, -0.887217, 0.0339272, 0.836282, 0.788894, 0.508836, -0.255516, -0.192813, 0.307079, -0.703401, -0.410718, 0.543103, 0.826425, -0.977827, -0.478407, -0.240945, 0.57388, -0.623454, -0.643288, -0.7541, -0.913729, 0.978334, -0.49209, 0.578665, -0.470093, 0.128831, 0.238759, 0.294924, -0.267853, -0.480318, 0.185538, -0.379399, 0.339493, 0.880162, -0.477834, -0.0577255, -0.816839, 0.313696, 0.0853778, 0.0956657, 0.575639, 0.430888, 0.550599, -0.919182, -0.844945, -0.047601, 0.282841, 0.85412, 0.58228, -0.122678, -0.471278, 0.654478, 0.06308, -0.446284, 0.682975, 0.199919, -0.810205, 0.315635, 0.240741, 0.197011, -0.832173, 0.989471, 0.801232, 0.953707, -0.976378, 0.850446, -0.029065, -0.689595, 0.927263, 0.958671, 0.601733, -0.942884, 0.719475, 0.729335, -0.678527, -0.134326, 0.696716, -0.668698, -0.252973, 0.999803, 0.864154, 0.581262, 0.180308, 0.366967, 0.519955, 0.923696, 0.583684, 0.668548, -0.894629, -0.4005, -0.374735, 0.0587469, 0.62818, 0.465198, -0.539458, -0.127714, 0.485294, -0.189133, 0.520209, 0.336853, -0.881475, -0.917058, -0.191119, -0.348889, 0.059795, 0.756105, -0.127505, 0.0793511, -0.415271, -0.977294, 0.929318, 0.686206, 0.398682, 0.946436, 0.761731, -0.978404, 0.176161, 0.0747569, 0.445965, -0.0171219, 0.515082, -0.985619, -0.466777, 0.307088, 0.197753, -0.338504, 0.979364, 0.389396, 0.408919, -0.231588, -0.489711, -0.0368428, -0.0135909, 0.555481, -0.0847897, -0.635007, -0.595002, -0.413524, -0.205428, -0.545222, -0.337568, -0.0355861, 0.530849, 0.228136, -0.760136, 0.344091, 0.734883, -0.596867, 0.353553, 0.582977, 0.561389, 0.417864, -0.806231, -0.886641, -0.107584, -0.00820612, 0.885131, -0.0991867, -0.863179, -0.50479, -0.890266, 0.250805, 0.553864, 0.77196, -0.631933, -0.978191, -0.473575, -0.855488, 0.728244, -0.870556, -0.428091, 0.0129297, 0.0146247, -0.22999, -0.108628, -0.355364, -0.787034, 0.879739, -0.684973, -0.795208, 0.403875, -0.280351, -0.147916, -0.174516, 0.80613, -0.613551, 0.355083, 0.902653, -0.902441, -0.430051, -0.987869, 0.13004, 0.9093, -0.643458, -0.257995, 0.434168, -0.221653, 0.136006, 0.727551, -0.423445, 0.871124, 0.470167, 0.373884, 0.739751, -0.984213, -0.0310441, 0.65054, -0.00586819, 0.282434, 0.822564, -0.376461, -0.346026, -0.935697, 0.233999, -0.355973, 0.684159, 0.0493992, 0.991559, -0.850548, 0.518709, -0.169025, -0.74714, 0.696357, 0.449987, -0.621834, 0.511659, 0.715275, 0.485708, 0.375974, -0.598179, 0.0740119, -0.32531, -0.421494, -0.166937, -0.572906, -0.813213, -0.567866, -0.362994, 0.726467, -0.492584, 0.326853, 0.675947, -0.905614, 0.919182, 0.430756, 0.419067, 0.795258, -0.502809, -0.764045, 0.367197, -0.164509, -0.603986, -0.0875717, -0.254795, 0.633749, 0.239468, -0.542633, -0.453018, -0.599195, -0.905344, 0.236469, -0.851178, 0.0626493, 0.730574, -0.277185, 0.0900224, 0.0345215, 0.270772, 0.519509, -0.83381, -0.211722, 0.453108, 0.388487, -0.22474, 0.8144, -0.258655, 0.902777, -0.00609193, 0.975931, 0.281007, 0.555064, -0.150926, 0.623827, -0.0503596, -0.496981, -0.109925, 0.0779153, 0.853096, -0.781121, 0.700647, 0.0481701, -0.115205, 0.398574, -0.464412, 0.170411, -0.160466, -0.511379, -0.678792, -0.508003, -0.638714, 0.546108, 0.795937, -0.812151, -0.962985, -0.57425, -0.100633, -0.636785, 0.743242, 0.55693, -0.00298214, 0.12179, -0.675508, -0.742371, 0.876128, -0.146904, -0.931628, 0.652149, -0.471868, -0.16999, -0.494152, -0.427611, 0.271806, -0.0420049, 0.8133, 0.269544, 0.49184, 0.871236, 0.217056, -0.784103, 0.252422, 0.334514, 0.445699, 0.719755, -0.902774, -0.924427, 0.639458, 0.0368735, 0.73231, -0.181153, 0.7617, -0.562196, 0.475114, 0.500208, -0.60444, -0.523274, -0.539697, -0.459188, 0.0315588, -0.852829, -0.139622, -0.579728, -0.366645, 0.225884, 0.414528, 0.169782, 0.244975, -0.398817, 0.617527, 0.0924172, -0.772221, -0.153274, -0.0609353, -0.830438, -0.607487, -0.39444, 0.416916, -0.711816, -0.859119, 0.633704, 0.528842, -0.498341, 0.313085, -0.891509, 0.902913, 0.0340958, -0.317541, 0.579427, 0.482395, -0.979481, -0.22624, -0.841798, 0.45375, 0.452996, -0.778276, -0.86289, 0.785959, -0.663177, 0.756832, -0.189893, -0.891121, 0.0161706, -0.670039, -0.179949, 0.0210891, -0.359625, -0.485694, 0.808958, 0.196876, -0.0448606, -0.847168, -0.520481, -0.97308, 0.0266813, -0.358453, 0.583702, -0.155912, -0.429879, -0.613695, 0.767261, -0.839823, -0.988844, 0.103706, -0.201278, 0.884336, 0.595776, -0.669678, 0.990381, 0.547197, 0.142393, -0.948644, -0.68118, -0.224312, 0.979436, -0.801181, -0.620236, -0.173177, -0.845193, 0.443332, 0.433576, -0.617706, -0.81501, 0.342043, 0.986959, 0.598507, -0.305083, 0.331722, -0.501883, 0.0222788, -0.681217, -0.261118, 0.408578, 0.953916, -0.792206, 0.293806, -0.605622, 0.0439434, -0.796114, -0.830972, 0.620877, 0.857427, 0.908698, 0.231852, 0.725756, -0.7918, -0.672497, 0.862542, -0.484454, 0.307781, -0.418071, -0.720368, 0.694268, 0.990832, -0.0167731, -0.333191, -0.0683548, 0.185355, -0.826399, -0.840004, -0.784785, 0.373823, 0.315745, 0.936966, -0.794411, -0.773317, 0.692686, -0.537974, 0.165598, -0.876462, -0.47737, -0.0998108, 0.207621, -0.711782, -0.0305877, -0.907028, 0.960862, -0.772965, -0.383714, 0.964412, -0.0508614, -0.627555, -0.286743, -0.17127, -0.85323, -0.442856, -0.288178, -0.924816, -0.878807, -0.0507392, 0.579926, -0.514272, -0.222221, -0.44087, 0.513806, 0.887799, -0.182114, 0.855339, 0.825305, 0.518292, 0.231277, -0.735065, -0.0916699, 0.284123, 0.0324345, 0.328269, 0.655073, 0.224528, -0.584176, 0.347184, 0.107291, -0.735192, 0.81813, 0.504917, -0.358694, 0.721904, 0.834174, 0.153586, -0.630421, -0.19772, -0.532359, -0.859529, 0.491171, -0.350923, -0.989698, -0.496308, 0.611123, -0.630134, -0.919221, 0.25875, 0.465602, -0.827043, -0.113037, -0.838028, 0.773442, 0.263871, 0.918704, 0.761881, -0.028627, 0.620494, 0.356312, -0.898384, 0.578861, 0.0904839, -0.716253, 0.979981, 0.0971904, -0.881513, 0.159939, 0.509736, -0.522278, 0.87381, -0.220677, -0.412064, 0.798685, 0.785143, 0.0548902, -0.469907, 0.269179, 0.27413, 0.317211, 0.164954, 0.742929, -0.399414, -0.295319, 0.316458, 0.163254, -0.404995, 0.632193, 0.281651, -0.922645, 0.648926, -0.874888, -0.341915, 0.837985, -0.306121, -0.990259, -0.518713, 0.291919, -0.655879, 0.6249, 0.827051, 0.397549, 0.89296, 0.727488, 0.786362, 0.087138, 0.449784, 0.216499, 0.0348857, 0.319428, 0.631653, 0.0147759, 0.00050092, 0.347933, 0.251434, -0.202778, -0.0874888, -0.0854052, 0.838547, 0.71234, -0.615628, 0.689277, -0.52273, 0.457531, 0.166619, -0.0654447, -0.0816048, 0.112331, -0.634988, 0.667041, 0.0812044, 0.75041, 0.474108, -0.981151, -0.187136, -0.540698, 0.887774, -0.46502, -0.587898, -0.511103, -0.447363, 0.356703, 0.695156, 0.0204294, 0.761348, 0.307136, -0.900029, -0.949285, -0.803759, 0.538783, -0.35323, 0.0652792, -0.139686, -0.605615, -0.979471, 0.194937, 0.537228, 0.254302, -0.948844, 0.642769, 0.155182, -0.81101, 0.833153, 0.0950701, 0.596678, -0.921192, -0.456778, -0.790015, -0.0289999, -0.413139, 0.338746, 0.782453, 0.13562, 0.106714, -0.225897, 0.340596, 0.568994, 0.516656, 0.448584, -0.458239, -0.0707651, 0.499253, 0.848727, -0.573705, -0.96, 0.0289486, 0.517329, -0.206142, 0.224301, 0.1654, -0.405968, 0.496135, 0.359891, -0.0415409, 0.517242, 0.459334, -0.180377, -0.829007, -0.378537, 0.940128, 0.353724, -0.938199, -0.416874, 0.098475, 0.853489, -0.456648, -0.842099, -0.338767, 0.711997, 0.857745, 0.0893095, 0.731832, 0.738359, 0.848038, -0.698497, 0.237232, -0.37243, 0.904298, 0.494617, 0.96374, 0.390255, -0.539804, 0.260353, 0.0367877, 0.488898, -0.747669, -0.943672, 0.209997, -0.687948, -0.668731, -0.0253241, -0.963001, 0.686812, 0.0754635, 0.760463, 0.580066, 0.661096, -0.803531, 0.62569, -0.917827, -0.911899, 0.663528, 0.366309, -0.200695, 0.307193, -0.892608, -0.199397, 0.936209, 0.165036, -0.962393, 0.00357545, 0.507635, -0.0650985, -0.186132, -0.317507, -0.762232, 0.228897, -0.759959, 0.505759, -0.468843, 0.012288, 0.351181, 0.679492, 0.389896, 0.840336, 0.619379, 0.816818, -0.287505, -0.891525, 0.892354, -0.719535, -0.904452, -0.116089, -0.746109, 0.417188, 0.873693, 0.96396, 0.58651, -0.0803256, 0.665101, 0.591951, 0.896456, -0.674667, -0.806886, -0.471707, 0.523264, -0.219762, 0.136352, -0.158881, -0.345316, 0.589712, 0.955, -0.00156025, -0.412733, 0.283586, 0.393853, -0.914049, 0.570332, 0.00897956, -0.521832, 0.849085, 0.792897, -0.424242, -0.727708, 0.0721903, -0.0718415, 0.486164, 0.853046, 0.421805, -0.959281, -0.626503, 0.320387, 0.196877, 0.305073, -0.862692, -0.377769, 0.329459, -0.645953, 0.455434, -0.804713, 0.844842, 0.95839, -0.53289, -0.943389, -0.291375, 0.615162, 0.612232, -0.549264, 0.51846, -0.877047, 0.442487, -0.00113715, 0.103922, 0.302942, 0.560323, 0.666274, -0.0853153, 0.833384, -0.594871, 0.00499966, 0.942631, -0.477089, 0.557473, 0.458775, -0.605489, 0.798828, -0.370221, 0.0259498, 0.938547, -0.775418, 0.125028, 0.0485531, 0.469988, 0.686836, -0.631104, 0.582933, -0.96078, -0.593354, -0.728418, 0.657453, 0.934904, -0.682421, 0.604995, -0.770358, -0.746337, -0.0340082, 0.267882, -0.605646, 0.570186, -0.796382, -0.942879, -0.397321, 0.0524955, 0.36628, -0.759485, -0.383714, -0.682714, 0.153826, -0.524343, 0.328578, 0.587092, 0.465032, -0.384142, 0.449328, 0.64154, 0.894416, 0.760919, 0.454596, 0.467352, 0.710507, -0.896018, 0.205569, -0.101234, 0.574319, 0.497954, -0.632305, -0.959274, -0.206183, -0.657009, -0.525784, -0.0527279, -0.0308179, 0.457701, 0.251676, 0.211508, 0.251541, -0.00481675, 0.197509, -0.174253, 0.191705, -0.0922402, 0.196385, -0.770669, 0.413, -0.0723711, 0.726697, 0.679936, -0.844187, 0.208394, -0.405014, 0.43544, 0.931569, -0.2762, 0.545683, -0.212231, 0.672292, -0.586834, -0.655559, 0.177534, 0.431499, -0.0818477, 0.187347, -0.338272, -0.436658, -0.0208738, 0.367078, -0.405444, 0.210133, 0.3771, 0.26168, -0.616874, 0.424475, -0.21548, 0.0152553, 0.379254, -0.737358, 0.0320605, 0.908091, 0.112138, -0.740154, 0.756802, 0.892104, 0.359947, -0.0839937, 0.835273, -0.0715282, 0.612855, -0.376149, -0.828386, 0.527929, 0.317148, 0.661869, 0.538461, 0.27561, 0.947755, -0.133406, 0.460302, -0.959461, 0.640479, 0.59822, -0.430922, 0.448681, 0.515774, -0.508394, -0.97235, -0.563636, -0.274241, -0.328546, 0.89169, 0.184038, 0.790977, -0.64329, -0.451403, 0.0638761, 0.182105, 0.873812, 0.1925, 0.792866, -0.379316, 0.180855, -0.623993, 0.512324, 0.613993, -0.616582, 0.405746, -0.239088, -0.682218, 0.156735, 0.609245, -0.392714, 0.520363, -0.0465015, -0.89712, -0.975095, -0.120957, 0.63186, 0.121059, -0.0666651, 0.673729, -0.19003, 0.42221, -0.599038, 0.263541, -0.528315, -0.719433, -0.507662, 0.822437, 0.849885, -0.138408, -0.707416, -0.552204, 0.529189, 0.597009, -0.285916, 0.344879, -0.260153, -0.59498, -0.986699, -0.902898, -0.961033, 0.993346, 0.798905, -0.0465271, -0.984617, -0.0825064, -0.940085, -0.61143, -0.0707771, -0.989845, 0.344781, 0.5061, -0.165728, 0.201918, -0.0671045, -0.438595, -0.340717, -0.155235, 0.392468, 0.915167, 0.437002, -0.264041, -0.238827, -0.77413, 0.610256, -0.19112, 0.817613, 0.186676, 0.455098, 0.993744, -0.649583, -0.507739, 0.260148, 0.518313, -0.821155, -0.0351864, 0.353764, -0.440414, 0.738355, 0.417866, 0.022504, -0.091791, 0.742783, -0.923677, -0.0490413, -0.659247, 0.959784, 0.302381, 0.079349, 0.612199, -0.758728, 0.559419, 0.338257, 0.897788, 0.233001, 0.329943, -0.0202793, -0.875782, -0.126995, 0.23679, 0.326648, 0.796789, -0.37713, -0.0740333, 0.273741, 0.999323, -0.33379, -0.13304, 0.276747, 0.983062, -0.660356, 0.524365, -0.643897, 0.781819, -0.597898, -0.570986, -0.105933, -0.685485, 0.172246, -0.121019, -0.715796, 0.964772, 0.818974, -0.768273, 0.318014, 0.202918, -0.861859, 0.949566, -0.258978, 0.576743, 0.115906, 0.430178, -0.0706369, -0.405042, 0.0644535, -0.309512, -0.535727, 0.328644, -0.966604, 0.804003, -0.733807, 0.892649, 0.6501, -0.254146, 0.95823, 0.170316, -0.96829, -0.536913, 0.245754, 0.517218, -0.0702733, 0.462144, 0.670399, -0.205271, 0.897061, -0.878439, -0.773492, -0.855204, 0.469297, -0.985654, -0.760403, -0.455267, 0.390515, -0.469603, 0.52771, 0.458875, 0.924943, -0.979892, -0.891055, 0.246175, -0.120973, 0.393522, 0.180149, -0.663105, -0.759153, 0.922835, -0.713595, 0.310206, 0.907806, -0.347099, 0.14195, 0.286499, 0.737085, -0.286996, 0.440926, 0.148163, -0.852607, 0.632636, -0.753861, 0.330605, -0.706142, -0.659884, 0.948728, -0.778301, 0.613988, 0.797669, -0.327538, -0.624203, 0.213083, -0.592246, 0.17963, -0.0268752, -0.479118, 0.437856, 0.164659, -0.893898, 0.589862, 0.680467, 0.922859, 0.442357, -0.665209, 0.175349, 0.0474012, -0.972961, 0.684404, -0.811349, -0.740195, -0.964763, -0.24122, 0.642118, -0.410303, 0.217142, -0.461542, 0.614507, -0.0296472, -0.6275, 0.276541, -0.815293, -0.45202, -0.0329235, 0.889804, 0.213661, -0.634015, -0.76716, 0.252581, -0.860444, -0.108293, 0.264143, 0.844463, 0.248408, 0.967367, 0.667877, -0.858025, 0.490086, -0.489254, -0.293133, -0.602969, -0.316559, -0.452611, -0.937194, 0.246037, 0.979065, 0.438892, 0.0488273, -0.469299, 0.265098, 0.898836, 0.0718403, 0.20657, 0.0630992, -0.24756, 0.0523311, -0.825905, -0.305349, -0.43509, 0.319264, 0.761791, -0.847344, -0.172193, -0.0906123, -0.709236, 0.474914, 0.944142, 0.309036, -0.392369, -0.0335649, 0.00902192, 0.111101, -0.504671, 0.578342, 0.575761, -0.390986, -0.397462, 0.684701, -0.475843, -0.908528, 0.406169, -0.932732, -0.00689471, 0.0679503, 0.523034, -0.814123, -0.216339, -0.631261, -0.804667, -0.815057, -0.962002, -0.112315, -0.49605, -0.88842, -0.00089339, -0.227126, 0.636453, -0.676645, 0.697352, -0.780843, -0.186191, 0.544397, -0.603069, -0.540067, -0.486339, 0.788918, 0.624033, 0.880002, 0.652108, -0.802927, -0.582327, 0.316321, -0.205358, 0.607339, 0.396548, -0.863025, 0.73663, -0.786047, -0.443482, -0.628947, -0.567193, 0.0766646, -0.374499, -0.190082, 0.673944, -0.775764, -0.914817, -0.918785, 0.609795, -0.428492, -0.793454, 0.775573, 0.0554737, 0.219027, -0.507359, 0.308525, -0.428807, -0.141804, -0.360692, 0.612175, 0.608147, -0.989652, 0.0728957, -0.783001, 0.992952, 0.311198, 0.920423, 0.42059, -0.0319829, -0.982717, -0.553469, -0.913789, 0.616947, 0.294838, 0.875883, -0.406007, -0.740854, -0.0812463, 0.977414, -0.766903, 0.99306, 0.705604, -0.0652422, -0.687463, 0.818284, -0.594071, -0.365981, -0.253741, 1.00529, 0.0225914, -0.073509, -0.75435, -0.906597, 0.593357, 0.694473, -0.629285, 0.383424, -0.404264, 0.712957, -0.117533, -0.516684, 0.724517, 0.065407, 0.312982, -0.957262, -0.901309, -0.031401, -0.651247, -0.609143, 0.33413, -0.20749, -0.197211, -0.980117, 0.450532, -0.829112, -0.528006, -0.134791, -0.356312, 0.653777, -0.257199, 0.842241, -0.674403, -0.385089, -0.739979, 0.252676, -0.232181, -0.448431, -0.34802, -0.604362, 0.421733, -0.390266, 0.0513125, -0.628107, -0.119353, 0.319028, -0.501607, 0.33476, -0.514051, -0.843683, 0.550709, -0.52977, 0.419541, -0.199545, -0.786691, 0.642828, -0.611958, 0.66683, -0.14707, -0.409323, -0.948869, -0.939381, 0.223373, -0.694696, -0.691606, -0.34657, 0.834115, 0.179785, 0.701678, 0.00563664, -0.676506, 0.315723, -0.543028, -0.915301, -0.619434, 0.828689, -0.945678, 0.307852, -0.517002, 0.972044, 0.54256, -0.0515246, -0.24186, 0.836203, -0.492459, 0.219604, 0.0632897, -0.352424, -0.168296, -0.650291, 0.186179, -0.150521, -0.509787, -0.958412, -0.575577, -0.832179, -0.280067, -0.530969, 0.0397534, 0.440514, -0.472531, -0.0237395, 0.190315, -0.137379, 0.795278, -0.444822, 0.279921, 0.256589, -0.914858, -0.516823, -0.0305113, -0.968183, 0.77243, -0.966179, -0.452391, -0.252935, 0.610036, 0.450971, 0.393595, -0.629998, -0.387653, 0.856581, 0.471703, 0.609817, 0.159352, 0.722892, 0.559252, -0.494398, 0.199628, -0.179459, 0.887128, 0.261012, 0.613123, -0.277597, 0.415541, -0.49436, -0.373066, -0.147092, -0.288352, -0.158319, 0.174498, -0.580196, 0.754786, -0.0516459, -0.24809, 0.00509911, 0.685057, -0.897432, -0.988848, 0.649275, -0.426035, 0.933185, -0.809777, 0.100864, 0.949924, 0.540092, 0.38812, -0.344594, 0.932953, 0.34844, 0.378214, 0.153205, -0.72019, -0.248931, 0.505137, -0.845138, -1.00519, -0.148831, -0.858321, 0.00670296, -0.897961, 0.506891, 0.872129, -0.762383, 0.920071, 0.513164, 0.981249, -0.810114, -0.345127, -0.651987, -0.531307, -0.737962, 0.402566, 0.47766, -0.614358, -0.434614, 0.509933, 0.859687, -0.869806, 0.81248, 0.890803, 0.581535, -0.74607, -0.532105, 0.056904, -0.167309, -0.271418, 0.634361, -0.49053, -0.322446, -0.211733, -0.618497, 0.43978, -0.743317, 0.823082, -0.899346, 0.180154, 0.962191, -0.401842, 0.507388, 0.850943, 0.130909, 0.0751093, 0.310705, -0.179875, 0.573346, -0.395212, 0.87042, -0.023258, 0.0517433, -0.0181492, -0.663558, -0.778254, 0.27556, 0.653141, 0.426534, 0.443704, -0.0888596, -0.0790146, -0.720254, -0.324524, -0.458424, 0.246122, -0.0423133, -0.967128, 0.318579, 0.923013, 0.529722, -0.981375, 0.134689, 0.669502, 0.676342, -0.624026, 0.871988, -0.0337033, 0.0856399, -0.559052, -0.957891, 0.471367, -0.280245, 0.340546, 0.77585, -0.204397, -0.107971, 0.98288, 0.675177, 0.361863, -0.737539, 0.56906, -0.614097, -0.274301, -0.0779366, -0.80127, 0.480034, 0.683663, -0.804529, -0.313387, 0.988056, -0.208181, -0.323697, 0.070157, -0.299823, 0.261941, 0.659445, -0.15785, 0.0483838, -0.445989, -0.314174, -0.0835045, -0.258505, 0.623079, -0.881236, 0.594624, 0.673677, -0.895535, 0.28563, -0.598549, -0.169285, -0.691682, -0.448221, -0.802427, -0.906471, 0.245742, -0.186513, 0.716867, -0.914229, -0.446567, 0.451646, 0.527841, 0.818839, -0.186467, -0.635273, 0.461858, 0.430927, 0.720724, 0.420009, 0.0997903, -0.205463, -0.992052, -0.74683, -0.567597, -0.317415, -0.0902908, 0.122314, -0.976739, 0.442575, 0.990692, -0.738993, -0.104132, 0.414328, -0.875287, 0.979071, -0.577653, -0.744105, 0.568118, 0.688531, -0.114375, -0.303531, 0.314728, 0.526741, 0.467376, -0.288852, -0.304368, 0.485419, -0.91851, 0.121944, -0.643277, -0.961695, -0.713657, -0.182443, 0.120343, -0.853685, -0.569897, -0.844746, 0.914737, -0.736527, 0.239194, 0.853168, -0.200978, 0.26199, -0.401968, 0.581053, 0.0248316, -0.669335, 0.2993, 0.918395, 0.21511, -0.609065, -0.792116, 0.408191, -0.339407, 0.102791, -0.502663, -0.538572, -0.387153, -0.67068, 0.68959, 0.282624, 0.870339, -0.956846, 0.295708, -0.249035, -0.890794, -0.104912, 0.394103, 0.379775, 0.616302, -0.796267, 0.530303, -0.659553, -0.0524537, 0.995584, 0.874526, -0.604351, 0.794507, -0.859618, 0.422809, -0.146931, 0.663837, -0.941697, -0.889758, 0.0550009, 0.759503, 0.566835, 0.565503, 0.636043, 0.900357, -0.941175, -0.363938, -0.795412, -0.792644, 0.728202, 0.574392, -0.202613, -0.182271, 0.924075, -0.158224, -0.0779005, 0.795228, 0.130296, 0.704539, 0.764661, -0.964504, -0.854817, 0.312346, -0.836183, -0.532455, 0.179548, 0.613426, -0.633701, -0.33282, 0.70858, -0.355194, -0.351272, 0.231816, 0.511047, 0.0285291, 0.672001, -0.102489, -0.319271, 0.210345, -0.943596, 0.851798, -0.236942, 0.94363, 0.765013, 0.397962, -0.302948, 0.235042, -0.230152, -0.739042, -0.295355, 0.0815325, 0.738202, 0.179265, -0.979908, 0.861242, 0.201531, 0.738495, 0.0574787, 0.611671, -0.776073, -0.0947178, 0.363213, 0.0294178, -0.331585, 0.326837, -0.488386, -0.877135, 0.689247, -0.718175, -0.0405784, -0.957306, -0.697588, -0.0157675, 0.208553, -0.883898, -0.630302, 0.150324, 0.950595, 0.601255, 0.889063, 0.346925, 0.0629778, -0.477433, 0.903204, -0.665197, 0.28638, 0.435111, 0.65609, -0.457363, -0.407674, -0.348378, 0.610437, -0.279175, 0.31418, 0.520511, 0.549921, 0.920551, 0.336767, 0.313311, -0.985753, 0.214151, 0.197956, -0.0392851, -0.544132, 0.678585, -0.373777, -0.493275, 0.572989, 0.723014, -0.645165, 0.079255, -0.514735, -0.90796, -0.394527, -0.494124, 0.0773184, 0.407477, -0.944183, -0.882993, -0.670657, 0.23117, 0.136502, 0.881456, 0.625453, -0.362761, -0.28488, -0.494256, -0.548215, -0.858099, 0.765556, -0.0620373, -0.720886, -0.836638, -0.385013, -0.987986, 0.953563, 0.0441436, 0.629535, 0.322031, -0.498342, 0.69055, 0.700872, -0.17416, -0.622936, -0.641759, -0.632664, -0.996806, -0.687804, -0.942929, 0.37672, 0.644585, -0.511921, -0.376577, 0.87518, 0.786195, 0.438421, 0.502868, 0.787581, 0.457023, -0.0612907, -0.932321, -0.765372, -0.746435, 0.806405, 0.25272, -0.248049, -0.6981, 0.606506, -0.516773, -0.977109, 0.82644, 0.540269, 0.497136, -0.196445, -0.205538, -0.751501, 0.0550809, 0.0408998, -0.733624, -0.960172, -0.309561, -0.974252, 0.810449, 0.630824, -0.107528, -0.735996, -0.682993, -0.0856266, 0.620017, -0.429612, 0.0531036, 0.354558, 0.658809, 0.485217, -0.0722892, -0.206772, 0.451276, -0.44886, 0.325057, 0.194752, 0.609683, -0.73655, 0.464379, -0.519292, 0.148224, -0.680768, 0.655334, -0.574123, -0.761916, 0.246956, 0.51857, 0.205567, -0.547279, -0.712926, -0.344885, 0.025036, -0.431721, 0.290263, 0.582761, 0.431267, -0.105548, 0.259794, -0.602943, 0.121867, -0.0467697, 0.959222, -0.76824, -0.909645, -0.582512, 0.083719, -0.783233, 0.397773, 0.609131, 0.322918, -0.314774, 0.327918, 0.422133, -0.778475, 0.486405, 0.128966, 0.830577, 0.147746, 0.396891, 0.33831, -0.626085, 0.0407194, -0.243838, -0.131838, 0.173998, 0.11887, -0.405235, 0.544685, 0.716985, -0.523837, 0.165502, -0.579679, -0.801542, -0.603525, -0.447413, -0.118244, 0.0248584, -0.248831, 0.99274, 0.898022, -0.885748, 0.199057, 0.0509966, 0.715206, 0.92582, 0.587969, -0.0302568, -0.929292, 0.535961, 0.970029, 0.531563, 0.978733, 0.15194, 0.795874, 0.378632, -0.764334, -0.381204, -0.223479, -0.841757, -0.589561, -0.329985, -0.182244, -0.512418, -0.41506, -0.757169, 0.0991607, 0.874709, 0.651648, 0.0844124, 0.154153, -0.175051, -0.848381, -0.109477, -0.873078, -0.00989834, -0.663893, 0.812634, 0.730343, -0.526533, -0.287672, 0.489128, 0.422858, -0.151763, 0.0348668, -0.790802, -0.570661, 0.780751, 0.134605, -0.443079, 0.715644, -0.781521, -0.129442, 0.742857, -0.467132, -0.414059, -0.720678, -0.365912, -0.642833, -0.55413, -0.275593, -0.842059, 0.607459, -0.00105732, -0.848874, -0.275079, 0.74068, 0.487695, 0.879882, -0.345211, 0.793014, 0.284449, 0.626857, -0.478813, 0.312167, 0.779436, 0.871691, 0.479519, -0.464809, -0.0941244, -0.776445, -0.663607, 0.694515, -0.0514153, 0.379223, -0.1644, 0.228787, -0.257719, -0.815917, -0.344865, -0.62055, 0.112692, 0.609143, -0.127555, 0.314743, -0.736043, -0.253677, 0.0646823, -0.572947, 0.508004, -0.778803, 0.255474, 0.169241, -0.753301, 0.246994, -0.51372, -0.411878, 0.329045, -0.188181, 0.0102447, 0.949671, -0.593607, 0.716873, 0.749026, 0.39687, -0.782655, -0.0666018, -0.358584, 0.0513051, -0.436533, 0.964095, -0.198332, 0.121409, -0.979585, 0.503769, 0.368934, 0.753501, 0.72845, -0.227401, 0.828855, 0.350929, 0.817303, -0.410762, -0.459268, -0.0789577, 0.551431, -0.19468, 0.0449461, -0.306254, 0.673491, -0.629269, -0.41379, 0.23782, -0.513353, -0.448807, -0.605704, 0.899496, -0.0242621, 0.0969775, 0.514417, 0.577014, -0.23422, -0.595953, 0.382677, -0.0978396, -0.458032, -0.894776, 0.471338, -0.791604, -0.0258488, -0.663012, -0.462031, 0.48216, 0.907018, -0.0063845, -0.855753, -0.762099, -0.275915, -0.054973, -0.869865, 0.747876, 0.724305, -0.384713, -0.391121, 0.796241, -0.600395, 0.129737, -0.499983, -0.0103948, 0.575949, -0.0769699, 0.113642, 0.280136, -0.821671, -0.986951, -0.531929, -0.735211, -0.591614, -0.69596, -0.17641, 0.333194, 0.235735, 0.852344, -0.696248, -0.668184, -0.697223, 0.660257, 0.309161, -0.469373, -0.0728175, 0.0264423, 0.412992, -0.334436, -0.609424, -0.485666, 0.0185048, -0.388022, -0.27127, 0.984958, -0.980318, -0.298352, 0.000653665, -0.96551, 0.875442, -0.645263, 0.539585, 0.69043, -0.77098, -0.745291, -0.895948, 0.5814, -0.849712, -0.125331, 0.547601, -0.696451, 0.603029, 0.323834, 0.424053, -0.563513, 0.163152, 0.0588602, -0.304544, -0.475375, -0.763228, 0.676554, -0.417775, 0.503797, 0.427128, -0.691913, -0.562452, -0.912941, -0.00595071, -0.468239, 0.137987, 0.150637, -0.493331, -0.883209, 0.461877, -0.396869, 0.899428, -0.97925, 0.160487, -0.406057, -0.253171, 0.922124, -0.275505, -0.689226, 0.0316471, -0.0619491, 0.286958, -0.330772, 0.150781, 0.127387, -0.795162, 0.192644, 0.113044, 0.808554, 0.617619, -0.43605, 0.418087, 0.988824, 0.700532, -0.524186, -0.0365214, -0.454338, 0.854127, 0.603714, -0.513094, 0.760861, -0.337071, -0.159905, 0.973261, 0.833173, 0.603106, -0.106981, 0.646289, -0.836402, 0.70403, 0.861556, 0.821431, 0.490739, -0.961178, 0.133096, -0.194431, -0.688512, 0.960733, 0.486677, 0.950552, 0.520807, 0.489739, 0.477359, -0.168865, 0.518717, 0.588393, -0.756491, -0.300371, 0.520575, -0.46793, 0.447115, 0.349995, 0.390943, 0.452819, 0.155493, -0.0467928, 0.974774, -0.71687, -0.495022, 0.628297, -0.864044, -0.304558, 0.53456, -0.037053, -0.951287, 0.876728, 0.581799, 0.486197, -0.554679, 0.659923, -0.32088, -0.382735, -0.237516, 0.747967, -0.921687, -0.933565, -0.768473, 0.94348, -0.096284, 0.0298438, -0.958105, 0.466266, 0.624749, -0.206831, -0.185196, -0.294548, 0.251188, 0.243241, -0.181875, 0.81998, -0.237992, 0.270168, -0.91696, 0.187369, 0.850085, -0.402317, 0.921456, -0.554212, -0.216994, -0.88315, -0.86898, 0.60779, 0.936573, 0.576016, -0.0612864, -0.891083, 0.193225, 0.279211, -0.382908, 0.446134, 0.0269651, 0.933002, 0.822168, 0.64313, -0.640037, 0.296687, -0.909256, 0.494987, -0.994488, 0.871275, -0.583312, -0.0256257, -0.713711, -0.72138, 0.0740513, 0.742337, -0.72681, -0.268066, 0.388233, 0.649653, 0.982198, -0.0993005, 0.603838, 0.518784, -0.406295, 0.860347, 0.657644, -0.993685, 0.683241, -0.62053, 0.850103, 0.911056, 0.967415, 0.124862, -0.661487, -0.0201236, -0.694419, 0.309603, 0.0616643, -0.304418, 0.71484, 0.922201, -0.0338649, -0.318415, -0.183431, -0.230643, -0.290366, 0.700079, 0.67888, 0.287127, -0.88875, -0.294684, 0.379557, 0.810297, 0.240992, 0.857019, 0.492797, -0.440969, 0.558905, -0.573146, 0.141467, 0.720225, 0.840499, -0.640307, -0.508305, 0.0861659, -0.129094, 0.163493, -0.996536, -0.977499, 0.52436, 0.860362, -0.252212, 0.450812, -0.166858, 0.880442, -0.464444, -0.312821, 0.366501, -0.196682, -0.223712, 0.729011, -0.952489, 0.402022, -0.405123, -0.740543, -0.810173, -0.99342, 0.786319, -0.368686, -0.869486, 0.413374, 0.256507, -0.711232, 0.966744, -0.889927, -0.151287, -0.335829, -0.192267, -0.821876, -0.408399, -0.0114799, 0.655254, 0.416523, 0.536329, 0.111036, -0.425457, 0.958852, 0.971833, -0.467174, 0.471101, -0.304166, 0.560863, -0.886344, -0.777054, 0.460411, -0.395964, 0.251161, 0.865109, 0.0377439, -0.0554629, -0.658469, 0.358918, 0.733674, 0.923825, 0.767742, 0.0644929, -0.581025, -0.672407, 0.337953, -0.0977543, -0.231478, -0.0154756, 0.712084, -0.719391, -0.0679685, -0.962384, 0.32235, -0.445985, 0.115944, -0.189725, -0.227819, -0.924572, -0.233187, 0.899642, -0.554432, 0.800752, -0.288423, -0.173705, 0.882845, 0.944042, 0.488342, 0.406085, -0.177647, 0.127147, 0.483028, -0.422113, -0.546597, -0.472446, -0.255108, -0.129826, 0.094665, -0.926409, 0.541949, 0.619716, 0.391798, 0.0384198, 0.89342, 0.597204, -0.315829, -0.895485, -0.825238, -0.123776, 0.301889, -0.325283, -0.75809, -0.524366, -0.871889, 0.57486, 0.0818208, -0.840561, -0.75401, -0.226865, -0.833682, -0.366738, 0.148431, 0.570178, 0.801676, 0.935779, 0.903674, -0.0741186, 0.735632, 0.10532, 0.757797, 0.328782, 0.172599, 0.0537977, 0.451957, 0.932259, 0.0655394, 0.409354, -0.0456924, 0.75142, -0.784245, 0.705789, 0.0638837, 0.230846, -0.569404, -0.79932, -0.822448, -0.156298, 0.507249, 0.250667, 0.76484, -0.219547, 0.977048, 0.593741, 0.378195, 0.176316, -0.139378, 0.68263, -0.498211, 0.354146, 0.146298, -0.0228985, -0.638002, -0.419469, 0.930866, -0.230116, 0.951819, 0.97433, -0.919265, -0.539205, 0.661671, -0.819442, -0.275067, -0.349045, -0.354325, 0.639731, -0.148023, 0.0179508, -0.0198408, -0.541247, 0.0244229, -0.180297, 0.647179, -0.882107, -0.0909804, 0.615322, -0.589354, -0.112856, 0.323548, 0.535225, 0.804134, 0.627169, 0.24665, -0.189964, -0.463025, 0.343582, -0.419973, -0.669169, 0.788795, 0.494961, -0.771468, -0.220076, -0.0560426, 0.226349, -0.801452, -0.204693, 0.272222, 0.952188, 0.348425, 0.49717, 0.997493, -0.665326, 0.284971, 0.897517, 0.398273, -0.221536, -0.908348, 0.68703, -0.228918, -0.487268, 0.984889, 0.509459, -0.510909, -0.106977, 0.350467, 0.538645, -0.14378, -0.364356, -0.922078, -0.172119, -0.849871, -0.852113, 0.451733, -0.84996, 0.88014, 0.961445, -0.771853, -0.760994, 0.630152, 0.207646, -0.957438, 0.765342, -0.920232, -0.278971, -0.235098, -0.852783, 0.423454, 0.608296, 0.545103, 0.354011, -0.657737, 0.410727, -0.425034, -0.540144, -0.630831, 0.938041, 0.0752597, 0.493046, 0.3488, -0.181988, -0.202349, 0.747267, 0.437605, -0.707542, 0.2576, -0.699975, -0.412885, 0.695303, 0.828795, 0.211925, 0.0537571, -0.264643, 0.158345, 0.363351, -0.194673, -0.997515, 0.194168, -0.869335, 0.644008, 0.203933, 0.29082, 0.433463, -0.581785, -0.592852, 0.801369, 0.891366, 0.131279, 0.266702, -0.286603, 0.979237, -0.142152, -0.640376, 0.890462, -0.518758, -0.610933, 0.606717, 0.382045, 0.700723, 0.112606, -0.595033, -0.931182, -0.626195, -0.537822, -0.205728, -0.585833, 0.522469, -0.350448, -0.0702191, -0.376692, 0.110663, -0.721566, -0.140636, 0.643655, -0.75897, -0.89356, 0.348154, 0.248792, 0.599965, 0.118967, -0.356521, -0.239648, -0.357903, -0.822269, 0.889695, -0.680369, -0.912128, 0.43927, -0.515949, -0.91318, -0.997744, 0.228768, 0.271926, -0.772108, 0.269585, -0.0643671, 0.437478, 0.933484, 0.334868, -0.78935, -0.632778, 0.772127, -0.884955, 0.344252, -0.418695, 0.915981, 0.797451, -0.310471, -0.237836, -0.931156, 0.240971, -0.281811, -0.387126, -0.96637, -0.159647, -0.867248, 0.440326, 0.50906, 0.601344, 0.845271, 0.785759, 0.131723, 0.0931112, 0.832014, -0.891073, -0.49837, 0.505286, 0.220024, -0.648377, -0.371505, 0.251324, -0.795614, 0.337308, -0.317125, -0.769936, 0.572851, 0.134339, 0.338814, 0.635037, -0.0785159, -0.780336, 0.239926, 0.368056, 0.150621, -0.169442, 0.469717, 0.378256, -0.678151, 0.320865, -0.823912, -0.874261, -0.625175, -0.596495, -0.16838, 0.713005, -0.563622, -0.657833, 0.950359, 0.498051, -0.804444, 0.418131, 0.453687, 0.996607, -0.111569, -0.459452, 0.330005, 0.161663, -0.0150922, -0.807184, -0.781709, -0.277237, 0.275027, 0.31143, -0.834135, -0.443094, 0.76897, -0.50658, 0.0970258, 0.0348791, 0.353222, 0.525759, 0.474723, 0.839328, 0.806027, 0.111605, 0.0477412, 0.68283, 0.878482, -0.30152, 0.877129, -0.982065, -0.802691, 0.369005, 0.530752, -0.669595, 0.63399, 0.974275, -0.0646547, 0.976855, -0.772101, -0.734253, -0.873377, 0.853555, 0.559594, -0.621646, -0.0951983, -0.384249, -0.332325, -0.243397, 0.183939, -0.048471, 0.748767, -0.218519, 0.994046, 0.0415655, 0.839849, -0.79336, -0.538515, 0.531298, -0.626259, -0.576271, 0.603841, -0.321097, 0.272969, -0.346403, -0.778354, -0.890144, -0.274596, -0.731494, -0.0461491, 0.357086, -0.618768, 0.900295, 0.551774, -0.881165, -0.161771, -0.444383, 0.604802, 0.14332, -0.89, -0.303459, 0.21144, 0.0798738, 0.921555, 0.434355, 0.710949, 0.862917, -0.801244, 0.493861, -0.388916, -0.339938, -0.061375, 0.861428, -0.779559, -0.11062, -0.629804, -0.691933, -0.0071195, 0.919023, -0.113651, 0.530998, 0.18356, -0.89926, 0.0786933, -0.97655, 0.422829, 0.809965, -0.805779, -0.737096, -0.190569, -0.905056, -0.441236, 0.954479, -0.822768, -0.228011, -0.204081, -0.166251, 0.788276, -0.719108, 0.366116, -0.892021, 0.405619, 0.650388, 0.827518, 0.464347, 0.159336, 0.344475, 0.840669, 0.702924, -0.734865, -0.59002, -0.723384, -0.314899, -0.246952, -0.028527, -0.763175, -0.806949, 0.369003, 0.934183, -0.0948392, 0.00485052, -0.447167, -0.876575, 0.878523, -0.27176, -0.714129, -0.972038, -0.565257, 0.461181, -0.751995, -0.982032, 0.86023, -0.891657, -0.988336, 0.532401, -0.0665955, -0.688922, -0.214485, -0.693221, 0.398616, 0.200838, -0.21213, -0.193059, 0.917774, -0.854836, 0.836818, 0.827862, -0.783049, 0.573993, -0.845171, 0.36723, -0.449339, -0.788855, 0.184162, 0.49821, -0.8562, -0.400156, -0.609523, -0.296835, 0.0315371, -0.256163, -0.304237, -0.768723, -0.371636, 0.172551, 0.257083, 0.407423, 0.707548, 0.73513, -0.654402, -0.211338, -0.13305, 0.668187, 0.00339342, -0.149262, 0.0493523, 0.487295, 0.260295, 0.518651, 0.913788, 0.630384, -0.112064, -0.840734, 0.434702, 0.58328, -0.0452588, -0.740093, -0.629438, -0.187352, 0.587843, -0.386362, 0.375364, -0.204981, -0.101586, 0.153603, -0.496266, 0.464429, -0.708851, -0.8668, -0.0629486, -0.495422, -0.791081, -0.775985, -0.718124, -0.579779, -0.983943, 0.727421, 0.896742, -0.0470956, -0.660386, -0.296618, 0.714447, 0.687696, 0.795996, -0.809358, 0.405144, 0.387999, 0.120996, -0.194345, -0.84855, -0.0895854, 0.980633, -0.131929, 0.741621, -0.559139, -0.636448, -0.495417, -0.457281, 0.669362, -0.827062, 0.0494473, 0.292537, 0.158207, 0.274352, -0.541347, -0.839986, -0.943407, 0.366851, 0.268995, 0.084186, -0.481483, -0.963168, -0.951842, -0.276128, -0.564707, -0.740848, -0.769508, 0.177454, 0.31667, 0.741535, -0.489267, -0.415092, -0.839555, -0.461035, 0.988124, 0.657153, -0.560857, 0.265274, -0.843298, 0.569407, 0.603806, 0.336891, 0.664517, -0.701154, 0.609972, 0.224032, 0.532183, -0.863967, -0.425175, -0.941147, 0.00943895, 0.524372, -0.983875, 0.775469, 0.116723, -0.616494, -0.0728542, 0.308812, -0.38615, 0.892816, 0.110637, -0.0467616, -0.752074, 0.890134, -0.507868, 0.506901, 0.774381, -0.582158, -0.656546, -0.971535, 0.680363, 0.940855, -0.275078, -0.56215, -0.0169281, 0.0420472, -0.683551, -0.195956, 0.615266, -0.17901, 0.882582, -0.30893, 0.868547, -0.0992475, 0.0561116, -0.295917, -0.223008, -0.743285, 0.3892, 0.523533, -0.753042, -0.346084, -0.0851745, 0.874716, -0.608212, -0.813686, 0.702828, -0.231433, -0.195218, 0.768049, 0.474674, -0.214428, -0.505793, -0.46283, 0.769388, 0.246337, 0.908065, -0.207371, 0.793699, -0.333666, -0.912428, -0.744498, -0.00857561, -0.773164, -0.493767, 0.297934, 0.219006, 0.960685, -0.784042, 0.230983, -0.742869, 0.442568, 0.451571, 0.295022, -0.883719, 0.206137, 0.201217, 0.205751, 0.011933, 0.630095, 0.0552784, -0.132499, -0.890301, 0.751753, -0.193577, -0.940467, -0.82175, 0.401059, -0.474019, -0.975619, 0.992565, 0.362871, -0.330561, 0.898754, 0.648533, -0.717987, 0.161396, 0.352174, 0.903203, -0.171345, 0.0164977, -0.578908, -0.697927, -0.697391, -0.379904, -0.944946, 0.0152223, -0.377738, -0.74243, 0.0780224, 0.599208, -0.72937, 0.894642, 0.636112, -0.416745, -0.361498, 0.771013, -0.51868, 0.829646, -0.675908, 0.601971, 0.20253, -0.126495, 0.526761, -0.961648, -0.67087, -0.0312436, -0.872036, 0.166819, -0.0636369, -0.901458, -0.821576, -0.51672, -0.568466, 0.677268, -0.345591, -0.700225, 0.301226, 0.751892, -0.550351, -0.646359, 0.795339, -0.709736, 0.772362, -0.336482, -0.00968758, -0.00912099, 0.208499, 0.747121, 0.824304, -0.593644, 0.639742, 0.680052, -0.801234, 0.449012, -0.599685, 0.725769, 0.176149, -0.0860583, -0.72774, 0.341774, 0.863694, 0.256231, 0.254068, -0.678086, -0.0554201, 0.000733459, 0.0928513, 0.603293, 0.614944, -0.56841, -0.152245, -0.399584, 0.456949, -0.80319, -0.351682, 0.376797, -0.761034, -0.234075, -0.702522, -0.340928, -0.622556, 0.816511, 0.663403, -0.33488, -0.456274, 0.145626, 0.567574, -0.688461, -0.0641823, -0.240301, 0.240777, -0.861805, -0.334291, -0.446263, -0.359917, 0.229196, 0.516928, -0.920689, 0.700864, -0.3869, 0.932476, -0.828349, 0.385207, -0.927682, -0.501078, 1.00644, 0.487324, 0.345088, 0.0884544, 0.600898, -0.255258, -0.487657, 0.823723, 0.861445, -0.697544, -0.47603, -0.555615, 0.27851, 0.36406, -0.259197, -0.443159, -0.541297, -0.524348, -0.396376, -0.81996, 0.0590889, -0.938886, -0.982163, 0.621836, -0.293692, -0.137598, -0.533324, 0.670107, 0.480257, -0.758534, 0.590121, 0.286, 0.401708, 0.409866, -0.4938, -0.359754, -0.599111, -0.360766, 0.198833, -0.159661, 0.512252, -0.648551, -0.550058, -0.173286, 0.179984, 0.142417, 0.55731, -0.554424, -0.398788, 0.801982, 0.536271, 0.480734, 0.873776, 0.894341, 0.667785, 0.24597, -0.37868, 0.0040815, 0.543542, 0.835342, 0.236747, -0.809378, 0.576477, -0.250262, 0.83848, 0.224715, 0.333126, -0.922133, 0.893802, 0.665984, -0.141719, -0.250196, -0.476049, 0.921186, -0.018169, -0.388102, -0.877079, 0.19939, -0.0210684, 0.556173, 0.361514, 0.140468, -0.770987, 0.0592619, -0.105647, 0.313999, -0.287303, -0.810553, -0.472743, 0.918309, 0.904321, 0.0962069, 0.340253, 0.0230583, -0.14781, -0.447084, 0.785506, 0.55104, 0.510809, 0.468489, 0.143879, -0.274718, 0.756975, 0.768137, -0.272691, 0.194789, 0.020245, -0.272577, 0.16614, -0.0102679, 0.229567, -0.00452406, -0.866595, -0.123499, -0.559893, -0.219703, 0.920802, 0.69805, -0.170792, -0.262112, 0.178947, 0.309716, 0.414195, 0.698269, -0.814981, -0.0677385, -0.932226, 0.621795, -0.649609, 0.933373, -0.415006, 0.528021, 0.618749, -0.447851, -0.828666, 0.820206, 0.256599, -0.988137, 0.526759, -0.72157, -0.75805, 0.268562, 0.169125, -0.211247, 0.0395851, 0.336987, 0.305934, -0.134929, 0.859454, -0.314265, 0.750569, 0.0211224, -0.697406, -0.569131, 0.168764, -0.162488, -0.303376, 0.547772, -0.529763, -0.877375, -0.304327, -0.838352, 0.217736, -0.836124, 0.420301, 0.726772, 0.106529, -0.798104, -0.546533, -0.299202, -0.637085, 0.55472, 0.869151, -0.035292, -0.715384, -0.882131, 0.345943, -0.44321, -0.0497892, -0.161753, -0.267666, 0.751427, 0.450987, -0.998474, -0.870973, -0.124655, 0.611376, 0.366891, 0.475463, 0.504985, -0.243042, -0.984609, 0.876348, 0.0177957, 0.44223, 0.111307, 0.283389, -0.855223, -0.465002, -0.212131, -0.178904, -0.871406, 0.833391, 0.34862, 0.909748, 0.0266007, -0.385942, 0.104587, -0.68594, -0.135607, 0.650817, 0.363456, 0.316985, 0.598589, 0.183464, -0.56396, 0.392029, 0.645048, 0.769359, -0.878805, 0.912913, 0.878728, 0.80763, -0.721402, -0.0702897, -0.327801, 0.909702, -0.615081, 0.953611, -0.131635, -0.417662, -0.0851397, -0.369245, -0.650119, 0.347936, -0.646634, -0.886426, 0.123051, -0.0848175, 0.984108, -0.375656, -0.432309, -0.12272, 0.465371, 0.819888, -0.848413, 0.0942933, 0.48455, -0.448901, -0.103282, 0.390895, -0.776921, 0.615601, 0.257101, -0.666167, 0.344321, -0.955598, 0.750324, 0.719871, 0.18766, 0.657212, -0.147605, 0.773784, 0.227726, 0.530923, -0.23488, 0.928426, 0.604167, 0.389459, -0.314773, 0.60067, -0.889735, -0.951834, -0.425305, -0.949695, 0.669194, -0.23911, -0.918058, 0.134063, -0.672298, -0.00409607, 0.87262, 0.204988, 0.414499, 0.817376, -0.535004, -0.83376, -0.56898, 0.0428665, 0.685018, -0.590998, 0.728837, 0.866227, -0.131699, -0.13676, -0.502317, -0.983091, -0.249931, 0.921312, 0.718743, -0.5968, 0.30873, -0.710622, 0.202042, -0.446128, 0.113731, -0.230689, -0.409064, -0.200289, 0.692823, 0.953241, 0.818526, 0.376658, -0.602685, -0.380563, -0.654762, -0.437612, -0.564843, 0.196905, 0.113332, 0.713435, -0.593601, -0.0907692, -0.663722, -0.251005, 0.924712, -0.0970702, 0.784766, -0.462384, -0.959138, -0.754608, 0.745247, 0.555233, 0.347017, -0.449392, 0.0947992, 0.933022, 0.109174, -0.880863, 0.650644, 0.951652, 0.0286439, -0.562096, -0.284714, 0.102437, -0.642258, -0.255832, 0.638138, -0.25772, -0.864622, 0.800866, -0.979569, -0.798426, -0.184268, -0.963345, -0.493893, -0.642727, 0.798698, -0.260601, 0.179815, 0.0854679, -0.581369, 0.0436681, 0.595228, -0.103954, -0.915461, 0.32683, -0.272604, 0.130315, -0.00673773, -0.50128, -0.120239, -0.518468, 0.44038, 0.655032, 0.355474, -0.897346, 0.878399, 0.440112, -0.979376, -0.610832, -0.797673, 0.479675, -0.642002, 0.143077, 0.560653, -0.967387, 0.531866, -0.576766, 0.559337, -0.459289, -0.49194, 0.133619, 0.548131, 0.174142, -0.210904, 0.256395, 0.662118, 0.22158, 0.918114, 0.794689, 0.738379, -0.49192, 0.29022, -0.0243174, -0.934838, -0.0939341, 0.904722, -0.382599, -0.0459591, 0.938827, -0.256354, 0.656737, -0.982842, 0.621756, 0.856071, -0.67995, -0.923259, 0.300195, 0.929555, 0.976672, 0.794143, 0.172536, -0.0978942, 0.678863, 0.742071, 0.113816, -0.0404079, 0.671043, -0.528982, -0.697949, 0.408711, -0.621474, 0.29709, 0.320974, 0.542578, 0.823999, 0.902676, -0.63595, 0.176277, 0.448669, 0.0958544, -0.447605, -0.717135, 0.893271, 0.979785, 0.7761, -0.43368, -0.675596, 0.964683, -0.906342, -0.740403, 0.108761, 0.205842, 0.732674, 0.954165, 0.0840455, 0.837994, 0.245814, 0.475688, 0.223704, 0.645995, -0.98348, 0.296103, 0.904976, 0.276603, 0.065492, -0.822593, -0.917952, 0.340102, -0.875149, -0.722821, -0.925756, 0.464601, 0.139865, -0.824177, 0.879504, -0.674361, 0.968738, 0.550476, 0.818786, -0.943279, -0.998556, 0.693333, -0.744299, 0.329917, -0.864604, 0.50078, -0.690111, -0.315219, -0.995511, 0.815072, 0.901497, -0.902004, 0.674088, -0.761943, 0.905794, 0.876521, 0.594418, 0.630535, -0.723018, 0.179904, 0.0429395, -0.777255, 0.562003, 0.130262, -0.80617, 0.950913, 0.523873, 0.878882, 0.244834, 0.127424, 0.927874, 0.984797, -0.716756, 0.465669, -0.0567552, 0.0292384, -0.883874, 0.674821, 0.55713, -0.149337, 0.0416523, 0.531171, -0.265613, 0.758607, 0.496956, 0.18473, -0.837979, -0.854663, 0.113259, -0.604768, 0.687699, 0.794041, 0.474083, -0.63461, -0.113175, -0.310671, 0.760797, -0.933457, -0.243338, -0.0911987, -0.201276, 0.78147, 0.526138, 0.188962, -0.0429792, 0.295056, -0.310705, -0.757276, 0.300963, -0.0572712, 0.785506, 0.196388, 0.872919, -0.746124, -0.960954, -0.11265, 0.350784, 0.766757, -0.76286, 0.937104, 0.895319, 0.149857, 0.803702, -0.436337, -0.3627, -0.298, -0.531952, -0.95355, -0.0487, -0.960471, -0.611327, 0.619807, 0.861296, 0.395976, 0.760218, 0.475615, -0.826121, 0.686918, -0.829609, 0.269086, 0.0657651, 0.591529, -0.52922, 0.907216, -0.868071, 0.798173, -0.556598, -0.491083, 0.104245, -0.883436, 0.680486, -0.0263606, 0.335345, 0.841014, -0.0585528, 0.627037, 0.553306, 0.485203, 0.760272, -0.593695, 0.321415, -0.463432, -0.511298, 0.231242, -0.825279, 0.58801, -0.517281, 0.317477, 0.575148, 0.417511, 0.985603, -0.605012, 0.770395, -0.791156, -0.709991, -0.0276273, 0.247893, 0.693931, -0.39715, -0.259675, -0.173628, 0.825032, -0.613873, -0.306409, -0.162588, 0.725232, -0.101886, -0.323095, 0.948435, 0.26657, 0.235162, 0.562316, 0.360365, 0.441096, 0.259618, 0.493156, 0.793877, 0.982478, 0.114409, -0.896187, 0.526218, -0.9226, 0.421811, 0.4107, 0.971049, 0.313254, -0.100376, -0.272859, 0.200887, -0.0609226, -0.922354, -0.712205, -0.961967, 0.869264, 0.341926, 0.821737, 0.369162, 0.770289, 0.691553, 0.564079, 0.0389417, 0.918857, 0.507969, -0.706388, 0.0167031, 0.142027, 0.192884, -0.578587, 0.623477, -0.671734, -0.562991, 0.801904, 0.0924149, -0.457833, -0.494171, -0.863824, 0.469178, 0.872517, -0.470333, 0.0282073, 0.749284, -0.578202, 0.878815, 0.79311, 0.356401, -0.464395, 0.0137153, 0.287808, 0.111441, -0.591279, 0.674678, 0.299748, -0.816088, 0.786896, 0.497614, -0.824596, 0.668506, 0.215961, 0.545568, -0.987275, -0.866046, -0.224806, 0.551879, 0.371762, -0.950543, -0.191636, -0.596773, 0.955289, 0.385575, 0.670791, 0.36515, 0.442969, 0.965536, 0.974815, -0.616639, 0.944278, -0.755352, 0.32368, 0.741635, 0.0877602, 0.328422, 0.164059, -0.992947, 0.666562, -0.974105, -0.482074, 0.178574, -0.208316, -0.928263, -0.439118, 0.0834596, -0.710717, 0.213473, 0.394366, -0.852864, 0.832241, -0.985678, 0.0867723, -0.0947469, 0.785693, 0.415555, -0.560542, 0.157948, 0.195032, -0.284688, -0.513425, 0.747245, 0.753759, 0.832641, -0.382692, 0.762576, -0.895645, 0.978902, -0.161387, 0.457704, 0.979593, 0.722005, -0.871902, 0.0331199, -0.216789, -0.376191, 0.00655857, 0.487767, -0.248019, 0.377616, 0.255859, 0.399733, 0.262988, 0.558495, -0.220463, 0.479636, -0.243496, 0.0712832, -0.0335403, 0.70505, 0.193399, -0.721551, -0.566227, 0.990559, -0.951051, 0.911378, -0.785902, 0.882986, -0.946307, 0.14038, 0.915288, 0.680016, 0.694319, -0.649627, -0.565238, -0.444649, 0.860038, -0.48372, -0.192904, -0.509869, 0.720991, 0.125732, 0.845528, -0.579506, 0.212903, 0.278217, 0.223019, 0.701132, 0.226836, 0.907947, 0.109237, 0.0247494, 0.86327, 0.578574, -0.801053, 0.899993, -0.0327667, 0.218239, -0.881158, -0.998878, 0.816898, 0.608692, -0.151007, 0.5276, -0.0309124, 0.794338, -0.387144, -0.26426, -0.149738, -0.0296394, -0.227898, -0.384298, 0.213518, -0.812721, 0.58766, -0.246766, -0.405024, -0.318458, -0.729168, -0.531087, -0.67742, -0.706293, -0.364735, -0.175748, -0.267312, 0.817563, 0.767865, 0.658922, -0.876123, -0.836588, -0.0669562, -0.803549, -0.905258, 0.310328, 0.631637, 0.229853, -0.732586, -0.682821, -0.37006, 0.821342, -0.79598, -0.710281, -0.9246, 0.371311, -0.0648954, -0.215714, 0.587038, -0.967697, 0.57151, 0.951539, -0.0813065, 0.666203, 0.933387, 0.020676, 0.112307, -0.391497, 0.16017, -0.159853, 0.912509, 0.938464, 0.973711, 0.877837, 0.396037, 0.698381, 0.292734, -0.5714, 0.533396, 0.958696, -0.940017, -0.727343, 0.646178, -0.828741, -0.731404, 0.422655, 0.651333, 0.661432, 0.996893, 0.00824159, -0.653938, -0.514062, -0.0656089, -0.455316, 0.772655, -0.00807312, 0.280197, 0.516957, -0.049368, -0.213995, -0.755721, 0.183504, 0.135941, -0.241003, -0.533141, 0.189221, 0.586607, -0.450364, -0.663198, -0.296822, -0.712081, -0.828211, 0.0112264, -0.286785, 0.116985, 0.6732, 0.241546, 0.880944, 0.671425, 0.259352, -0.198877, 0.18861, -0.405474, 0.740798, 0.630963, 0.852997, -0.423638, 0.0674411, 0.207255, 0.556958, -0.0436093, -0.627503, 0.468234, 0.643903, -0.209011, 0.319981, -0.241622, 0.812018, 0.675918, -0.714773, -0.598802, 0.981486, 0.134197, 0.304538, -0.357586, 0.454313, -0.902044, -0.00981018, -0.790042, -0.869209, -0.229549, -0.466632, 0.141164, -0.367642, 0.777834, 0.558547, 0.320951, -0.367613, 0.513307, 0.448776, 0.0579509, -0.725795, -0.82282, -0.813275, 0.795145, -0.258706, 0.917533, -0.73261, -0.232276, 0.528151, 0.435658, 0.109685, -0.711044, -0.286401, -0.0388415, 0.827107, -0.787635, 0.284851, 0.670449, 0.33025, -0.549391, 0.358588, -0.0348412, -0.131988, -0.689113, -0.270986, -0.423033, 0.11543, -0.770716, -0.922255, -0.149557, -0.179927, -0.857753, -0.136562, 0.16828, -0.618014, -0.571522, 0.52122, -0.133788, -0.974885, -0.0446619, 0.762174, 0.374326, 0.15716, -0.262216, 0.742227, 0.0299444, 0.695158, -0.680152, 0.539341, -0.00223886, -0.382416, 0.964848, 0.305727, -0.472478, -0.710589, -0.966622, 0.233875, 0.402595, 0.452716, 0.795035, -0.549787, 0.441102, 0.608228, -0.669422, 0.484653, 0.603599, -0.897267, 0.458691, 0.221179, -0.393832, -0.548049, 0.0402733, -0.286161, 0.0888877, -0.960358, 0.0056812, 0.992954, -0.471996, -0.565059, -0.020116, 0.127459, 0.443454, -0.447877, 0.364217, -0.470329, -0.183653, -0.628724, 0.242371, 0.384466, 0.461776, -0.179541, -0.274624, -0.395161, 0.445699, 0.433449, 0.301554, 0.667021, 0.687491, -0.735343, 0.36039, -0.621128, 0.187993, 0.975449, -0.829898, 0.925438, -0.394399, -0.930326, 0.68763, -0.10404, 0.648579, -0.749854, -0.102168, 0.0391562, -0.623792, -0.0100397, 0.111295, 0.529125, 0.936563, 0.0932916, 0.175448, -0.425499, -0.594592, 0.729339, -0.291541, -0.0692627, 0.506527, -0.584858, 0.858835, -0.197057, 0.398065, -0.377351, -0.235847, -0.739528, -0.57301, 0.0928083, 0.398762, 0.461522, -0.57046, -0.522346, -0.259861, 0.0321253, 0.838956, 0.89796, 0.323716, 0.458712, 0.947499, 0.734771, -0.74759, -0.71263, 0.471338, -0.142615, 0.0220486, 0.345936, 0.129642, -0.714715, 0.364854, -0.903953, -0.723148, -0.726941, -0.690406, -0.829856, -0.932498, 0.989409, 0.366593, -0.407193, 0.515751, 0.516873, 0.507189, 0.785754, 0.0305791, 0.223436, -0.0293705, -0.904213, -0.338631, 0.169246, 0.340479, -0.90927, -0.849749, -0.868769, -0.343506, 0.116798, -0.607416, 0.996369, -0.955328, -0.636014, 0.156644, -0.432414, 0.887573, -0.818284, 0.462908, 0.887074, -0.132799, -0.818279, 0.0685529, -0.230947, 0.0167254, 0.762183, 0.321602, 0.646033, 0.17507, 0.47547, 0.707339, 0.898626, -0.587286, -0.69443, 0.678589, 0.569142, 0.507784, 0.58794, -0.527074, 0.867847, -0.624968, -0.317559, 0.0693411, 0.880578, 0.704637, 0.478806, 0.380924, -0.871303, 0.0129597, -0.48577, -0.22368, -0.933885, -0.354383, -0.23885, 0.301396, -0.216096, -0.491029, 0.906335, -0.99512, 0.514249, 0.479285, 0.363968, 0.865812, 0.698527, -0.0636913, -0.526, 0.770486, -0.555264, 0.203845, 0.852544, 0.0468225, -0.0337472, -0.376071, -0.911973, -0.626718, 0.438364, -0.112418, -0.332647, -0.342377, -0.567295, -0.69448, -0.28148, -0.2389, 0.748771, -0.0803189, -0.959468, -0.429895, -0.0837863, 0.995037, -0.910027, -0.0172501, -0.288116, -1.00051, -0.652853, -0.0743782, -0.140833, -0.768698, 0.286785, -0.17143, 0.840203, 0.530615, -0.481148, -0.914447, 0.881815, 0.226591, 0.213976, -0.0405118, 0.682455, -0.333541, 0.578492, 0.0250237, 0.403869, 0.179387, -0.164081, -0.402997, -0.109293, -0.00663065, 0.485077, -0.0334616, -0.362391, 0.171694, -0.283522, 0.0192451, 0.434551, 0.637119, -0.920189, 0.350195, 0.309561, -0.924642, 0.781697, 0.672609, -0.11305, -0.292362, -0.249279, -0.234312, -0.792517, -0.012656, -0.479652, 0.163985, -0.995354, -0.88081, -0.58746, -0.836184, -0.923638, -0.377202, 0.016293, -0.97296, 0.192976, -0.581246, 0.0240704, 0.22633, 0.55214, -0.222733, -0.591886, 0.156778, 0.849988, 0.89818, -0.170399, -0.0621251, -0.0120941, -0.478508, -0.0150787, 0.746131, -0.417605, 0.245818, 0.251842, 0.120586, -0.123596, 0.744945, 0.88587, -0.303439, -0.887979, -0.517491, 0.261462, 0.727924, 0.231603, -0.798765, 0.645995, -0.252875, 0.539455, -0.954358, -0.169371, -0.21083, -0.506098, -0.701851, -0.842105, -0.512133, -0.481333, -0.231993, 0.257329, 0.50691, 0.973063, -0.696544, -0.836256, 0.719639, 0.347383, -0.863877, 0.745582, -0.252647, -0.278357, 0.740924, -0.00734466, -0.465588, 0.848327, 0.528804, 0.295921, 0.813015, -0.313278, 0.373933, -0.86708, -0.591148, -0.808084, -0.642888, -0.571417, 0.987532, -0.862018, 0.486192, -0.675361, -0.0153368, -0.81095, 0.449397, -0.288241, -1.00191, 0.910764, 0.435496, -0.656592, 0.760961, -0.0788039, 0.0355905, 0.0713908, 0.271156, 0.791699, 0.857765, -0.655874, 0.339851, 0.0903071, 0.516416, -0.89974, -0.437955, 0.346124, -0.6836, -0.353582, -0.121304, -0.686385, -0.379725, 0.589257, -0.360687, -0.264168, -0.0318812, 0.508805, -0.771679, 0.830992, -0.697204, -0.816569, 0.170512, -0.0233059, -0.51139, 0.924743, -0.544565, 0.890201, 0.904444, 0.564302, 0.0673574, 0.764506, 0.746181, 0.925007, -0.496585, 0.0510135, -0.773985, 0.984597, 0.364215, -0.801996, -0.345938, 0.389168, -0.299516, -0.58867, 0.442933, -0.557907, -0.621447, 0.725541, 0.129771, -0.81864, 0.769994, -0.564754, -0.0672118, -0.447849, -0.971279, 0.103113, 0.234989, -0.189602, 0.97648, 0.126484, -0.255117, -0.910827, -0.211284, -0.395432, -0.70143, -0.440027, -0.310842, 0.181445, -0.0145901, -0.55003, 0.852345, 0.846467, -0.810895, -0.473649, 0.0158722, 0.331736, 0.404255, -0.509284, -0.477809, 0.196086, -0.222401, 0.403138, 0.873294, -0.812293, -0.12535, 0.526671, -0.610394, -0.416167, 0.182002, 0.444911, 0.902003, 0.0492482, 0.544358, 0.965029, -0.120203, -0.935605, -0.659846, -0.234982, -0.799112, 0.352989, -0.57857, -0.0804024, -0.496634, -0.34744, 0.375938, -0.544802, 0.772848, 0.792137, -0.424616, -0.937396, 0.976504, 0.535434, 0.45277, 0.451748, -0.568671, 0.442389, 0.554345, 0.160709, -0.425454, -0.150731, 0.977046, 0.705769, -0.948238, 0.526575, -0.757198, 0.826608, 0.729244, 0.425254, 0.0355872, -0.823275, 0.716953, -0.733244, 0.632085, 0.793757, 0.326702, -0.620509, -0.477541, -0.572915, 0.0443273, -0.254608, 0.709636, 0.249832, 0.253072, 0.283905, 0.862195, 0.395792, 0.766798, -0.708396, 0.43988, 0.645209, 0.834841, -0.548553, -0.0133085, 0.0711986, 0.954538, 0.684523, -0.76997, 0.94578, -0.330274, 0.0962691, -0.576143, -0.86093, 0.891324, 0.447182, -0.922043, 0.585873, -0.609324, -0.545175, -0.671263, 0.214749, 0.150981, 0.898398, 0.874332, -0.0817638, -0.621733, 0.545921, -0.475211, -0.362576, 0.399093, -0.056476, -0.316454, 0.0958867, 0.730208, -0.835938, -0.759951, 0.0527445, -0.426894, 0.769364, -0.0982557, 0.655682, -0.595937, -0.966373, 0.612155, 0.536037, 0.831256, 0.167516, 0.73596, 0.977668, -0.29849, 0.973361, -0.692428, 0.851779, 0.619309, -0.704823, -0.0803058, 0.325847, -0.337375, -0.144362, -0.452346, 0.56069, 0.672404, 0.364384, -0.417302, 0.271038, -0.797841, -0.945086, -0.249905, -0.172207, -0.321878, -0.293629, -0.477919, 0.943812, -0.589606, 0.123643, 0.990141, -0.153177, 0.983771, 0.589625, -0.212384, -0.445902, -0.69703, 0.969755, 0.819442, 0.592989, -0.694613, -0.703729, 0.198726, -0.594643, -0.444039, 0.368512, 0.610917, 0.944414, -0.766321, 0.245986, 0.37895, 0.323124, 0.020826, -0.840553, -0.981325, 0.194608, 0.819957, 0.964255, -0.774877, -0.680541, 0.138484, -0.0319465, -0.93619, -0.271357, 0.340661, -0.265748, 0.920924, 0.0278192, 0.366302, -0.650786, -0.329693, -0.157711, 0.292653, 0.493736, -0.460446, 0.993726, 0.782489, -0.452494, -0.62421, -0.00305022, -0.483, -0.0125708, -0.124819, 0.494807, 0.276639, 0.46533, 0.543836, 0.555291, 0.652263, -0.276236, 0.378805, -0.789207, 0.200808, -0.496306, 0.230585, -0.705054, -0.899494, 0.83838, 0.87316, -0.729367, 0.816733, 0.759019, 0.922956, -0.0928465, -0.0130623, -0.0772841, 0.0576704, -0.199713, 0.442366, -0.314827, 0.145871, -0.943173, -0.156346, -0.342545, 0.260991, -0.890255, 0.240463, -0.0205163, -0.424007, 0.947563, -0.105913, -0.490562, 0.393625, 0.984729, -0.669984, -0.041869, 0.375503, -0.977503, -0.207993, 0.973729, -0.50351, 0.0456744, -0.898515, 0.00122625, -0.676688, 0.360615, 0.839871, 0.867906, 0.578496, -0.162711, 0.724103, -0.128301, 0.908419, -0.827972, -0.888998, -0.5315, 0.269283, -0.560863, 0.479335, 0.576291, -0.469462, -0.946386, -0.68537, -0.234612, 0.521086, 0.928212, -0.316053, 0.9772, -0.251699, 0.569261, 0.325262, -0.597973, 0.588011, 0.60752, 0.487854, -0.414757, 0.298796, -0.768764, 0.000609735, 0.463221, -0.900111, 0.613967, -0.927482, 0.0274988, -0.860886, 0.424252, 0.888011, 0.947276, 0.105333, 0.145542, 0.0473453, 0.333376, 0.294358, 0.669036, -0.582499, -0.173316, 0.173084, -0.297983, -0.0445349, 0.495167, 0.470188, 0.105555, -0.497705, -0.771144, 0.428312, 0.54653, -0.347726, 0.465968, 0.0725332, 0.0961156, 0.0823087, -0.937509, 0.0318842, -0.462582, 0.555774, 0.461165, -0.56082, 0.315671, -0.712057, -0.753273, -0.589807, 0.187942, 0.170429, 0.649728, -0.897997, -0.906205, -0.621501, 0.944314, -0.946425, -0.341885, -0.823311, 0.988077, 0.887712, 0.169153, 0.468193, 0.0165896, 0.563504, 0.490991, -0.704374, -0.767257, 0.441135, -0.963409, 0.97911, -0.869285, 0.619048, 0.38142, 0.635214, -0.432551, -0.862191, -0.790475, -0.0419877, -0.0887527, 0.377957, -0.500259, 0.839379, -0.0672117, -0.807694, -0.0469466, -0.541853, -0.0505035, 0.024498, -0.448869, -0.938469, -0.923659, 0.990609, 0.978452, 0.113963, 0.783609, -0.19335, 0.570367, -0.312351, 0.0821889, -0.739841, 0.931164, -0.519089, -0.435323, -0.909676, -0.856252, 0.297194, -0.65467, -0.726293, 0.789967, -0.729026, -0.0858496, -0.271852, 0.0534572, -0.624002, -0.699112, 0.726006, 0.235474, 0.256978, -0.967407, 0.506, 0.820869, 0.852126, -0.736534, 0.169932, -0.649681, -0.12622, 0.702386, 0.0503941, -0.892867, 0.489506, -0.104626, -0.451572, 0.0408499, -0.327684, 0.29492, -0.333406, 0.147826, -0.73152, -0.271267, 0.201023, 0.360993, 0.960287, -0.874447, -0.855542, -0.998338, 0.878044, -0.0271664, -0.247593, 0.166106, -0.919261, 0.984816, -0.133971, 0.397849, 0.72206, -0.32636, 0.655395, 0.565807, 0.435352, -0.962455, -0.875182, -0.985718, 0.722242, -0.00779213, -0.112686, 0.524121, 0.886215, 0.16723, 0.332873, 0.114802, 0.712388, -0.64534, 0.263567, -0.29034, -0.215833, -0.244171, 0.928117, 0.594367, -0.877595, 0.695681, 0.780755, 0.238911, 0.123916, -0.556693, 0.950048, -0.229218, 0.872083, 0.705985, -0.703073, 0.200363, 0.0232584, -0.35873, 0.451555, 0.0867877, -0.374993, -0.144938, -0.206178, 0.62305, 0.600781, 0.931142, -0.18474, 0.00666164, -0.377954, -0.327951, 0.911865, -0.434392, -0.917565, 0.648877, -0.239368, 0.318482, -0.0750262, -0.729888, 0.248923
]},"hidden2":{"biases":[
-0.567801, -0.80423, -0.0325209, -0.664314, 0.589628, 0.214683, 0.703708, 0.990705, -0.269105, 0.998038, 0.997588, -0.896636, 0.492471, 0.306479, 0.181982, -0.574295, -0.911566, 0.063595, 0.981739, -0.246474, -0.185733, 0.841399, 0.67291, -0.737577, 0.177737, 0.10935, 0.447349, -0.0642593, -0.521759, 0.600877, 0.192212, 0.923671, 0.295323, 0.919969, 0.468186, 0.84326, -0.706916, 0.599295, 0.500872, 0.909755, -0.35861, 1.00884
],"weights":[
-0.378996, 0.49307, 0.565029, 0.586497, 0.178805, 0.953233, -0.840551, 0.157282, -0.602194, 0.356871, -0.753982, -0.259454, -0.504052, 0.663405, 0.961861, -0.519921, 0.159394, -0.451087, 0.804233, -0.22906, 0.684437, -0.91741, 0.930219, -0.0229215, -0.898292, 0.455005, -0.415551, -0.596153, 0.568767, -0.0710208, -0.0626583, -0.144405, 0.770314, -0.671704, -0.258994, -0.831457, 0.0811247, 0.447237, 0.498237, -0.131443, 0.00737798, 0.852647, -0.0212825, -0.230279, -0.52201, 0.801538, 0.983575, -0.653971, 0.0920314, 0.876053, 0.267226, -0.635994, -0.982885, 0.786591, 0.0712357, -0.650329, -0.632367, -0.321391, 0.47051, 0.803797, 0.122943, 0.313005, 0.359024, -0.665933, -0.454457, 0.188415, -0.0424828, -0.170639, -0.0865675, 0.892874, 0.519649, -0.780375, 0.978974, 0.901933, 0.607345, 0.975374, -0.285593, 0.95299, 0.34082, 0.0230814, -0.421968, 0.0323014, -0.159803, -0.271281, -0.0212825, -0.230279, -0.52201, 0.801538, 0.983575, -0.653971, 0.0920314, 0.876053, 0.267226, -0.635994, -0.982885, 0.786591, 0.0712357, -0.650329, -0.632367, -0.321391, 0.47051, 0.803797, 0.122943, 0.313005, 0.359024, -0.665933, -0.454457, 0.188415, -0.0424828, -0.170639, -0.0865675, 0.892874, 0.519649, -0.780375, 0.978974, 0.901933, 0.607345, 0.975374, -0.285593, 0.95299, 0.34082, 0.0230814, -0.421968, 0.0323014, -0.159803, -0.271281, 0.580219, -0.567752, -0.895701, 0.948403, 0.10836, -0.20852, -0.512061, 0.258221, 0.0599892, 0.133407, 0.332417, -0.273913, -0.695729, -0.35661, -0.64098, -0.222753, -0.042994, 0.150398, -0.253651, -0.403193, 0.0580444, -0.300003, -0.761652, -0.283235, -0.635636, -0.435674, 0.0293395, 0.173765, -0.102926, 0.439908, -0.203479, 0.44608, 0.330835, -0.927916, -0.286195, 0.665469, -0.378922, -0.706001, 0.755586, 0.53917, -0.350046, 0.0838047, 0.580219, -0.567752, -0.895701, 0.948403, 0.10836, -0.20852, -0.512061, 0.258221, 0.0599892, 0.133407, 0.332417, -0.273913, -0.695729, -0.35661, -0.64098, -0.222753, -0.042994, 0.150398, -0.253651, -0.403193, 0.0580444, -0.300003, -0.761652, -0.283235, -0.635636, -0.435674, 0.0293395, 0.173765, -0.102926, 0.439908, -0.203479, 0.44608, 0.330835, -0.927916, -0.286195, 0.665469, -0.378922, -0.706001, 0.755586, 0.53917, -0.350046, 0.0838047, -0.804979, 0.637846, -0.371618, 0.0401199, 0.0292248, 0.0966313, -0.413315, 0.445429, -0.993632, -0.245541, -0.969505, -0.971277, -0.836773, 0.518337, -0.585753, -0.845381, 0.943336, 0.223848, -0.649985, -0.0710555, 0.446407, 0.832416, 0.460843, 0.808442, -0.167226, -0.0713542, -0.108093, 0.205357, -0.589321, 0.481665, -0.782823, -0.679756, -0.292314, -0.440783, 0.335063, 0.610109, -0.210715, -0.99067, -0.910633, -0.564529, -0.11313, 0.993118, -0.804979, 0.637846, -0.371618, 0.0401199, 0.0292248, 0.0966313, -0.413315, 0.445429, -0.993632, -0.245541, -0.969505, -0.971277, -0.836773, 0.518337, -0.585753, -0.845381, 0.943336, 0.223848, -0.649985, -0.0710555, 0.446407, 0.832416, 0.460843, 0.808442, -0.167226, -0.0713542, -0.108093, 0.205357, -0.589321, 0.481665, -0.782823, -0.679756, -0.292314, -0.440783, 0.335063, 0.610109, -0.210715, -0.99067, -0.910633, -0.564529, -0.11313, 0.993118, 0.243786, 0.939722, 1.0019, 0.482721, 0.0159384, -0.81683, 0.0858106, 0.949413, 0.416686, 0.495242, 0.467719, -0.574828, -0.066183, 0.507475, 0.382896, -0.756942, -0.649062, -0.0640183, 0.789656, 0.449088, -0.0750018, 0.457374, 0.790926, -0.18645, 0.145639, 0.410058, -0.299057, -0.614046, 0.843743, -0.126451, -0.211927, 0.281356, 0.742785, 0.451248, -0.197989, -0.880845, 0.442094, -0.599788, -0.297439, 0.341713, 0.033922, 0.352603, 0.243786, 0.939722, 1.0019, 0.482721, 0.0159384, -0.81683, 0.0858106, 0.949413, 0.416686, 0.495242, 0.467719, -0.574828, -0.066183, 0.507475, 0.382896, -0.756942, -0.649062, -0.0640183, 0.789656, 0.449088, -0.0750018, 0.457374, 0.790926, -0.18645, 0.145639, 0.410058, -0.299057, -0.614046, 0.843743, -0.126451, -0.211927, 0.281356, 0.742785, 0.451248, -0.197989, -0.880845, 0.442094, -0.599788, -0.297439, 0.341713, 0.033922, 0.352603, 0.611687, 0.652248, 0.870069, -0.73623, 0.166286, -0.683911, -0.286946, -0.78185, -0.595736, 0.767851, 0.697538, 0.657867, 0.692055, -0.263652, -0.70779, -0.0552743, -0.41201, -0.0300559, 0.110806, -0.629792, 0.984528, 0.218035, 0.136211, -0.166151, -0.577181, 0.0111722, -0.786773, -0.500956, -0.921649, -0.932108, 0.854918, -0.666022, -0.842832, 0.14435, -0.652372, -0.67174, 0.0954665, 0.964807, -0.958943, -0.595975, 0.629297, 0.478379, 0.611687, 0.652248, 0.870069, -0.73623, 0.166286, -0.683911, -0.286946, -0.78185, -0.595736, 0.767851, 0.697538, 0.657867, 0.692055, -0.263652, -0.70779, -0.0552743, -0.41201, -0.0300559, 0.110806, -0.629792, 0.984528, 0.218035, 0.136211, -0.166151, -0.577181, 0.0111722, -0.786773, -0.500956, -0.921649, -0.932108, 0.854918, -0.666022, -0.842832, 0.14435, -0.652372, -0.67174, 0.0954665, 0.964807, -0.958943, -0.595975, 0.629297, 0.478379, -0.0875031, -0.226149, -0.750122, -0.075815, 0.704808, 0.811162, 0.627842, -0.325229, 0.145649, 0.425578, -0.894721, -0.564629, 0.761134, -0.969491, 0.206299, 0.284119, -0.0589616, -0.491797, 0.123426, -0.23873, 0.594105, 0.230107, -0.0144929, -0.341882, -0.351475, -0.256792, -0.566948, 0.381336, -0.897635, 0.406483, 0.0698953, 0.586309, -0.307781, 0.949696, -0.543812, 0.616222, 0.726392, -0.853485, 0.500192, -0.84435, -0.272476, -0.0735215, -0.0875031, -0.226149, -0.750122, -0.075815, 0.704808, 0.811162, 0.627842, -0.325229, 0.145649, 0.425578, -0.894721, -0.564629, 0.761134, -0.969491, 0.206299, 0.284119, -0.0589616, -0.491797, 0.123426, -0.23873, 0.594105, 0.230107, -0.0144929, -0.341882, -0.351475, -0.256792, -0.566948, 0.381336, -0.897635, 0.406483, 0.0698953, 0.586309, -0.307781, 0.949696, -0.543812, 0.616222, 0.726392, -0.853485, 0.500192, -0.84435, -0.272476, -0.0735215, -0.967566, -0.350473, -0.160517, 0.706865, -0.146841, 0.915463, 0.344009, 0.196004, -0.81439, -0.540411, -0.572181, -0.935706, 0.318231, 0.999164, -0.125709, 0.639051, 0.091685, 0.908813, 0.621146, 0.187293, -0.332533, -0.532271, 0.210986, 0.296773, 0.509623, -0.864974, -0.348941, 0.112454, 0.0661278, -0.276587, 0.823142, 0.553229, 0.581148, -0.36452, 0.0142821, 0.931289, -0.00472265, -1.00045, -0.741213, 0.763121, 0.70241, -0.146883, -0.967566, -0.350473, -0.160517, 0.706865, -0.146841, 0.915463, 0.344009, 0.196004, -0.81439, -0.540411, -0.572181, -0.935706, 0.318231, 0.999164, -0.125709, 0.639051, 0.091685, 0.908813, 0.621146, 0.187293, -0.332533, -0.532271, 0.210986, 0.296773, 0.509623, -0.864974, -0.348941, 0.112454, 0.0661278, -0.276587, 0.823142, 0.553229, 0.581148, -0.36452, 0.0142821, 0.931289, -0.00472265, -1.00045, -0.741213, 0.763121, 0.70241, -0.146883, -0.241321, 0.837538, 0.740069, -0.586633, -0.795786, 0.792308, 0.793372, 0.54123, 0.109356, 0.768599, -0.642849, -0.890144, 0.667996, 0.820622, -0.345375, 0.748514, 0.585725, 0.495109, -0.994157, 0.251236, 0.183264, -0.682424, 0.426306, 0.38385, -0.683087, -0.757921, 0.49412, -0.133378, -0.548089, 0.228718, -0.103386, 0.0832167, -0.121761, 0.451728, -0.75899, -0.512845, -0.270025, 0.801983, -0.0754384, 0.805938, 0.532507, 0.00561568, -0.241321, 0.837538, 0.740069, -0.586633, -0.795786, 0.792308, 0.793372, 0.54123, 0.109356, 0.768599, -0.642849, -0.890144, 0.667996, 0.820622, -0.345375, 0.748514, 0.585725, 0.495109, -0.994157, 0.251236, 0.183264, -0.682424, 0.426306, 0.38385, -0.683087, -0.757921, 0.49412, -0.133378, -0.548089, 0.228718, -0.103386, 0.0832167, -0.121761, 0.451728, -0.75899, -0.512845, -0.270025, 0.801983, -0.0754384, 0.805938, 0.532507, 0.00561568, 0.306226, -0.670598, -0.374096, -0.71789, -0.771907, 0.747381, 0.29372, -0.21978, -0.758705, -0.44495, 0.394096, 0.101017, -0.97676, 0.235456, 0.367618, 0.334854, 0.206709, 0.427014, 0.681054, -0.830719, -0.55483, -0.861517, -0.400344, -0.280007, 0.882339, -0.706527, -0.960809, 0.0264676, 0.626979, -0.168052, -0.78812, -0.380289, -0.393745, -0.567784, 0.495312, -0.182919, -0.393714, -0.328546, 0.450471, 0.37305, -0.0742929, -0.903444, 0.306226, -0.670598, -0.374096, -0.71789, -0.771907, 0.747381, 0.29372, -0.21978, -0.758705, -0.44495, 0.394096, 0.101017, -0.97676, 0.235456, 0.367618, 0.334854, 0.206709, 0.427014, 0.681054, -0.830719, -0.55483, -0.861517, -0.400344, -0.280007, 0.882339, -0.706527, -0.960809, 0.0264676, 0.626979, -0.168052, -0.78812, -0.380289, -0.393745, -0.567784, 0.495312, -0.182919, -0.393714, -0.328546, 0.450471, 0.37305, -0.0742929, -0.903444, 0.132479, -0.779487, -0.178907, 0.174421, 0.2481, 0.246121, 0.735289, -0.690253, -0.748904, 0.695974, 0.247051, -0.921523, 0.364098, -0.349371, -0.238063, -0.977005, 0.977741, -0.353246, 0.776743, 0.445682, -0.0317904, 0.813284, -0.919058, 0.026008, -0.733807, 0.813317, -0.953833, 0.962303, 0.816943, -0.775329, 0.767608, 0.903634, 0.592871, -0.437756, 0.248887, 0.770196, -0.242801, 0.207619, 0.913454, -0.711034, -0.220118, 0.860206, 0.132479, -0.779487, -0.178907, 0.174421, 0.2481, 0.246121, 0.735289, -0.690253, -0.748904, 0.695974, 0.247051, -0.921523, 0.364098, -0.349371, -0.238063, -0.977005, 0.977741, -0.353246, 0.776743, 0.445682, -0.0317904, 0.813284, -0.919058, 0.026008, -0.733807, 0.813317, -0.953833, 0.962303, 0.816943, -0.775329, 0.767608, 0.903634, 0.592871, -0.437756, 0.248887, 0.770196, -0.242801, 0.207619, 0.913454, -0.711034, -0.220118, 0.860206, -0.775603, -0.755541, -0.170573, 0.876168, -0.107043, -0.525841, -0.0115693, 0.105615, 0.194209, 0.302073, -0.665329, 0.0465677, 0.172406, -0.0653964, -0.604574, -0.428398, 0.430277, -0.0885718, 0.694026, 0.0285213, -0.831821, 0.417657, -0.965595, -0.876988, -0.583532, 0.666751, 0.130887, 0.179325, 0.517909, -0.212817, 0.041498, 0.777724, -0.945762, -0.14234, -0.194335, -0.374282, 0.90881, 0.737403, 0.0211994, -0.451596, 0.602105, 0.807009, -0.775603, -0.755541, -0.170573, 0.876168, -0.107043, -0.525841, -0.0115693, 0.105615, 0.194209, 0.302073, -0.665329, 0.0465677, 0.172406, -0.0653964, -0.604574, -0.428398, 0.430277, -0.0885718, 0.694026, 0.0285213, -0.831821, 0.417657, -0.965595, -0.876988, -0.583532, 0.666751, 0.130887, 0.179325, 0.517909, -0.212817, 0.041498, 0.777724, -0.945762, -0.14234, -0.194335, -0.374282, 0.90881, 0.737403, 0.0211994, -0.451596, 0.602105, 0.807009, -0.45271, 0.810959, 0.98574, 0.603688, -0.645398, 0.795863, -0.0667794, 0.609025, 0.441101, 0.0295953, -0.515267, 0.199161, 0.87146, -0.158819, -0.359632, 0.944244, -0.486784, 0.915583, -0.705988, 0.0194285, -0.83455, 0.64271, -0.824004, 0.626463, 0.756556, -0.71713, -0.701055, 0.812408, -0.479762, -0.650015, 0.0790059, 0.82841, 0.277819, 0.0416956, -0.458415, 0.536964, 0.16317, 0.462525, -0.479995, 0.00390259, -0.00881673, -0.0515616, -0.45271, 0.810959, 0.98574, 0.603688, -0.645398, 0.795863, -0.0667794, 0.609025, 0.441101, 0.0295953, -0.515267, 0.199161, 0.87146, -0.158819, -0.359632, 0.944244, -0.486784, 0.915583, -0.705988, 0.0194285, -0.83455, 0.64271, -0.824004, 0.626463, 0.756556, -0.71713, -0.701055, 0.812408, -0.479762, -0.650015, 0.0790059, 0.82841, 0.277819, 0.0416956, -0.458415, 0.536964, 0.16317, 0.462525, -0.479995, 0.00390259, -0.00881673, -0.0515616, -0.402492, -0.205169, 0.533643, -0.865956, 0.699101, 0.171458, -0.383811, 0.0944702, 0.275219, -0.483347, -0.172837, -0.939574, 0.814145, -0.665128, -0.802203, -0.247935, -0.514034, 0.312743, -0.81862, -0.272685, -0.668248, -0.683579, 0.277942, -0.0915187, 0.181967, -0.586754, 0.780706, -0.78901, -0.793559, -0.466465, 0.332095, -0.508381, -0.431937, 0.344059, 0.381762, 0.61628, 0.416364, -0.352385, 0.142399, -0.496276, -0.636043, -0.950919, -0.402492, -0.205169, 0.533643, -0.865956, 0.699101, 0.171458, -0.383811, 0.0944702, 0.275219, -0.483347, -0.172837, -0.939574, 0.814145, -0.665128, -0.802203, -0.247935, -0.514034, 0.312743, -0.81862, -0.272685, -0.668248, -0.683579, 0.277942, -0.0915187, 0.181967, -0.586754, 0.780706, -0.78901, -0.793559, -0.466465, 0.332095, -0.508381, -0.431937, 0.344059, 0.381762, 0.61628, 0.416364, -0.352385, 0.142399, -0.496276, -0.636043, -0.950919, -0.763916, -0.972009, -0.104653, -0.0642891, 0.190491, -0.157301, 0.00389885, 0.135957, 0.894699, -0.175345, 0.661203, -0.422593, 0.884281, -0.896272, -0.313855, 0.0441309, -0.458713, 0.65699, 0.50811, -0.129373, 0.363754, -0.604097, -0.773775, -0.607445, -0.945442, -0.285829, -0.40765, 0.591197, -0.933076, 0.396723, -0.508233, -0.937857, 0.585413, 0.25725, -0.570007, -0.688628, 0.0887991, -0.212985, 0.065536, -0.365334, 0.815965, -0.172536, -0.763916, -0.972009, -0.104653, -0.0642891, 0.190491, -0.157301, 0.00389885, 0.135957, 0.894699, -0.175345, 0.661203, -0.422593, 0.884281, -0.896272, -0.313855, 0.0441309, -0.458713, 0.65699, 0.50811, -0.129373, 0.363754, -0.604097, -0.773775, -0.607445, -0.945442, -0.285829, -0.40765, 0.591197, -0.933076, 0.396723, -0.508233, -0.937857, 0.585413, 0.25725, -0.570007, -0.688628, 0.0887991, -0.212985, 0.065536, -0.365334, 0.815965, -0.172536, 0.917301, 0.567962, 0.106607, -1.01375, -0.0813313, -0.978315, 0.390796, 0.227925, 0.595894, 0.160687, 0.288392, -0.348148, -0.502614, -0.454221, 0.774073, 0.0102872, 0.87677, 0.724957, -0.261639, -0.489966, -0.457537, -0.240082, -0.552273, -0.178628, -0.179146, -0.472896, 0.924053, 0.660243, -0.983494, 0.983187, 0.286675, 0.437041, 0.756764, 0.708156, 0.0622251, 0.0952002, 0.926231, -0.153892, 0.27818, 0.957461, -0.742899, -0.0659681, 0.917301, 0.567962, 0.106607, -1.01375, -0.0813313, -0.978315, 0.390796, 0.227925, 0.595894, 0.160687, 0.288392, -0.348148, -0.502614, -0.454221, 0.774073, 0.0102872, 0.87677, 0.724957, -0.261639, -0.489966, -0.457537, -0.240082, -0.552273, -0.178628, -0.179146, -0.472896, 0.924053, 0.660243, -0.983494, 0.983187, 0.286675, 0.437041, 0.756764, 0.708156, 0.0622251, 0.0952002, 0.926231, -0.153892, 0.27818, 0.957461, -0.742899, -0.0659681, -0.210111, -0.871983, -0.938184, -0.271546, -0.856037, -1.037, -0.787915, -0.0302843, 0.464259, -0.275865, 0.870703, -0.285707, -0.215483, -0.130705, 0.649107, 0.65209, -0.536566, 0.835169, -0.565546, 0.218273, 0.58107, 0.719866, -0.969089, -0.575786, -0.312664, -0.552318, 0.0843661, 0.283731, -0.120926, -0.824839, -0.72142, -0.533573, -0.481886, -0.866124, 0.818229, -0.0790095, -0.0387636, 0.960237, -0.665053, 0.847919, 0.614472, -0.306333, -0.210111, -0.871983, -0.938184, -0.271546, -0.856037, -1.037, -0.787915, -0.0302843, 0.464259, -0.275865, 0.870703, -0.285707, -0.215483, -0.130705, 0.649107, 0.65209, -0.536566, 0.835169, -0.565546, 0.218273, 0.58107, 0.719866, -0.969089, -0.575786, -0.312664, -0.552318, 0.0843661, 0.283731, -0.120926, -0.824839, -0.72142, -0.533573, -0.481886, -0.866124, 0.818229, -0.0790095, -0.0387636, 0.960237, -0.665053, 0.847919, 0.614472, -0.306333, 0.898314, -0.330543, -0.784347, -0.513123, 0.153947, -0.838691, -0.534175, 0.81842, 0.0181943, -0.452604, -0.385411, 0.713692, -0.742279, -0.186516, -0.598034, -0.368147, 0.487512, 0.0256311, -0.246237, -0.868365, -0.0860237, 0.0940261, 0.536703, -0.676137, -0.309544, -0.822361, -0.343271, 0.957563, 0.233599, -0.694313, -0.0222243, 0.34531, 0.392671, 0.53427, 0.108381, -0.757554, 0.589897, 0.0120205, -0.134581, 0.4232, -0.762008, 0.799841, 0.898314, -0.330543, -0.784347, -0.513123, 0.153947, -0.838691, -0.534175, 0.81842, 0.0181943, -0.452604, -0.385411, 0.713692, -0.742279, -0.186516, -0.598034, -0.368147, 0.487512, 0.0256311, -0.246237, -0.868365, -0.0860237, 0.0940261, 0.536703, -0.676137, -0.309544, -0.822361, -0.343271, 0.957563, 0.233599, -0.694313, -0.0222243, 0.34531, 0.392671, 0.53427, 0.108381, -0.757554, 0.589897, 0.0120205, -0.134581, 0.4232, -0.762008, 0.799841, 0.908594, -0.0974422, 0.561449, -0.0699541, 0.763887, 0.0251089, -0.536988, -0.958714, 0.553627, -0.722248, -0.960943, -0.123532, 0.486546, -0.655634, -0.115672, 0.701808, 0.540806, 0.852045, 0.807581, -0.882755, 0.649696, 0.172264, -0.814958, 0.214701, 0.693584, 0.055074, -0.110995, -0.266957, 0.627241, -0.531036, -0.870787, 0.91773, 0.268306, 0.82796, -0.827956, 0.974902, 0.859311, 0.101447, -0.165629, -0.974855, 0.344818, 0.137038, 0.908594, -0.0974422, 0.561449, -0.0699541, 0.763887, 0.0251089, -0.536988, -0.958714, 0.553627, -0.722248, -0.960943, -0.123532, 0.486546, -0.655634, -0.115672, 0.701808, 0.540806, 0.852045, 0.807581, -0.882755, 0.649696, 0.172264, -0.814958, 0.214701, 0.693584, 0.055074, -0.110995, -0.266957, 0.627241, -0.531036, -0.870787, 0.91773, 0.268306, 0.82796, -0.827956, 0.974902, 0.859311, 0.101447, -0.165629, -0.974855, 0.344818, 0.137038, 0.082332, 0.945347, 0.471168, -0.136586, -0.987643, 0.0733661, -0.543019, 0.594612, 0.463936, -0.744398, -0.721735, 0.860465, 0.209318, 0.84052, 0.568955, -0.635803, 0.907479, 0.938013, -0.082656, 1.00471, -0.666201, 0.762391, 0.819229, -0.00434394, -0.9028, 0.293462, 0.0871551, -0.310826, -0.772408, -0.82367, 0.226093, -0.150152, 0.138575, -0.719847, 0.735398, 0.387294, -0.837137, -0.870149, -0.0177682, -0.83707, 0.286536, -0.121611, 0.082332, 0.945347, 0.471168, -0.136586, -0.987643, 0.0733661, -0.543019, 0.594612, 0.463936, -0.744398, -0.721735, 0.860465, 0.209318, 0.84052, 0.568955, -0.635803, 0.907479, 0.938013, -0.082656, 1.00471, -0.666201, 0.762391, 0.819229, -0.00434394, -0.9028, 0.293462, 0.0871551, -0.310826, -0.772408, -0.82367, 0.226093, -0.150152, 0.138575, -0.719847, 0.735398, 0.387294, -0.837137, -0.870149, -0.0177682, -0.83707, 0.286536, -0.121611, 0.199273, 0.151457, -0.954592, -0.187417, -0.235791, 0.732675, -0.408026, -0.845217, 0.152598, -0.135459, -0.969965, -0.860625, -0.76869, -0.476716, 0.0536335, -0.888008, -0.371801, 0.0284387, 0.955019, -0.066037, -0.764736, 0.163781, -0.92872, 0.0329004, 0.647067, 0.861928, -0.989963, 0.687912, -0.479363, 0.658037, 0.415016, -0.446999, 0.903955, 0.615753, -0.118037, -0.622531, -0.485529, 0.870171, 0.367635, -0.392714, 0.29179, 0.641665, 0.199273, 0.151457, -0.954592, -0.187417, -0.235791, 0.732675, -0.408026, -0.845217, 0.152598, -0.135459, -0.969965, -0.860625, -0.76869, -0.476716, 0.0536335, -0.888008, -0.371801, 0.0284387, 0.955019, -0.066037, -0.764736, 0.163781, -0.92872, 0.0329004, 0.647067, 0.861928, -0.989963, 0.687912, -0.479363, 0.658037, 0.415016, -0.446999, 0.903955, 0.615753, -0.118037, -0.622531, -0.485529, 0.870171, 0.367635, -0.392714, 0.29179, 0.641665, 0.297071, 0.181792, -0.795893, 0.664068, -0.659432, 0.670295, -0.165754, 0.14225, -0.245243, 0.929488, -0.146751, 0.567951, -0.565746, 0.0808465, 0.00688349, -0.79638, -0.299923, -0.338802, -0.0555458, 0.381829, -0.871947, 0.0198312, 0.0682979, -0.226558, 0.775961, -0.554409, 0.158667, -0.986565, 0.826552, 0.616409, -0.639824, -0.836533, -0.674175, -0.966932, -0.0200727, -0.396787, -0.358777, 0.291691, 0.0872132, -0.294429, -0.1915, 0.904363, 0.297071, 0.181792, -0.795893, 0.664068, -0.659432, 0.670295, -0.165754, 0.14225, -0.245243, 0.929488, -0.146751, 0.567951, -0.565746, 0.0808465, 0.00688349, -0.79638, -0.299923, -0.338802, -0.0555458, 0.381829, -0.871947, 0.0198312, 0.0682979, -0.226558, 0.775961, -0.554409, 0.158667, -0.986565, 0.826552, 0.616409, -0.639824, -0.836533, -0.674175, -0.966932, -0.0200727, -0.396787, -0.358777, 0.291691, 0.0872132, -0.294429, -0.1915, 0.904363, 0.485987, -0.362921, 0.00022757, -0.212532, 0.078516, -0.374189, -0.34065, -0.621704, -0.108279, 0.856828, 0.283698, 0.877059, -0.697335, 0.0571195, 0.863185, -0.368865, -0.113753, 0.593963, -0.412281, -0.958702, -0.0698292, -0.57635, -0.229184, -0.367068, 0.0459798, 0.947347, -0.441649, 0.231725, 0.251512, 0.536528, -0.0284197, 0.36393, 0.236879, 0.253088, -0.519244, -0.611476, 0.358106, 0.876965, -0.886239, -0.167653, -0.78201, -0.609384, 0.485987, -0.362921, 0.00022757, -0.212532, 0.078516, -0.374189, -0.34065, -0.621704, -0.108279, 0.856828, 0.283698, 0.877059, -0.697335, 0.0571195, 0.863185, -0.368865, -0.113753, 0.593963, -0.412281, -0.958702, -0.0698292, -0.57635, -0.229184, -0.367068, 0.0459798, 0.947347, -0.441649, 0.231725, 0.251512, 0.536528, -0.0284197, 0.36393, 0.236879, 0.253088, -0.519244, -0.611476, 0.358106, 0.876965, -0.886239, -0.167653, -0.78201, -0.609384, -0.8997, -0.463063, -0.0187975, -0.315467, 0.233756, 0.233069, 0.334746, 0.446465, -0.485899, -0.425809, -0.104036, -0.116865, -0.467189, -0.878644, -0.282748, -0.68958, 0.231265, 0.618855, 0.737928, 0.927119, 0.874073, 0.440789, -0.599932, -0.968942, -0.95738, 0.46198, 0.530679, 0.704888, 0.888475, -0.958923, 0.305929, 0.226614, -0.723399, 0.11179, 0.445888, 0.726426, -0.410616, 0.553692, -0.228916, 0.779338, 0.55178, 0.494127, -0.8997, -0.463063, -0.0187975, -0.315467, 0.233756, 0.233069, 0.334746, 0.446465, -0.485899, -0.425809, -0.104036, -0.116865, -0.467189, -0.878644, -0.282748, -0.68958, 0.231265, 0.618855, 0.737928, 0.927119, 0.874073, 0.440789, -0.599932, -0.968942, -0.95738, 0.46198, 0.530679, 0.704888, 0.888475, -0.958923, 0.305929, 0.226614, -0.723399, 0.11179, 0.445888, 0.726426, -0.410616, 0.553692, -0.228916, 0.779338, 0.55178, 0.494127, -0.164156, -0.0173231, -0.550206, 0.781117, 0.0571209, -0.883668, -0.00394359, 0.474748, -0.616271, 0.609576, 0.904174, -0.729261, 0.48779, 0.924418, -0.648192, -0.36705, 0.637019, -0.32035, 0.125157, 0.864787, -0.332621, -0.22254, -0.355307, 0.2334, 0.227646, -0.033069, -0.563018, 0.716534, 0.365208, -0.535953, -0.29605, -0.252625, 0.0301233, 0.518443, 0.130132, -0.0244916, 0.695491, 0.670669, -0.202489, -0.736055, -0.903766, -0.357319, -0.164156, -0.0173231, -0.550206, 0.781117, 0.0571209, -0.883668, -0.00394359, 0.474748, -0.616271, 0.609576, 0.904174, -0.729261, 0.48779, 0.924418, -0.648192, -0.36705, 0.637019, -0.32035, 0.125157, 0.864787, -0.332621, -0.22254, -0.355307, 0.2334, 0.227646, -0.033069, -0.563018, 0.716534, 0.365208, -0.535953, -0.29605, -0.252625, 0.0301233, 0.518443, 0.130132, -0.0244916, 0.695491, 0.670669, -0.202489, -0.736055, -0.903766, -0.357319, 0.26858, 0.617133, -0.275744, -0.948099, -0.942467, 0.0672683, -0.490434, -0.820794, -0.871519, -0.970572, 0.745789, -0.842355, -0.627542, -0.176986, -0.915402, -0.87766, 0.733973, 0.0442525, -0.547531, 0.457599, -0.347004, 0.0583364, 0.907477, 0.371644, 0.435413, -0.545208, -0.551682, 0.891102, -0.974807, 0.884451, 0.882496, 0.178794, -0.769036, 0.0280169, -0.873055, 0.553398, 0.573097, 0.127975, -0.348336, 0.898502, -0.968023, 0.93947, 0.26858, 0.617133, -0.275744, -0.948099, -0.942467, 0.0672683, -0.490434, -0.820794, -0.871519, -0.970572, 0.745789, -0.842355, -0.627542, -0.176986, -0.915402, -0.87766, 0.733973, 0.0442525, -0.547531, 0.457599, -0.347004, 0.0583364, 0.907477, 0.371644, 0.435413, -0.545208, -0.551682, 0.891102, -0.974807, 0.884451, 0.882496, 0.178794, -0.769036, 0.0280169, -0.873055, 0.553398, 0.573097, 0.127975, -0.348336, 0.898502, -0.968023, 0.93947, -0.164286, 0.981778, -0.692673, 0.0783355, 0.826884, 0.419423, -0.378816, 0.366801, -0.0081185, 0.594862, -0.736126, -0.995261, 0.699432, -0.61462, -0.747871, -0.0905249, -0.222553, 0.215557, -0.017766, 0.847922, 0.492006, 0.244862, -0.569628, 0.877934, 0.0259649, 0.579039, -0.0835697, 0.295411, 0.598436, 0.647503, 0.0719726, 0.657958, -0.860299, 0.365104, 0.0339372, 0.169477, 0.5978, 0.254312, 0.295875, 0.170319, -0.964867, -0.449116, -0.164286, 0.981778, -0.692673, 0.0783355, 0.826884, 0.419423, -0.378816, 0.366801, -0.0081185, 0.594862, -0.736126, -0.995261, 0.699432, -0.61462, -0.747871, -0.0905249, -0.222553, 0.215557, -0.017766, 0.847922, 0.492006, 0.244862, -0.569628, 0.877934, 0.0259649, 0.579039, -0.0835697, 0.295411, 0.598436, 0.647503, 0.0719726, 0.657958, -0.860299, 0.365104, 0.0339372, 0.169477, 0.5978, 0.254312, 0.295875, 0.170319, -0.964867, -0.449116, -0.8856, -0.841329, -0.893731, -0.26234, 0.123544, -0.317122, -0.0295604, -0.615684, -0.888023, 0.74435, -0.844651, 0.440702, -0.80405, 0.612531, -0.333859, 0.0779729, 0.750824, 0.619222, -0.866805, -0.385011, -0.354101, -0.284201, -0.655471, 0.745736, 1.0047, 0.560209, -0.603407, -0.24022, -0.333058, -0.30812, 0.347637, 0.739272, 0.867392, -0.866434, 0.7047, 0.967225, -0.138648, -0.0626332, 0.410253, -0.728819, 0.283697, 0.141977, -0.8856, -0.841329, -0.893731, -0.26234, 0.123544, -0.317122, -0.0295604, -0.615684, -0.888023, 0.74435, -0.844651, 0.440702, -0.80405, 0.612531, -0.333859, 0.0779729, 0.750824, 0.619222, -0.866805, -0.385011, -0.354101, -0.284201, -0.655471, 0.745736, 1.0047, 0.560209, -0.603407, -0.24022, -0.333058, -0.30812, 0.347637, 0.739272, 0.867392, -0.866434, 0.7047, 0.967225, -0.138648, -0.0626332, 0.410253, -0.728819, 0.283697, 0.141977, 0.207646, -0.417877, -0.175596, -0.0574263, -0.367595, -0.950099, 0.905342, 0.328095, 0.691538, 0.790374, 0.206293, -0.94485, 0.482653, 0.4038, 0.31631, -0.756181, 0.296096, -0.448865, 0.30281, -0.862922, 0.740123, 0.460977, 0.6987, -0.199987, 0.157431, 0.871457, 0.742673, 