{"hidden1":{"biases":[
-0.973299, -0.294098, 0.0525235, -0.0768481, -0.806754, -0.0275224, 0.561543, 0.376531, 0.517544, -0.447165, -0.12496, 0.620783, -0.579512, -0.179939, 0.150889, 0.662598, 0.166108, -0.529726, 0.836232, 0.769074, 0.184256, 0.330035, -0.736824, 0.185131, 1.00685, 0.723435, 0.576462, 0.228468, -0.640586, -0.74395, 0.561686, -0.793203, 0.382701, 0.0273822, 0.950169, -0.815074, -0.447431, 0.463285, 0.274887, -0.504727, 0.986905, 0.24648, 0.251512, -0.893853, 0.741642, -0.0291533, 0.271156, 0.26574, -0.896934, -0.958359, 0.908351, -0.91551, -0.516766, -0.947426, 0.0511688, 0.616989, -0.127288, 0.21361, -0.725879, -0.215094, -0.623671, -0.155902, 0.937256, 0.96635, 0.130004, 0.747513, 0.853794, 0.504385, 1.03999, -0.296256, -0.26903, -0.916011, -0.0912786, -0.157628, -0.116967, -0.535579, -0.586715, 0.750573, -0.602411, 0.333083, 0.26187, -0.0278637, 0.164546, -0.192383
],"weights":[
0.583112, -0.0805489, 0.302916, -0.82126, -0.631886, 0.795167, 0.953993, -0.641009, -0.600562, -0.626724, -0.612803, 0.0684122, 0.504407, 0.94819, -0.337105, -0.536857, -0.613476, -0.211885, 0.286408, -0.538009, 0.348531, -0.729914, -0.199316, -0.111248, 0.581582, 0.822986, 0.233541, -0.691073, -0.331391, 0.872578, -0.321516, 0.539034, 0.0432901, 0.364918, -0.570376, 0.872131, 0.155325, 0.470548, 0.765941, 0.865891, -0.921783, 0.0543459, -0.811614, -0.0915279, 0.300271, -0.672155, 0.400776, 0.748319, 0.314422, 0.505425, 0.888278, 0.412435, 0.189633, -0.690136, 0.479196, 0.642415, 0.123244, -0.386981, -0.241466, 0.795452, -0.192051, 0.876019, 0.2687, -0.0891209, -0.971422, 0.454351, 0.437894, 0.16538, -0.718997, -0.969098, -0.366456, 0.864599, 0.921295, -0.904545, -0.764637, -0.978383, -0.328538, 0.694105, 0.374595, -0.20095, -0.887617, -0.302703, 0.603682, -0.709653, -0.581038, -0.795878, 0.220951, -0.376932, -0.327693, 0.331101, 0.674744, -0.583694, -0.572537, -0.0368054, 0.229714, -0.501216, -0.496459, 0.082763, -0.166068, -0.988702, -0.841118, -0.126996, 0.874185, 0.763183, -0.285038, 0.37709, -0.309099, -0.929376, -0.930387, 0.299256, -0.607787, -0.479922, 0.6666, 0.203255, -0.58406, 0.108999, 0.74469, -0.858402, -0.223683, 0.889153, -0.879766, -0.608226, 0.535911, -0.0386227, -0.369463, 0.243064, -0.858056, -0.0179647, 0.666049, 0.0685736, 0.209694, 0.00519788, -0.280362, 0.770971, 0.304588, -0.906531, -0.570043, 0.739437, -0.69235, -0.36209, 0.907893, -0.34353, -0.845279, -0.630695, 0.788286, -0.315877, 0.457218, -0.960553, -0.0695091, 0.764845, -0.880642, -0.26297, -0.623177, -0.08838, -0.75352, 0.821948, 0.805992, 0.421709, -0.0355454, -0.388359, -0.0682465, 0.787064, 0.788268, -0.937906, -0.115251, -0.498624, -0.704657, 0.966263, -0.0619571, -0.938451, 0.299633, 0.148688, -0.847825, 0.204298, -0.374804, 0.516275, -0.0755088, -0.50811, 0.837312, -0.228209, -0.187432, 0.590942, -0.428741, 0.111497, -0.330559, 0.021486, -0.951004, -0.566443, 0.592192, 0.917423, 0.223202, -0.415298, 0.622399, 0.890754, -0.882171, -0.645505, 0.458708, -0.734192, -0.902359, -0.392218, 0.108014, 0.025039, 0.699452, 0.45719, 0.228467, 0.821272, 0.459953, -0.984334, -0.424236, 0.341655, -0.634655, -0.82489, 0.118647, -0.256577, -0.316688, -0.261465, -0.784295, 0.56978, 0.0599184, -0.244455, 0.0602045, -0.709163, 0.643559, 0.731445, -0.453416, -0.926992, -0.169359, -0.782773, -0.558215, -0.257585, -0.850333, 0.658367, 0.862358, 0.709701, -0.378056, 0.0874401, 0.086038, 0.105031, 0.376858, -0.65166, -0.659657, -0.859249, -0.198528, 0.556369, 0.750155, -0.438088, 0.777009, 0.826517, -0.104065, -0.393401, -0.122006, -0.994697, 0.317013, -0.12075, -0.423318, 0.889564, 0.955623, -0.360759, 0.581787, 0.803241, 0.83961, -0.140072, 0.566366, 0.137231, 0.728693, -0.705251, 0.288519, -0.485542, -0.800848, -0.916665, 0.773886, -0.813284, -0.990997, -0.162253, 0.229713, -0.982589, 0.569537, -0.399071, 0.653609, -0.795604, 0.0389844, -0.47551, 0.810058, 0.16788, 0.465477, -0.504288, 0.714158, -0.292715, 0.0870049, -0.914692, -0.448685, 0.375096, 0.794985, -0.351924, -0.892713, 0.834351, 0.622888, 0.492241, 0.771789, 0.742975, 0.919515, 0.530057, 0.559531, -0.393817, -0.459982, -0.148797, 0.474264, 0.967761, 0.426676, -0.674039, -0.686313, -0.543484, -0.355643, -0.907826, 0.196157, -0.82492, -0.497738, -0.525125, 0.880621, -0.4743, -0.892406, 0.720226, 0.725879, 0.889005, 0.791238, -0.837028, 0.274045, 0.226703, -0.849894, 0.716224, -0.634066, 0.580312, 0.627018, 0.78014, 0.713155, 0.965989, -0.471437, 0.695359, -0.0782909, 0.946151, -0.310015, 0.833822, 0.917714, 0.670252, 0.800694, -0.340583, -1.00208, 0.921367, -0.763506, -0.441158, 0.623133, -0.951486, 0.458788, -0.461367, -0.350922, -0.598921, -0.926502, -0.00360619, 0.0128001, -0.229449, -0.14268, 0.141289, 0.200548, 0.290641, -0.296123, -0.774878, -0.484096, -0.7576, 0.146235, 0.163757, 0.721506, -0.130553, -0.583486, -0.259759, 0.599475, -0.41243, 0.216554, -0.789871, 0.415255, 0.693636, 0.110299, -0.135512, 0.114328, -0.731064, 0.769535, -0.885432, 0.341085, -0.62503, -0.110111, -0.339987, 0.470603, -0.400877, -0.188538, -0.79462, -0.0396174, -0.93633, 0.506692, 0.335818, -0.209466, -0.618031, -0.587718, 0.277353, -0.452656, -0.217489, -0.222463, 0.528127, 0.427023, 0.10715, -0.679644, -0.490414, -0.80843, 0.683528, -0.0392399, 0.17616, -0.874341, -0.921379, -0.0159979, 0.165091, 0.710959, 0.279968, 1.00015, -0.885388, 0.583878, -0.504616, 0.442928, 0.434353, -0.415994, -0.0808504, 0.195475, 0.466438, -0.880259, 0.918393, 0.740396, 0.93592, 0.367594, -0.965772, 0.953081, 0.462241, -0.698229, 0.59512, 0.661052, 0.624717, -0.883708, -0.850643, -0.501514, 0.0522322, 0.662666, -0.129685, 0.221076, 0.581337, 0.84307, -0.513045, -0.0246555, -0.546851, -0.435133, 0.0834732, -0.049551, 0.511812, 0.302052, 0.924367, 0.38652, 0.475266, -0.719162, 0.861574, -0.698122, -0.874059, 0.577605, 0.503995, 0.172781, 0.588395, 0.958904, 0.627051, -0.885544, 0.512442, 0.504794, -0.265486, 0.871061, -0.379129, -0.130564, -0.149973, 0.842543, -0.54138, 0.591671, 0.139874, 0.77786, -0.283911, 0.956199, 0.988781, -0.509331, 0.305742, -0.318056, -0.828369, 0.753829, -0.60042, -0.0779724, 0.323981, -0.0535706, -0.0950854, -0.722474, -0.428909, -0.458798, 0.149626, -0.743013, 0.384598, 0.903628, 0.0897699, -0.058728, -0.167854, -0.510901, -0.501079, -0.0920452, -0.825301, 0.521352, -0.324632, 0.282185, 0.459743, 0.954786, 0.264753, -0.922981, -0.569057, -0.894131, 0.799423, -0.253, 0.644239, -0.134577, 0.242193, -0.402648, 0.35642, -0.555078, -0.435834, -0.737237, 0.013793, -0.431153, -0.957902, -0.86921, 0.268825, -0.582851, 0.639422, -0.214238, -0.16316, -0.999446, -0.0518874, 0.446244, -0.783506, -0.586081, 0.452504, 0.780634, -0.568445, -0.108951, -0.722661, -0.897945, -0.61097, -0.438386, -0.509175, -0.947293, 0.308026, 0.0801917, -0.56431, -0.447433, 0.791341, -0.900553, -0.990507, -0.0636383, 0.744396, 0.464128, 0.190697, 0.722963, 0.209508, 0.591055, 0.397114, -0.915781, -0.721097, 0.696882, -0.646999, -0.873534, -0.732482, -0.0904591, 0.334014, 0.0919773, -0.47684, 0.0791424, -0.636532, 0.21056, 0.686157, -0.406938, 0.0577745, 0.357108, 0.606692, -0.292718, 0.694264, 0.256488, 0.662376, 0.842243, -0.435806, 0.445209, -0.55278, -0.903598, -0.701385, -0.0484609, -0.890706, -0.267218, -0.692099, -0.940551, -0.952402, -0.952196, 0.379068, 0.799104, 0.285327, -0.143524, 0.80425, 0.699745, 0.703624, 0.284256, 0.103988, -0.30826, -0.273993, -0.484929, 0.765997, 0.151259, -0.341248, 0.236539, -0.437162, 0.344996, -0.703396, 0.725101, 0.503394, -0.253987, -0.546787, 0.620506, 0.711342, 0.569293, -0.0607212, -0.438652, -0.680198, 0.286113, 0.241449, -0.700813, 0.0591371, -0.765611, 0.864103, -0.197278, 0.380643, 0.664203, -0.833651, -0.410319, 0.374493, -0.884587, 0.436287, 0.645123, -0.756006, -0.889574, 0.628887, -0.15802, 0.694017, -0.232473, 0.754191, 0.574344, -0.038854, -0.632434, 0.670686, 0.899086, -0.865051, 0.782081, -0.0695214, 0.0956968, 0.313557, -0.733847, 0.680658, 0.946293, -0.391972, 0.98737, -0.638201, 0.631908, 0.926166, -0.520335, 0.541883, -0.0509371, -0.104999, -0.660677, -0.81772, -0.0439001, -0.654455, -0.728279, -0.773934, 0.159815, 0.784956, -0.522007, 0.217855, -0.0730578, 0.786296, 0.0091309, -0.0246404, 0.778873, 0.780682, -0.244537, 0.891359, -0.156617, -0.661197, 0.260556, 0.123981, 0.43083, 0.30374, 0.359989, -0.605957, -0.314976, 0.222758, 0.67228, -0.402212, 0.570243, 0.195277, 0.624689, 0.528427, 0.553889, 0.22164, 0.899941, 0.901624, 0.948148, 0.487711, 0.0845486, -0.687397, 0.895837, -0.899827, 0.532204, 0.200498, 0.125288, -0.276467, 0.562553, -0.210239, -0.945091, 0.382041, -0.548635, 0.656908, -0.066381, 0.0451458, -0.951993, -0.170837, -0.894078, -0.175159, -0.639363, 0.669722, 0.189039, -0.296016, 0.949745, -0.748125, 0.428594, -0.615363, -0.608002, 0.985462, -0.451455, -0.128401, 0.804246, -0.883079, 0.435429, 0.331514, 0.400298, 0.961218, -0.804144, -0.646507, 0.265494, -0.0272857, -0.698684, 0.105783, 0.509591, 0.271768, -0.838532, -0.579639, -0.235412, 0.981341, -0.571911, 0.0601897, -0.570852, 0.0886326, -0.558283, 0.714636, -0.519752, 0.670938, 0.054601, -0.715411, -0.0519474, -0.243621, -0.92456, 0.0688727, 0.93373, 0.586475, 0.472852, 0.315015, -0.940717, 0.61103, -0.375074, 0.242577, -0.841341, -0.0262121, 0.0336594, 0.50777, -0.445702, -0.3387, -0.84908, 0.058807, -0.035968, 0.37995, 0.758993, -0.582161, -0.497711, 0.658882, -0.732902, -0.618532, -0.615412, 0.802309, 0.0251711, 0.517395, -1.00374, -0.959698, 0.78449, 0.155945, -0.995376, 0.238883, -0.692712, 0.982014, 0.805366, 0.362446, 0.381738, 0.97433, 0.614786, -0.245038, -0.892519, 0.431662, -0.349702, -0.0449083, -0.0430658, 0.89747, -0.526586, 0.522689, 0.801394, 0.406873, 0.725068, 0.746586, 0.368496, -0.39924, 0.977103, -0.961019, -0.701359, -0.562963, 0.538532, -0.463258, 0.712303, -0.345166, -0.0207619, 0.681809, -0.935786, 0.138495, 0.00883938, 0.722864, -0.226573, 0.573747, 0.385757, -0.605846, 0.921092, 0.826724, -0.775638, 0.218252, -0.705065, 0.814081, 0.649955, -0.840912, -0.137953, -0.775886, -0.606916, 0.215649, -0.266182, -0.595495, 0.930634, 0.635221, 0.832496, -0.788288, -0.0284326, 0.666813, -0.316742, -0.0215724, 0.0232488, 0.453944, 0.00380395, -0.0475488, -0.959028, -0.583996, -0.501961, -0.289559, -0.858382, 0.815481, 0.716421, -0.446989, -0.110567, -0.0575727, -0.900824, -0.445381, 0.494333, 0.043178, 0.639352, -0.777054, -0.195712, -0.360808, 0.44662, -0.331821, -0.119287, -0.73135, 0.427756, 0.798364, -0.740084, -0.872308, 0.270449, 0.438812, 0.568935, -0.26417, -0.853973, -0.790503, -0.989783, 0.797565, -0.313375, 0.292009, -0.749559, -0.300534, -0.76598, -0.515037, 0.450709, 0.755205, 0.254732, 0.225728, -0.748958, -1.0023, 0.192663, -0.093618, -0.0976799, 0.564412, -0.338142, 0.685304, -0.495656, -0.0925272, 0.00917957, 0.75939, -0.721818, -0.721608, -0.741884, -0.474894, 1.00134, 0.337144, -0.528867, -0.161265, -0.45623, -0.293021, 0.69212, -0.51302, 0.67441, 0.126933, 0.608498, 0.189954, -0.536689, 0.50566, 0.423551, -0.404162, 0.560551, 0.716726, -0.466959, -0.901527, 0.905944, 0.778049, 0.31247, 0.336073, -0.230536, 0.274756, -0.175541, -0.960652, 0.780932, 0.613728, -0.891937, -0.289393, 0.96793, 0.789008, 0.782514, -0.00716668, 0.237587, 0.410452, -0.301697, -0.73141, 0.466934, -0.866003, -0.496338, -0.118318, -0.948846, -0.844675, 0.395279, 0.0781726, 0.131775, 0.567734, -0.873365, 0.234489, 0.0694017, -0.625139, 0.982289, -0.717745, -0.460606, -0.0826905, -0.656824, 0.494013, 0.693847, 0.356964, -0.934126, -0.295443, 0.75775, 0.419601, 0.18778, 0.764149, 0.754776, 0.284822, 0.458075, -0.743464, 0.681249, -0.284836, 0.109749, 0.320759, -0.411654, -0.771917, 0.865888, 0.454508, -0.366496, -0.625418, -0.286502, -0.605876, -0.945859, -0.126737, 0.0993018, -0.0690101, -0.791785, 0.877731, 0.861677, -0.891216, 0.644216, 0.852484, 0.823456, 0.0826996, 0.828782, 0.711769, 0.948419, -0.575526, -1.00012, -0.775723, 0.122476, -0.979481, -0.248691, -0.119609, 0.691853, -0.298111, 0.477684, 0.57694, -0.256398, 0.196975, 0.30133, 0.942491, 0.760979, -0.219874, -0.261819, 0.706981, -0.35742, -0.399682, 0.163102, -0.695282, -0.820661, 0.699843, -0.990538, 0.366055, 0.60461, 0.87899, 0.564784, 0.98697, 0.62772, -0.207957, 0.469094, 0.924041, -0.991272, -0.250311, 0.391746, 0.572854, -0.266753, 0.222165, 0.414832, 0.220167, -0.171612, 0.091968, -0.579326, -0.347841, 0.0535693, -0.398665, -0.622192, -0.541218, -0.083956, 0.534372, -0.274824, -0.839302, -0.037171, 0.947079, -0.498038, 0.993274, 0.314194, -0.814988, -0.682174, -0.795232, -0.360241, -0.579414, -0.483032, 0.888589, 0.738193, -0.266303, -0.877306, 0.17728, -0.944619, 0.422818, 0.00128896, 0.838449, -0.378296, -0.97614, 0.125363, -0.838266, -0.330324, -0.500663, -0.68145, -0.781123, 0.498041, 0.548351, -0.601447, -0.556105, -0.525675, 0.291152, 0.00880468, 0.887195, 0.853939, 0.402538, -0.325775, 0.444471, -0.349878, 0.196914, -0.918879, -0.864555, 0.921961, 0.751378, -0.783378, 0.520099, -0.0861728, 0.313907, -0.526975, -0.310942, -0.79577, 0.416315, -0.0228144, -0.0377158, -0.210668, -0.38329, 0.378564, 0.202397, -0.422377, 0.265977, -0.480224, -0.0462994, 0.904043, -0.958805, -0.650355, 0.274595, 0.119063, 0.661222, 0.563339, 0.355353, 0.679019, -0.00830381, -0.0420981, -0.937367, -0.508819, 0.0999454, 0.0122434, 0.771767, 0.278852, -0.962006, 0.336597, -0.780545, -0.928634, 0.623378, -0.311455, 0.280123, -0.755492, -0.508889, 0.471551, 1.00721, 0.83793, -0.366132, -0.712079, -0.613708, -0.0184586, 0.166616, 0.207728, 0.787976, -0.133173, -0.943894, 0.521146, -0.996714, -0.322838, -0.513925, 0.196415, -0.187872, -0.573506, 0.609015, 0.527785, -0.898418, -0.525824, -0.640689, 0.631509, 0.335562, -0.518892, 0.264273, 0.920426, -0.683186, -0.259263, -0.87246, 0.42749, -0.139065, 0.790928, 0.369029, -0.692548, -0.963318, 0.594353, -0.331025, 0.385001, -0.929505, 0.438753, 0.618095, 0.14629, -0.93554, -0.926956, 0.0658389, -0.411941, -0.776577, 0.61683, -0.82665, -0.359021, -0.477648, -0.0277261, -0.483064, -0.0411306, -0.780776, -0.773176, -0.176044, 0.860885, 0.650075, -0.601974, -0.965304, 0.559624, 0.915144, 0.803762, 0.104711, 0.834241, -0.04104, -0.351199, 0.795523, -0.607055, -0.339018, 0.088485, -0.639426, 0.841966, -0.224648, 0.795597, -0.649338, -0.318553, -0.914624, 0.707734, 0.607111, 0.174342, 0.890282, -0.916262, 0.2004, 0.853684, -0.93299, 0.195983, -0.864036, 0.322325, -0.0869636, -0.0809959, -0.813836, -0.393252, 0.153463, -0.998067, -0.550867, 0.868498, 0.885841, -0.763351, 0.0343679, -0.167528, 0.821497, 0.131191, 0.718954, -0.22301, -0.51889, 0.700878, -0.97569, 0.205949, -0.730195, -0.552598, -0.985771, 0.763886, -0.106957, -0.162373, 1.0023, -0.245951, -0.299084, -0.415224, -0.18917, -0.272987, 0.0991976, 0.114329, 0.419482, 0.276147, -0.220448, 0.735047, -0.363329, 0.215804, 0.974466, 0.589681, 0.249704, -0.344268, -0.211898, -0.338482, 0.770304, 0.146225, 0.0112277, 0.206897, -0.776802, -0.975195, -0.302338, 0.439317, -0.493602, 0.502994, -0.114423, -0.390706, -0.963065, 0.00861251, -0.481345, 0.207869, 0.324168, -0.177523, 0.770223, 0.700018, 0.68483, 0.328282, 0.100606, 0.340235, -0.233612, 0.950972, -0.35749, -0.687658, -0.472333, -0.386444, -0.339368, -0.206386, -0.282772, 0.655067, -0.735488, -0.57845, 0.303289, -0.664794, -0.623286, -0.596838, 0.652505, -0.846093, 0.847734, -0.57666, 0.246053, 0.91616, -0.119617, -0.137037, -0.353401, -0.526142, 0.278054, -0.372592, -0.230513, 0.258326, 0.50464, -0.39933, -0.933868, -0.154731, -0.277021, -0.730389, 0.328933, 0.613575, -0.0459897, 0.161455, 0.56612, 0.12879, 0.533463, -0.251414, 0.951424, 0.50563, -0.563754, 0.376185, -0.14801, -0.530162, -0.581532, 0.949927, -0.629548, 0.544028, -0.0412905, -0.434191, -0.798543, 0.759366, -0.283024, 0.930675, -0.616038, 0.08224, -0.601274, -0.576235, -0.465499, 0.832907, -0.683842, -0.945028, 0.207473, -0.842614, -0.282018, 0.764998, 0.765586, -0.304406, -0.545356, -0.0962512, 0.72668, -0.439914, -0.808069, 0.792231, 0.983713, -0.450718, -0.598107, 0.336221, 0.312535, -0.850298, -0.566565, -0.161475, -0.967903, -0.279139, 0.172448, -0.167669, -0.909377, -0.0943958, -0.613688, 0.224895, -0.195159, 0.32341, 0.405919, 0.219015, 0.885779, 0.673383, -0.290911, 0.378742, -0.175438, -0.926167, 0.911361, -0.407414, -0.00970885, 0.231962, -0.538895, 0.911814, -0.654978, -0.155665, 0.132047, -0.258479, -0.0250027, 0.24384, 0.622987, -0.370611, 0.204826, -0.502354, 0.955907, -0.791751, 0.997286, -0.0907163, 0.113535, -0.764192, 0.218803, 0.81113, 0.869588, -0.584788, -0.368553, 0.668962, -0.0129233, 0.537024, 0.0760875, -0.370827, -0.985276, 0.0227172, 0.379815, 0.363206, 0.663945, -0.0793753, -0.47129, 0.0335854, 0.748556, 0.308462, 0.081224, 0.244965, -0.897189, 0.50189, 0.816738, -0.450784, 0.688159, -1.00414, -0.221967, 0.609304, -0.154746, 0.338689, 0.727393, -0.409685, 0.542067, 0.0195016, -0.365273, 0.730257, -0.445882, 0.693252, 0.90365, 0.998128, -0.412157, 0.615206, 0.817154, 0.524493, 0.379432, 0.126941, -0.291855, 0.449108, -0.0718957, -0.437919, -0.0928058, 0.0267707, -0.218566, -0.772052, -0.0252722, -0.487445, 0.814814, 0.218953, 0.187577, 0.798262, 0.260279, 0.862758, 0.973539, -0.353471, -0.743434, 0.0859293, 0.122608, 0.422314, -0.924022, -0.0184181, 0.518418, 0.493393, -0.703348, -0.640812, 0.0352015, 0.595605, 0.281263, 0.44586, 0.0607615, -0.894541, -0.122057, 0.290388, 0.740361, -0.596339, 0.340973, 0.321542, -0.898906, -0.259177, -0.63889, -0.78724, 0.271046, 0.921782, 0.591185, 0.0361449, 0.150495, 0.298194, 0.30565, 0.968512, 0.3685, -0.888472, -0.214986, 0.364637, -0.296727, -0.552846, 0.174342, -0.482379, 0.444766, 0.429411, 0.742546, 0.557303, -0.0945787, -0.463608, -0.560244, -0.83266, 0.198042, -0.967751, -0.237326, -0.0926626, 0.298257, -0.220916, -0.308783, -0.899807, 0.410574, 0.692707, -0.908864, 0.929875, -0.890394, 0.810804, -0.930318, 0.663412, 0.122599, -0.418027, -0.233803, -0.446361, -0.515612, -0.377131, 0.376215, -0.185861, 0.742731, -0.0108542, 0.205775, 0.920339, 0.929475, -0.0793486, -0.258427, -0.115663, -0.579316, -0.139649, 0.443518, -0.558852, 0.444664, -0.0354138, -0.111993, -0.882778, 0.980218, -0.0957116, 0.940156, -0.758234, -0.476545, -0.05032, -0.95159, -0.785958, -0.577286, 0.18448, -0.565476, 0.0170636, -0.31046, 0.689181, -0.309184, -0.843636, 0.569829, -0.939884, -0.0723083, -0.961861, -0.722715, 0.132189, -0.0590831, -0.748477, -0.0791767, -0.393401, -0.173935, 0.69342, -0.408462, -0.672024, -0.498212, -0.621316, 0.0565173, -0.859949, 0.42888, 0.00628031, 0.813942, 0.961626, -0.915064, 0.28568, -0.251882, 0.791487, 0.562678, 0.213953, 0.820689, -0.739276, -0.946446, -0.486013, 0.671072, 0.668832, 0.355098, -0.968912, -0.362397, -0.251409, -0.849959, 0.0542008, 0.29182, -0.279908, -0.985091, -0.33965, 0.789477, 0.501369, 0.544583, -0.641813, -0.456611, -0.0620537, -0.459345, 0.987534, 0.487728, 0.177632, 0.61183, 0.0448242, 0.367134, 0.617101, 0.0553348, 0.746691, -0.632367, 0.710919, 0.583209, -0.315695, -0.821215, -0.61132, 0.0391426, 0.795648, -0.935482, 0.402479, 0.924483, 0.864351, -0.838529, 0.492632, -0.995099, 0.325556, 0.908598, -0.704468, 0.993316, -0.944271, 0.225933, 0.865127, 0.221956, -0.0473419, 0.816788, -0.399898, 0.729631, 0.623134, 0.527936, 0.523253, -0.722985, -0.250761, 0.234843, 0.346193, -0.0676053, 0.308702, 0.97599, -0.397118, -0.14546, 0.504545, 0.280606, -0.304467, 0.59869, -0.850867, 0.492425, -0.618923, -0.686418, 0.322495, -0.414818, 0.506136, 0.45863, 0.407896, 0.11728, 0.451541, -0.416957, -0.497787, 0.367282, 0.0972635, 0.882789, -0.870389, 0.334567, -0.0872747, 0.939238, -0.24463, 0.347654, -0.871295, -0.525867, 0.277772, -0.13694, 0.232887, 0.0797597, -0.544748, -0.105588, 0.975372, 0.331968, -0.744846, -0.884245, 0.0321642, 0.835539, 0.787118, 0.496969, -0.251189, -0.201228, 0.306072, -0.705148, -0.412725, 0.546881, 0.829024, -0.98319, -0.480483, -0.242269, 0.571349, -0.619828, -0.646473, -0.756164, -0.909134, 0.977541, -0.492868, 0.577389, -0.476543, 0.13426, 0.236548, 0.293033, -0.266513, -0.484474, 0.184713, -0.379776, 0.335687, 0.882078, -0.48055, -0.053011, -0.818892, 0.312635, 0.0903024, 0.0938942, 0.579464, 0.43269, 0.550562, -0.921006, -0.851837, -0.0417498, 0.280424, 0.85414, 0.579774, -0.120838, -0.472379, 0.655957, 0.0647505, -0.444877, 0.680692, 0.199949, -0.812349, 0.312376, 0.246674, 0.198624, -0.832963, 0.989528, 0.801324, 0.954689, -0.973499, 0.850222, -0.0262675, -0.693854, 0.927808, 0.956573, 0.604004, -0.942555, 0.719753, 0.728925, -0.679731, -0.13328, 0.698131, -0.667915, -0.250302, 0.998526, 0.863114, 0.577536, 0.183628, 0.361682, 0.520794, 0.924863, 0.582435, 0.668182, -0.896098, -0.408294, -0.371833, 0.0526148, 0.627626, 0.464049, -0.540801, -0.12535, 0.486987, -0.192746, 0.518772, 0.335782, -0.883269, -0.914744, -0.193033, -0.350515, 0.0624722, 0.755386, -0.127948, 0.0781128, -0.419443, -0.973764, 0.927535, 0.684843, 0.399512, 0.943948, 0.761281, -0.978744, 0.173484, 0.0761516, 0.444506, -0.0144165, 0.512962, -0.986227, -0.463252, 0.306133, 0.201023, -0.336498, 0.979375, 0.387826, 0.402938, -0.227813, -0.491775, -0.0362337, -0.0153987, 0.556651, -0.0858006, -0.634049, -0.593976, -0.412444, -0.207287, -0.545056, -0.339335, -0.0383548, 0.534469, 0.229496, -0.760564, 0.343889, 0.734807, -0.595973, 0.355706, 0.583195, 0.563623, 0.414341, -0.805991, -0.887947, -0.105849, -0.00800184, 0.885246, -0.0998998, -0.864303, -0.503762, -0.889088, 0.251294, 0.555633, 0.770948, -0.632424, -0.980477, -0.470039, -0.859655, 0.728979, -0.868849, -0.428986, 0.0122998, 0.0133523, -0.237273, -0.106577, -0.359953, -0.787426, 0.878312, -0.686142, -0.793185, 0.40559, -0.282806, -0.14905, -0.175901, 0.804769, -0.611626, 0.352942, 0.901521, -0.900082, -0.430714, -0.98796, 0.129007, 0.906658, -0.640566, -0.259197, 0.433093, -0.220556, 0.133503, 0.727256, -0.423557, 0.86869, 0.471109, 0.372769, 0.742317, -0.985336, -0.0319618, 0.653471, -0.00656002, 0.284727, 0.824263, -0.376435, -0.34718, -0.938783, 0.23668, -0.357449, 0.684225, 0.047555, 0.99224, -0.851028, 0.519655, -0.167738, -0.746598, 0.694916, 0.449861, -0.623172, 0.509429, 0.718362, 0.486704, 0.375071, -0.597952, 0.0738978, -0.324511, -0.409063, -0.165764, -0.562526, -0.82212, -0.559204, -0.372325, 0.736741, -0.491077, 0.32117, 0.670195, -0.909054, 0.926182, 0.433907, 0.420011, 0.798612, -0.505594, -0.765572, 0.353315, -0.151873, -0.623218, -0.0882043, -0.243665, 0.626865, 0.239192, -0.544171, -0.480669, -0.582294, -0.927274, 0.238307, -0.854045, 0.0588425, 0.740036, -0.271541, 0.0737494, 0.029919, 0.268277, 0.512956, -0.825612, -0.223944, 0.44745, 0.39739, -0.232361, 0.809856, -0.258038, 0.884835, 0.0110701, 0.965391, 0.273711, 0.553714, -0.162555, 0.618994, -0.0529434, -0.508468, -0.103632, 0.0685361, 0.866433, -0.787727, 0.695345, 0.0538648, -0.120223, 0.407848, -0.462407, 0.167466, -0.160132, -0.526838, -0.659749, -0.509674, -0.639486, 0.542552, 0.802148, -0.815469, -0.959895, -0.567212, -0.0962058, -0.639794, 0.742453, 0.550979, -0.0107775, 0.14308, -0.675289, -0.744793, 0.878186, -0.146021, -0.932453, 0.648782, -0.470821, -0.163973, -0.500375, -0.421025, 0.271333, -0.0373143, 0.811754, 0.263886, 0.48817, 0.868086, 0.222205, -0.783145, 0.253818, 0.338168, 0.444882, 0.721608, -0.910115, -0.914524, 0.627603, 0.0344551, 0.734826, -0.185319, 0.76036, -0.561228, 0.455097, 0.504882, -0.614468, -0.520814, -0.540826, -0.459871, 0.0374896, -0.848956, -0.144751, -0.575398, -0.370332, 0.224982, 0.41745, 0.160083, 0.241914, -0.39318, 0.616546, 0.0904608, -0.773025, -0.160363, -0.0546028, -0.829474, -0.610865, -0.39654, 0.408348, -0.715567, -0.858262, 0.628937, 0.532493, -0.506116, 0.32115, -0.892945, 0.898374, 0.0368213, -0.322239, 0.583254, 0.486792, -0.976444, -0.226876, -0.845969, 0.459638, 0.450324, -0.780638, -0.862367, 0.787296, -0.666486, 0.76329, -0.187301, -0.893187, 0.0112293, -0.668414, -0.180243, 0.0153308, -0.344525, -0.481944, 0.80734, 0.195768, -0.0429714, -0.84597, -0.506552, -0.971601, 0.0362123, -0.365323, 0.5897, -0.16871, -0.420156, -0.611592, 0.765357, -0.844223, -0.992185, 0.10804, -0.194557, 0.886013, 0.599861, -0.675029, 0.983, 0.535523, 0.156608, -0.963706, -0.680624, -0.212476, 0.971649, -0.801708, -0.622152, -0.200962, -0.830417, 0.421425, 0.433373, -0.620207, -0.821625, 0.353357, 0.991403, 0.584352, -0.309831, 0.33019, -0.507077, 0.0323115, -0.690733, -0.267536, 0.415509, 0.94888, -0.796692, 0.293488, -0.623699, 0.0566818, -0.804707, -0.837176, 0.623829, 0.846797, 0.90595, 0.228646, 0.715547, -0.787286, -0.679076, 0.875461, -0.489571, 0.303275, -0.41143, -0.724263, 0.702837, 0.989451, -0.0209986, -0.332055, -0.0836835, 0.202099, -0.829749, -0.842997, -0.789919, 0.380722, 0.313241, 0.940199, -0.786808, -0.769834, 0.689841, -0.53914, 0.161015, -0.883978, -0.455001, -0.0989641, 0.203217, -0.710655, -0.0294226, -0.90659, 0.971555, -0.770527, -0.372899, 0.953284, -0.0432528, -0.638969, -0.275389, -0.170999, -0.855667, -0.451363, -0.298492, -0.918153, -0.871199, -0.0481453, 0.584895, -0.519943, -0.227948, -0.453849, 0.530021, 0.86623, -0.182971, 0.866116, 0.819556, 0.514309, 0.226481, -0.769399, -0.0743806, 0.258427, 0.0334747, 0.322463, 0.648984, 0.234578, -0.574649, 0.327477, 0.101786, -0.74074, 0.809956, 0.518433, -0.373442, 0.718289, 0.842671, 0.145901, -0.635979, -0.198694, -0.551613, -0.839251, 0.481101, -0.356207, -0.984337, -0.505684, 0.60686, -0.631626, -0.928165, 0.265278, 0.45548, -0.810269, -0.121147, -0.847266, 0.782112, 0.258051, 0.928521, 0.763255, -0.0322399, 0.619125, 0.336925, -0.875465, 0.575149, 0.0895036, -0.720913, 0.987249, 0.0956459, -0.881006, 0.168414, 0.515515, -0.525556, 0.872945, -0.226584, -0.421296, 0.818054, 0.783929, 0.0506842, -0.46633, 0.271711, 0.271431, 0.324308, 0.165836, 0.749504, -0.404255, -0.291009, 0.306822, 0.169862, -0.403595, 0.631441, 0.277819, -0.925428, 0.65231, -0.869823, -0.340262, 0.840282, -0.309291, -0.993419, -0.526495, 0.3004, -0.667511, 0.625178, 0.832336, 0.393244, 0.891473, 0.72535, 0.765715, 0.0973037, 0.432798, 0.216677, 0.0326732, 0.315364, 0.638172, 0.0189368, -0.0109306, 0.343761, 0.249177, -0.206943, -0.0795435, -0.0926327, 0.836003, 0.716018, -0.620167, 0.685402, -0.52361, 0.446051, 0.176877, -0.0717588, -0.0853195, 0.115864, -0.64059, 0.665193, 0.079413, 0.745451, 0.477918, -0.986786, -0.17851, -0.544283, 0.883004, -0.46043, -0.5898, -0.504926, -0.447963, 0.354109, 0.694796, 0.0083423, 0.772897, 0.305869, -0.900228, -0.952168, -0.798316, 0.5374, -0.352806, 0.0699702, -0.136283, -0.607413, -0.981218, 0.191416, 0.532867, 0.266525, -0.949751, 0.639569, 0.156778, -0.809986, 0.832297, 0.106317, 0.599455, -0.913044, -0.464232, -0.787506, -0.0382511, -0.404704, 0.339804, 0.781894, 0.130008, 0.0999037, -0.221109, 0.346548, 0.570681, 0.520346, 0.443189, -0.46493, -0.0797444, 0.512587, 0.834888, -0.573447, -0.947642, 0.0233423, 0.515845, -0.209601, 0.198396, 0.176565, -0.42265, 0.495719, 0.354829, -0.0461372, 0.527428, 0.465247, -0.191976, -0.832312, -0.382171, 0.934476, 0.363945, -0.948968, -0.421747, 0.105314, 0.849473, -0.458425, -0.843163, -0.353391, 0.725876, 0.848584, 0.0828351, 0.734604, 0.729161, 0.846165, -0.69984, 0.228283, -0.368277, 0.899448, 0.508234, 0.956434, 0.38524, -0.533058, 0.255959, 0.0436016, 0.488212, -0.751125, -0.943351, 0.197214, -0.671072, -0.672914, -0.0284759, -0.968166, 0.691878, 0.0734685, 0.762264, 0.587218, 0.66432, -0.806603, 0.626998, -0.920922, -0.9202, 0.680775, 0.367436, -0.205045, 0.308984, -0.891001, -0.199677, 0.941409, 0.16671, -0.958679, 0.00117062, 0.508995, -0.0716249, -0.181388, -0.315456, -0.761938, 0.226159, -0.761496, 0.508587, -0.465256, 0.0130806, 0.352473, 0.676295, 0.386741, 0.835138, 0.624333, 0.809915, -0.286845, -0.885235, 0.888881, -0.719398, -0.906224, -0.13132, -0.740018, 0.407269, 0.873447, 0.961024, 0.583958, -0.074043, 0.667968, 0.586395, 0.89395, -0.676025, -0.810256, -0.467174, 0.516614, -0.221981, 0.138757, -0.162041, -0.346548, 0.589353, 0.94854, 0.00577341, -0.418492, 0.278945, 0.395562, -0.918844, 0.569549, 0.00794831, -0.526698, 0.851667, 0.790379, -0.416641, -0.730484, 0.0706328, -0.0684419, 0.484019, 0.856095, 0.419504, -0.961956, -0.624924, 0.313531, 0.205008, 0.302724, -0.864193, -0.380973, 0.332727, -0.647028, 0.455966, -0.80081, 0.846918, 0.956443, -0.532015, -0.945161, -0.294375, 0.623777, 0.612994, -0.552041, 0.519412, -0.876101, 0.443091, 0.0032212, 0.105523, 0.306613, 0.558685, 0.666688, -0.0888164, 0.836066, -0.593917, 0.00389139, 0.941088, -0.478648, 0.559705, 0.461489, -0.605098, 0.799798, -0.371637, 0.0243352, 0.936249, -0.768778, 0.120112, 0.0491494, 0.473292, 0.684869, -0.631286, 0.582107, -0.968791, -0.589624, -0.733476, 0.656634, 0.932615, -0.683884, 0.610079, -0.767153, -0.750533, -0.0347488, 0.266175, -0.60729, 0.57391, -0.801016, -0.944221, -0.394998, 0.0510021, 0.365593, -0.759239, -0.388689, -0.677806, 0.150823, -0.527915, 0.3294, 0.583251, 0.464617, -0.38455, 0.445874, 0.64358, 0.89271, 0.766126, 0.451747, 0.465796, 0.713284, -0.897115, 0.207904, -0.10229, 0.573445, 0.497591, -0.635608, -0.953533, -0.207459, -0.658636, -0.527508, -0.0503351, -0.0322265, 0.458578, 0.25398, 0.211975, 0.250436, -0.00377628, 0.196281, -0.17727, 0.198039, -0.0909001, 0.19357, -0.77014, 0.413698, -0.0719326, 0.728843, 0.681141, -0.841935, 0.20786, -0.404861, 0.431513, 0.933411, -0.274744, 0.545251, -0.213271, 0.67176, -0.585149, -0.653711, 0.177455, 0.431852, -0.0831468, 0.185881, -0.340209, -0.432457, -0.0241243, 0.367821, -0.40255, 0.208364, 0.37752, 0.261194, -0.623682, 0.427057, -0.219632, 0.014557, 0.377064, -0.738275, 0.0361711, 0.909821, 0.109369, -0.740923, 0.756067, 0.890406, 0.362341, -0.0876309, 0.834142, -0.0702461, 0.61158, -0.376208, -0.828122, 0.525081, 0.320416, 0.659134, 0.535158, 0.276465, 0.944646, -0.133711, 0.459765, -0.962174, 0.642138, 0.596923, -0.426788, 0.446837, 0.51539, -0.506808, -0.973162, -0.562164, -0.275865, -0.329811, 0.892483, 0.181453, 0.795136, -0.644072, -0.452651, 0.0624989, 0.183559, 0.872798, 0.193158, 0.794635, -0.378551, 0.18011, -0.623261, 0.511483, 0.61253, -0.611996, 0.406378, -0.241662, -0.6816, 0.157089, 0.609704, -0.389393, 0.521906, -0.0445619, -0.89741, -0.975454, -0.123057, 0.633797, 0.122105, -0.0671753, 0.672648, -0.190422, 0.423605, -0.597336, 0.263669, -0.527707, -0.720402, -0.508892, 0.821306, 0.852408, -0.140502, -0.707032, -0.549698, 0.527951, 0.597236, -0.286603, 0.33871, -0.258539, -0.597932, -0.987008, -0.904222, -0.961932, 0.996644, 0.800567, -0.047988, -0.984889, -0.0836531, -0.940897, -0.609895, -0.0745542, -0.990712, 0.345489, 0.504679, -0.165973, 0.202285, -0.0696654, -0.435783, -0.343098, -0.15803, 0.392771, 0.912657, 0.436739, -0.264195, -0.241616, -0.773159, 0.609644, -0.187129, 0.816428, 0.186404, 0.456639, 0.992647, -0.648656, -0.509332, 0.259261, 0.519124, -0.822409, -0.0322098, 0.352281, -0.441701, 0.736481, 0.419183, 0.02169, -0.0911216, 0.744668, -0.923785, -0.0502529, -0.657781, 0.959124, 0.301011, 0.0838721, 0.613856, -0.760609, 0.559477, 0.338839, 0.898833, 0.234876, 0.331121, -0.0195144, -0.875332, -0.127781, 0.235633, 0.327509, 0.797892, -0.377526, -0.0742596, 0.273916, 1.00027, -0.332841, -0.133212, 0.276851, 0.982348, -0.660706, 0.524218, -0.64211, 0.781217, -0.597122, -0.569918, -0.106636, -0.685035, 0.171872, -0.123147, -0.715461, 0.963829, 0.818503, -0.76904, 0.317756, 0.205013, -0.860665, 0.949537, -0.258831, 0.575776, 0.115649, 0.430683, -0.0730808, -0.405438, 0.0644834, -0.310395, -0.535543, 0.329377, -0.967262, 0.804834, -0.735188, 0.890839, 0.650252, -0.255657, 0.958175, 0.170196, -0.970099, -0.536428, 0.245637, 0.519533, -0.0706802, 0.462535, 0.670936, -0.205725, 0.897168, -0.879807, -0.774133, -0.854411, 0.469676, -0.984045, -0.761008, -0.456561, 0.389238, -0.46901, 0.527169, 0.459266, 0.925847, -0.980096, -0.891662, 0.247557, -0.121457, 0.393148, 0.182133, -0.661947, -0.760667, 0.92286, -0.7133, 0.31126, 0.908979, -0.346121, 0.142815, 0.287347, 0.736502, -0.288846, 0.441819, 0.149371, -0.852973, 0.632023, -0.753766, 0.331393, -0.705581, -0.660366, 0.948543, -0.778845, 0.612974, 0.797457, -0.325837, -0.62466, 0.213688, -0.590693, 0.178714, -0.0263045, -0.479407, 0.434942, 0.16484, -0.894882, 0.589342, 0.679104, 0.922513, 0.444779, -0.664454, 0.1747, 0.0472611, -0.973361, 0.68383, -0.810826, -0.742774, -0.965286, -0.241126, 0.641271, -0.410017, 0.2179, -0.462621, 0.615334, -0.0314527, -0.630043, 0.276966, -0.816881, -0.452083, -0.0330704, 0.888197, 0.21447, -0.634082, -0.764457, 0.251988, -0.860152, -0.107999, 0.263731, 0.844133, 0.246545, 0.966243, 0.669038, -0.857926, 0.4912, -0.489655, -0.294436, -0.603902, -0.315798, -0.453164, -0.936969, 0.24736, 0.979017, 0.438417, 0.0500605, -0.469259, 0.264701, 0.901543, 0.0724941, 0.204268, 0.0635416, -0.247353, 0.0528669, -0.817083, -0.3076, -0.427737, 0.306079, 0.769431, -0.855116, -0.163618, -0.0914444, -0.71254, 0.469429, 0.933171, 0.315592, -0.388778, -0.029312, 0.0167537, 0.106565, -0.507513, 0.565159, 0.590914, -0.41217, -0.398503, 0.692468, -0.48199, -0.910346, 0.40236, -0.959533, 0.00607475, 0.0500046, 0.525243, -0.816447, -0.219631, -0.622, -0.801172, -0.835847, -0.963399, -0.11642, -0.499955, -0.877313, -0.00795183, -0.234579, 0.643095, -0.679226, 0.693621, -0.784862, -0.20077, 0.5573, -0.607131, -0.541002, -0.48308, 0.781267, 0.621624, 0.878062, 0.645486, -0.800315, -0.59245, 0.326132, -0.213827, 0.598361, 0.403032, -0.865098, 0.747301, -0.779636, -0.446209, -0.630859, -0.58036, 0.0927501, -0.377602, -0.190212, 0.671294, -0.766189, -0.916116, -0.918367, 0.615322, -0.420948, -0.795052, 0.772422, 0.0497522, 0.211451, -0.489596, 0.306083, -0.429224, -0.139225, -0.360356, 0.609759, 0.607006, -0.98906, 0.0821461, -0.793494, 1.00101, 0.303027, 0.930191, 0.420531, -0.0355899, -0.988032, -0.555782, -0.908493, 0.620123, 0.29754, 0.880447, -0.405404, -0.741857, -0.094308, 0.990415, -0.783409, 0.98941, 0.713377, -0.0720903, -0.690393, 0.817253, -0.625987, -0.355215, -0.275314, 1.00811, 0.0215464, -0.0769043, -0.745856, -0.900648, 0.581828, 0.690504, -0.631933, 0.378194, -0.395695, 0.702067, -0.122337, -0.504075, 0.720623, 0.0626687, 0.310751, -0.972283, -0.885896, -0.0368807, -0.65487, -0.609818, 0.323277, -0.212555, -0.197686, -0.99001, 0.456877, -0.839234, -0.517705, -0.138272, -0.361461, 0.659077, -0.26427, 0.851428, -0.669411, -0.386061, -0.74116, 0.235806, -0.217141, -0.449158, -0.349098, -0.605006, 0.424571, -0.393273, 0.0566237, -0.623505, -0.117044, 0.313865, -0.50462, 0.332774, -0.522699, -0.824053, 0.55184, -0.530161, 0.420098, -0.197653, -0.787294, 0.653305, -0.610379, 0.676507, -0.158433, -0.401489, -0.960913, -0.928983, 0.223365, -0.696613, -0.697642, -0.352812, 0.83903, 0.186929, 0.702634, 0.0109967, -0.679731, 0.30911, -0.55626, -0.900214, -0.638474, 0.828441, -0.931547, 0.301993, -0.518625, 0.967325, 0.50794, -0.0352931, -0.269238, 0.835111, -0.495714, 0.211018, 0.0720903, -0.345722, -0.186848, -0.655824, 0.183124, -0.157395, -0.499472, -0.966795, -0.579677, -0.823399, -0.286098, -0.536339, 0.0384315, 0.420426, -0.455792, -0.0339506, 0.18568, -0.13186, 0.78594, -0.450868, 0.277867, 0.246913, -0.910153, -0.526398, -0.0181844, -0.973975, 0.765323, -0.959295, -0.457745, -0.242653, 0.611991, 0.447211, 0.392368, -0.651112, -0.365505, 0.851802, 0.471994, 0.605059, 0.165692, 0.721418, 0.56105, -0.485517, 0.205131, -0.18204, 0.885576, 0.254991, 0.605594, -0.254609, 0.413449, -0.496685, -0.371525, -0.145923, -0.289559, -0.144497, 0.173444, -0.568482, 0.739675, -0.0427522, -0.262505, 0.0191165, 0.686576, -0.900611, -0.995837, 0.638137, -0.419268, 0.941769, -0.805043, 0.109205, 0.938399, 0.530483, 0.370236, -0.325164, 0.906053, 0.349027, 0.388407, 0.145332, -0.724419, -0.251993, 0.46701, -0.824129, -1.03133, -0.148153, -0.861731, -0.00199413, -0.885268, 0.515209, 0.849677, -0.76917, 0.916011, 0.505059, 0.999184, -0.823988, -0.353793, -0.641859, -0.537783, -0.744832, 0.399239, 0.454242, -0.596053, -0.442942, 0.506856, 0.864315, -0.880233, 0.808578, 0.887447, 0.571187, -0.739338, -0.543062, 0.0731694, -0.177999, -0.279785, 0.647192, -0.495382, -0.306819, -0.208693, -0.623329, 0.436856, -0.762873, 0.846307, -0.903116, 0.178613, 0.957807, -0.391008, 0.505625, 0.851889, 0.139512, 0.083253, 0.306451, -0.185632, 0.566121, -0.40639, 0.891352, -0.0235491, 0.0484076, -0.0154469, -0.662387, -0.780042, 0.284691, 0.653788, 0.435675, 0.431709, -0.083725, -0.0894373, -0.70962, -0.323265, -0.459434, 0.242569, -0.0496307, -0.963027, 0.326795, 0.924832, 0.535389, -0.98792, 0.127085, 0.657333, 0.690138, -0.643396, 0.872409, -0.0237343, 0.0798454, -0.560863, -0.960611, 0.44027, -0.264262, 0.316901, 0.774578, -0.207286, -0.11537, 0.992567, 0.681914, 0.346019, -0.741425, 0.567139, -0.621185, -0.261661, -0.0875559, -0.80597, 0.487101, 0.679316, -0.808602, -0.314884, 0.970821, -0.193666, -0.331311, 0.0662807, -0.293924, 0.254245, 0.656449, -0.159866, 0.0410421, -0.441156, -0.320697, -0.0722879, -0.26472, 0.617872, -0.8715, 0.590248, 0.684319, -0.895081, 0.281439, -0.601325, -0.186812, -0.67338, -0.452511, -0.802804, -0.909747, 0.252548, -0.187563, 0.717595, -0.907364, -0.441832, 0.448937, 0.5254, 0.813626, -0.195698, -0.619403, 0.461493, 0.428255, 0.721991, 0.420862, 0.0990345, -0.193208, -0.991606, -0.738869, -0.576099, -0.310371, -0.100537, 0.130555, -0.976122, 0.439649, 0.984591, -0.744403, -0.099243, 0.419217, -0.873403, 0.983457, -0.583478, -0.748984, 0.556545, 0.700323, -0.130792, -0.303197, 0.324146, 0.52164, 0.465466, -0.291377, -0.329739, 0.497741, -0.935924, 0.122356, -0.644991, -0.968409, -0.706219, -0.177475, 0.106369, -0.859362, -0.57287, -0.848742, 0.924369, -0.744485, 0.233794, 0.859549, -0.206859, 0.256867, -0.403239, 0.565713, 0.0374715, -0.676735, 0.295562, 0.920925, 0.206708, -0.613936, -0.794101, 0.400068, -0.335239, 0.0940761, -0.491978, -0.543806, -0.392568, -0.664641, 0.685101, 0.291691, 0.872226, -0.960585, 0.295793, -0.262574, -0.872584, -0.108557, 0.392866, 0.375833, 0.622488, -0.797804, 0.532459, -0.651499, -0.0475766, 0.992856, 0.872549, -0.609613, 0.789454, -0.840448, 0.42218, -0.149902, 0.665704, -0.940788, -0.890451, 0.0610484, 0.759449, 0.571197, 0.559071, 0.639064, 0.892861, -0.936897, -0.362632, -0.796054, -0.794539, 0.724288, 0.576492, -0.198699, -0.180755, 0.926274, -0.161877, -0.0807265, 0.788427, 0.136665, 0.694797, 0.764792, -0.958527, -0.857915, 0.310966, -0.837187, -0.546627, 0.186034, 0.602484, -0.634087, -0.333855, 0.705252, -0.350313, -0.348108, 0.223362, 0.507533, 0.0278537, 0.667563, -0.096433, -0.323537, 0.207074, -0.938625, 0.84977, -0.239741, 0.942756, 0.756581, 0.405118, -0.305872, 0.233487, -0.227866, -0.743473, -0.297214, 0.0803097, 0.734394, 0.182162, -0.984691, 0.866565, 0.197793, 0.735914, 0.0617886, 0.608675, -0.769542, -0.0936547, 0.360681, 0.0285371, -0.340046, 0.336588, -0.490059, -0.877181, 0.687886, -0.714163, -0.0409008, -0.956866, -0.694139, -0.0128703, 0.206902, -0.886409, -0.632767, 0.146779, 0.957456, 0.60121, 0.887384, 0.347772, 0.0632136, -0.478007, 0.908641, -0.66548, 0.291977, 0.427635, 0.660664, -0.462885, -0.401192, -0.348236, 0.609042, -0.28152, 0.310866, 0.52353, 0.553833, 0.921402, 0.340577, 0.309217, -0.989199, 0.206583, 0.206363, -0.0510666, -0.543541, 0.683658, -0.376923, -0.494329, 0.57161, 0.704635, -0.635183, 0.0646318, -0.515553, -0.909029, -0.399845, -0.489232, 0.0811932, 0.39748, -0.946114, -0.884605, -0.673601, 0.238376, 0.130864, 0.878443, 0.628623, -0.366392, -0.287606, -0.495037, -0.559905, -0.849957, 0.760699, -0.0642879, -0.71777, -0.841001, -0.387791, -0.988922, 0.949019, 0.0473599, 0.625041, 0.327923, -0.501284, 0.687724, 0.707055, -0.176651, -0.615701, -0.640788, -0.634761, -0.998548, -0.698503, -0.931089, 0.374024, 0.644905, -0.513957, -0.372926, 0.874063, 0.787505, 0.443088, 0.506164, 0.785629, 0.456296, -0.0649097, -0.937465, -0.753526, -0.746861, 0.805475, 0.253398, -0.247913, -0.698255, 0.60988, -0.517044, -0.974318, 0.82198, 0.542503, 0.493786, -0.193453, -0.205737, -0.752293, 0.0538382, 0.038847, -0.731887, -0.957853, -0.308679, -0.97218, 0.808039, 0.62895, -0.111957, -0.73081, -0.689387, -0.0853545, 0.622803, -0.431203, 0.0522001, 0.353622, 0.649365, 0.489472, -0.0790069, -0.207005, 0.450681, -0.45131, 0.327879, 0.196787, 0.604877, -0.737704, 0.463304, -0.520983, 0.152356, -0.683999, 0.653458, -0.571317, -0.763794, 0.245669, 0.518022, 0.200126, -0.542551, -0.714882, -0.345785, 0.0263163, -0.43424, 0.288695, 0.582176, 0.429341, -0.103718, 0.256623, -0.599733, 0.119728, -0.0483723, 0.962806, -0.769725, -0.905038, -0.581386, 0.0827181, -0.784447, 0.391495, 0.615414, 0.321253, -0.314569, 0.327018, 0.423586, -0.779166, 0.487538, 0.131527, 0.832647, 0.146471, 0.396321, 0.336397, -0.628965, 0.0469111, -0.243737, -0.132507, 0.174347, 0.118866, -0.405461, 0.547875, 0.716726, -0.520962, 0.160873, -0.577712, -0.805538, -0.600238, -0.44637, -0.118641, 0.0239511, -0.250813, 0.993965, 0.900445, -0.885203, 0.200814, 0.0487324, 0.713204, 0.921523, 0.591933, -0.0375963, -0.928826, 0.539434, 0.968291, 0.530878, 0.978278, 0.14196, 0.800796, 0.369796, -0.764978, -0.381908, -0.22629, -0.838775, -0.587331, -0.335641, -0.184502, -0.512914, -0.417797, -0.753534, 0.0963456, 0.872394, 0.653766, 0.0830503, 0.152279, -0.175606, -0.855136, -0.105214, -0.875305, -0.0111231, -0.662034, 0.809733, 0.729345, -0.527162, -0.290803, 0.491185, 0.420772, -0.148568, 0.0329987, -0.791927, -0.567641, 0.778689, 0.13861, -0.442435, 0.714216, -0.782405, -0.135039, 0.749315, -0.46863, -0.413744, -0.721835, -0.363098, -0.643288, -0.553694, -0.273347, -0.840898, 0.60616, -0.00229546, -0.850582, -0.277469, 0.745613, 0.487804, 0.879171, -0.344833, 0.79298, 0.28468, 0.628659, -0.478965, 0.314232, 0.776326, 0.873249, 0.477115, -0.462788, -0.0939685, -0.77688, -0.66414, 0.693127, -0.0503438, 0.380731, -0.164058, 0.230378, -0.258939, -0.817024, -0.347916, -0.616912, 0.107811, 0.60964, -0.12554, 0.313717, -0.736249, -0.25397, 0.0582143, -0.569823, 0.501952, -0.779054, 0.255024, 0.167506, -0.751396, 0.248283, -0.5173, -0.412757, 0.328534, -0.189582, 0.0128462, 0.947604, -0.595202, 0.718458, 0.748152, 0.39564, -0.783139, -0.0708278, -0.355905, 0.0500479, -0.437245, 0.964927, -0.200441, 0.120678, -0.979944, 0.501826, 0.370367, 0.751807, 0.730153, -0.228763, 0.828183, 0.353443, 0.815913, -0.407559, -0.458277, -0.0797255, 0.550502, -0.198347, 0.0491396, -0.307446, 0.673767, -0.630021, -0.412245, 0.237341, -0.512698, -0.447438, -0.604924, 0.898529, -0.0248786, 0.0958378, 0.512604, 0.580756, -0.234085, -0.596097, 0.382655, -0.097822, -0.457732, -0.891984, 0.471025, -0.789759, -0.0289868, -0.661843, -0.464359, 0.484223, 0.907049, -0.00704061, -0.856477, -0.763497, -0.275024, -0.0534319, -0.869192, 0.748974, 0.722556, -0.385898, -0.394003, 0.799026, -0.605016, 0.130029, -0.497614, -0.0114624, 0.57525, -0.0776626, 0.107071, 0.283209, -0.826454, -0.987411, -0.532272, -0.737057, -0.589835, -0.694604, -0.179776, 0.331611, 0.234921, 0.850815, -0.693635, -0.670365, -0.698753, 0.661927, 0.307961, -0.470336, -0.0730304, 0.0223738, 0.416132, -0.335969, -0.610191, -0.484514, 0.016542, -0.389067, -0.271671, 0.983457, -0.979032, -0.300374, 0.00298647, -0.966438, 0.874556, -0.643238, 0.538403, 0.692747, -0.770479, -0.745981, -0.896544, 0.576551, -0.845306, -0.126544, 0.547796, -0.697193, 0.604022, 0.323266, 0.424901, -0.561455, 0.164249, 0.0578242, -0.304983, -0.476766, -0.765037, 0.681028, -0.417639, 0.503348, 0.427394, -0.692132, -0.562402, -0.89693, -0.00447834, -0.456953, 0.127146, 0.160598, -0.501497, -0.871929, 0.459735, -0.401896, 0.887734, -0.988573, 0.169082, -0.400659, -0.249906, 0.927718, -0.28101, -0.692451, 0.0174297, -0.0406803, 0.265042, -0.331475, 0.161432, 0.121197, -0.797527, 0.187682, 0.0732154, 0.823707, 0.590708, -0.433693, 0.41356, 0.980079, 0.710507, -0.513907, -0.0534806, -0.4566, 0.847759, 0.599618, -0.502752, 0.742768, -0.344773, -0.148812, 0.965001, 0.82628, 0.601026, -0.127721, 0.662052, -0.844206, 0.699423, 0.861428, 0.809458, 0.484987, -0.962929, 0.12273, -0.187694, -0.70008, 0.976374, 0.476949, 0.939274, 0.530159, 0.484505, 0.486075, -0.164053, 0.515902, 0.585893, -0.769157, -0.281828, 0.515027, -0.469665, 0.443202, 0.357255, 0.387194, 0.457137, 0.165077, -0.0439956, 0.96976, -0.719188, -0.500939, 0.617932, -0.83183, -0.301973, 0.528304, -0.03552, -0.949167, 0.877288, 0.578511, 0.484435, -0.547466, 0.648514, -0.316666, -0.387434, -0.231715, 0.749573, -0.925597, -0.934104, -0.769943, 0.948467, -0.0948689, 0.0318387, -0.950836, 0.464067, 0.625858, -0.217017, -0.177157, -0.309485, 0.250779, 0.246769, -0.18801, 0.81858, -0.238245, 0.247094, -0.908827, 0.17376, 0.851024, -0.402288, 0.919675, -0.547605, -0.214372, -0.894922, -0.867441, 0.605395, 0.931676, 0.584881, -0.0646297, -0.895083, 0.200107, 0.279405, -0.383431, 0.442402, 0.01635, 0.944682, 0.817927, 0.639449, -0.639912, 0.288471, -0.912828, 0.495445, -1.00053, 0.873954, -0.58798, -0.0191944, -0.716424, -0.723708, 0.0786787, 0.738766, -0.715111, -0.263622, 0.386517, 0.648853, 0.969038, -0.088553, 0.603361, 0.520522, -0.40789, 0.864737, 0.653366, -0.99162, 0.685369, -0.618306, 0.846416, 0.911429, 0.966492, 0.116712, -0.652842, -0.0187927, -0.692713, 0.3072, 0.06193, -0.303295, 0.728932, 0.923367, -0.0211549, -0.332233, -0.174819, -0.24235, -0.275644, 0.701575, 0.675748, 0.280996, -0.896467, -0.287729, 0.387609, 0.812876, 0.249126, 0.84726, 0.483298, -0.455977, 0.577443, -0.598066, 0.14252, 0.728809, 0.834126, -0.643876, -0.511711, 0.0491053, -0.108398, 0.136322, -0.996597, -0.981126, 0.515305, 0.872351, -0.241601, 0.431128, -0.171759, 0.876207, -0.473499, -0.298968, 0.352422, -0.202858, -0.211713, 0.722485, -0.958822, 0.400396, -0.431031, -0.720908, -0.818606, -0.998291, 0.790114, -0.380217, -0.876783, 0.411196, 0.246394, -0.705139, 0.956267, -0.873454, -0.161776, -0.343975, -0.180499, -0.827849, -0.393012, -0.00925741, 0.653115, 0.412105, 0.514025, 0.133705, -0.431627, 0.959268, 0.967348, -0.458013, 0.467844, -0.301629, 0.569081, -0.882602, -0.782726, 0.45745, -0.402636, 0.241911, 0.888272, 0.0390952, -0.0571623, -0.657919, 0.361065, 0.732794, 0.936497, 0.7693, 0.075037, -0.59315, -0.665178, 0.322902, -0.0866924, -0.230565, -0.0174464, 0.702839, -0.728014, -0.0626361, -0.955184, 0.325456, -0.439837, 0.10993, -0.196682, -0.243166, -0.90422, -0.254185, 0.900099, -0.540383, 0.793724, -0.291533, -0.178252, 0.843035, 0.958487, 0.458018, 0.407575, -0.18249, 0.119913, 0.493694, -0.415973, -0.566313, -0.479, -0.259965, -0.135349, 0.108455, -0.938185, 0.536292, 0.627372, 0.384434, 0.0324111, 0.890093, 0.57871, -0.299712, -0.905379, -0.830048, -0.118127, 0.291694, -0.329474, -0.760072, -0.534887, -0.866714, 0.566547, 0.0955265, -0.847337, -0.762038, -0.219129, -0.837841, -0.355204, 0.151269, 0.564339, 0.80189, 0.91705, 0.924462, -0.0778265, 0.732847, 0.0982919, 0.765082, 0.327396, 0.174269, 0.0635523, 0.459418, 0.92962, 0.0634855, 0.403438, -0.0554414, 0.77636, -0.78625, 0.699401, 0.0668908, 0.23219, -0.569651, -0.787318, -0.82138, -0.14772, 0.49696, 0.257708, 0.752775, -0.208361, 0.978956, 0.593078, 0.372516, 0.169326, -0.134152, 0.688676, -0.495679, 0.359104, 0.139484, -0.0312821, -0.649603, -0.401955, 0.914362, -0.228118, 0.95798, 0.969652, -0.92202, -0.543345, 0.630999, -0.803802, -0.294556, -0.348108, -0.356953, 0.63272, -0.138447, 0.0247716, -0.0350434, -0.545866, 0.0206011, -0.186742, 0.658395, -0.892112, -0.0964245, 0.622556, -0.596152, -0.117291, 0.32094, 0.518461, 0.816874, 0.617856, 0.242509, -0.185769, -0.470257, 0.339074, -0.421305, -0.676658, 0.793395, 0.488112, -0.758798, -0.226539, -0.0631782, 0.23397, -0.804903, -0.192247, 0.274418, 0.950171, 0.345957, 0.479938, 1.01091, -0.669123, 0.284621, 0.892729, 0.403722, -0.22396, -0.906997, 0.693542, -0.224106, -0.49064, 0.983652, 0.50514, -0.518385, -0.0869427, 0.349483, 0.534412, -0.142536, -0.363058, -0.922942, -0.161027, -0.848715, -0.842576, 0.440874, -0.845031, 0.869979, 0.970447, -0.771267, -0.76377, 0.62409, 0.201801, -0.95394, 0.771617, -0.918602, -0.272912, -0.240002, -0.857656, 0.411922, 0.620709, 0.525912, 0.354148, -0.646922, 0.405545, -0.427335, -0.542642, -0.657812, 0.948769, 0.0519896, 0.49301, 0.344227, -0.187802, -0.194058, 0.752765, 0.422987, -0.712469, 0.255104, -0.705407, -0.402416, 0.685708, 0.824937, 0.219524, 0.0491676, -0.269304, 0.157037, 0.346474, -0.180344, -1.00353, 0.189722, -0.865293, 0.634587, 0.199022, 0.289322, 0.425099, -0.577909, -0.600015, 0.810827, 0.883529, 0.126592, 0.274832, -0.290112, 0.98757, -0.140264, -0.644231, 0.889696, -0.533254, -0.592008, 0.602474, 0.38108, 0.696174, 0.11904, -0.596534, -0.929043, -0.619274, -0.534368, -0.209217, -0.587701, 0.517114, -0.35821, -0.0519598, -0.376243, 0.107789, -0.720353, -0.139523, 0.644098, -0.75206, -0.89327, 0.352749, 0.243393, 0.603443, 0.112235, -0.351667, -0.238395, -0.358206, -0.824504, 0.886227, -0.678367, -0.909069, 0.440357, -0.512803, -0.915582, -1.00023, 0.222528, 0.278284, -0.780859, 0.270053, -0.0595544, 0.434662, 0.932348, 0.3334, -0.803438, -0.62569, 0.760342, -0.884929, 0.342403, -0.422174, 0.920152, 0.799797, -0.318086, -0.239969, -0.931659, 0.236409, -0.276785, -0.39143, -0.968933, -0.1548, -0.870763, 0.437386, 0.508081, 0.592558, 0.851909, 0.781778, 0.129344, 0.095195, 0.828014, -0.893768, -0.499103, 0.501946, 0.222277, -0.652395, -0.366018, 0.247198, -0.797404, 0.341869, -0.318462, -0.763844, 0.573664, 0.132651, 0.338215, 0.62553, -0.0704923, -0.782771, 0.240223, 0.365444, 0.153911, -0.170631, 0.470707, 0.381431, -0.676128, 0.318558, -0.824908, -0.876668, -0.62902, -0.586859, -0.168511, 0.711224, -0.563212, -0.657419, 0.950197, 0.502244, -0.803876, 0.424136, 0.446094, 0.999877, -0.117403, -0.45395, 0.330723, 0.160834, -0.0182828, -0.810911, -0.779206, -0.27321, 0.276376, 0.314864, -0.836477, -0.445844, 0.76167, -0.496128, 0.0857733, 0.0352165, 0.357271, 0.523494, 0.472256, 0.837345, 0.787456, 0.118373, 0.0359159, 0.683211, 0.875562, -0.304632, 0.882683, -0.977427, -0.812249, 0.365756, 0.52816, -0.672366, 0.641274, 0.968914, -0.0668555, 0.98064, -0.77509, -0.735975, -0.875578, 0.844211, 0.567806, -0.62512, -0.0967518, -0.3817, -0.33698, -0.245386, 0.183363, -0.0532508, 0.751743, -0.222735, 1.00038, 0.0370727, 0.835028, -0.789844, -0.540273, 0.537486, -0.624409, -0.577432, 0.601843, -0.328974, 0.282562, -0.347175, -0.778784, -0.892148, -0.271903, -0.731742, -0.0455315, 0.35983, -0.616435, 0.899064, 0.550219, -0.883376, -0.16669, -0.434671, 0.604741, 0.141705, -0.888823, -0.302182, 0.210884, 0.0833928, 0.921955, 0.438032, 0.706304, 0.864453, -0.805059, 0.49693, -0.38794, -0.339975, -0.0625231, 0.858723, -0.777885, -0.108026, -0.628779, -0.689988, -0.00857406, 0.917321, -0.117976, 0.536, 0.177114, -0.899061, 0.0814838, -0.978262, 0.421391, 0.808919, -0.816764, -0.732533, -0.196942, -0.905238, -0.442926, 0.95268, -0.819328, -0.225104, -0.210099, -0.167275, 0.787423, -0.721496, 0.370473, -0.895147, 0.404307, 0.652846, 0.825912, 0.463028, 0.15827, 0.339144, 0.845436, 0.700632, -0.73596, -0.588521, -0.725959, -0.316041, -0.247403, -0.0314097, -0.761486, -0.809498, 0.372839, 0.930472, -0.0970168, 0.00755524, -0.447915, -0.871687, 0.879686, -0.272548, -0.715584, -0.976237, -0.5593, 0.460167, -0.752051, -0.983316, 0.861504, -0.891928, -0.988173, 0.533622, -0.0650292, -0.689821, -0.215507, -0.694632, 0.395382, 0.205666, -0.211942, -0.194218, 0.918558, -0.854217, 0.836367, 0.829839, -0.783148, 0.576832, -0.848001, 0.369109, -0.452488, -0.786756, 0.184627, 0.497935, -0.857291, -0.40159, -0.608675, -0.295706, 0.0321459, -0.254515, -0.305085, -0.769458, -0.374809, 0.176039, 0.252532, 0.407329, 0.70949, 0.733995, -0.655379, -0.211793, -0.14065, 0.671137, -0.00294677, -0.148964, 0.0480652, 0.485993, 0.262245, 0.519751, 0.910248, 0.628716, -0.11271, -0.842631, 0.43707, 0.581426, -0.0464484, -0.73744, -0.631152, -0.188362, 0.58691, -0.391329, 0.379302, -0.206626, -0.102474, 0.154371, -0.498268, 0.463626, -0.709034, -0.868616, -0.061662, -0.497471, -0.788086, -0.777542, -0.719566, -0.578195, -0.984411, 0.729639, 0.897496, -0.0475, -0.660987, -0.301471, 0.717893, 0.687284, 0.79616, -0.810409, 0.40669, 0.387581, 0.121624, -0.193073, -0.847849, -0.0907102, 0.980194, -0.132726, 0.739952, -0.554157, -0.636626, -0.495882, -0.456994, 0.669654, -0.827412, 0.0505835, 0.292432, 0.160298, 0.271916, -0.540739, -0.841673, -0.941934, 0.367094, 0.269141, 0.0838741, -0.482638, -0.962658, -0.950851, -0.27549, -0.563342, -0.7412, -0.769918, 0.175292, 0.318697, 0.738167, -0.489092, -0.413709, -0.840283, -0.46183, 0.987707, 0.651929, -0.558781, 0.261971, -0.843462, 0.568394, 0.603173, 0.338242, 0.665493, -0.703988, 0.609091, 0.223615, 0.53066, -0.862137, -0.426351, -0.941796, 0.0109429, 0.523885, -0.984236, 0.774574, 0.113843, -0.613524, -0.0736542, 0.308276, -0.385455, 0.891654, 0.110169, -0.0469033, -0.753431, 0.891031, -0.509311, 0.508709, 0.772824, -0.583276, -0.655257, -0.971692, 0.682093, 0.941774, -0.27501, -0.563347, -0.019999, 0.0445006, -0.683992, -0.195622, 0.614795, -0.178229, 0.882282, -0.308733, 0.868928, -0.0985784, 0.0555904, -0.2962, -0.223393, -0.74492, 0.391221, 0.523318, -0.753179, -0.345708, -0.0850619, 0.874219, -0.606656, -0.813692, 0.704894, -0.233971, -0.193997, 0.765674, 0.476297, -0.213908, -0.505839, -0.463464, 0.767739, 0.247285, 0.909259, -0.206776, 0.794805, -0.334289, -0.912872, -0.746955, -0.00593466, -0.77672, -0.493927, 0.299199, 0.218067, 0.959754, -0.784407, 0.224845, -0.740145, 0.438662, 0.451782, 0.294072, -0.884715, 0.207745, 0.202656, 0.202886, 0.0115915, 0.629782, 0.0538473, -0.130175, -0.891679, 0.751205, -0.191785, -0.941442, -0.82242, 0.400211, -0.477754, -0.972719, 0.99146, 0.362301, -0.330132, 0.897296, 0.647901, -0.718056, 0.160271, 0.352958, 0.901843, -0.169418, 0.0147051, -0.580021, -0.696565, -0.697784, -0.376979, -0.944018, 0.014944, -0.37872, -0.744843, 0.0807262, 0.598685, -0.728963, 0.894108, 0.636792, -0.417057, -0.361221, 0.771575, -0.518011, 0.828939, -0.676717, 0.601245, 0.200743, -0.123647, 0.526842, -0.961965, -0.670671, -0.0309095, -0.872288, 0.165089, -0.0635702, -0.892687, -0.833919, -0.512731, -0.575598, 0.687461, -0.345734, -0.704112, 0.295471, 0.744791, -0.544469, -0.641915, 0.799089, -0.703133, 0.767124, -0.336703, -0.0232036, 0.00276027, 0.1893, 0.74549, 0.830105, -0.600167, 0.634309, 0.67714, -0.825367, 0.455196, -0.609855, 0.726974, 0.173528, -0.0869716, -0.718447, 0.348457, 0.852535, 0.257614, 0.246589, -0.681863, -0.0465556, -0.0104616, 0.0883756, 0.613432, 0.61308, -0.569763, -0.156573, -0.409201, 0.471724, -0.804782, -0.354439, 0.376986, -0.773031, -0.236475, -0.702291, -0.351995, -0.618943, 0.808493, 0.675394, -0.340838, -0.46253, 0.150175, 0.562104, -0.676787, -0.0574576, -0.240075, 0.238814, -0.869346, -0.320739, -0.446282, -0.363097, 0.227007, 0.519993, -0.922639, 0.704168, -0.383069, 0.935575, -0.833557, 0.385576, -0.929441, -0.509508, 1.01867, 0.489424, 0.343383, 0.0894146, 0.603282, -0.255709, -0.47885, 0.823262, 0.868099, -0.704637, -0.466498, -0.559666, 0.284086, 0.36331, -0.26336, -0.447869, -0.542564, -0.518447, -0.397159, -0.818286, 0.0616549, -0.935451, -0.981239, 0.613249, -0.282135, -0.150301, -0.535984, 0.677525, 0.474087, -0.756454, 0.588728, 0.258584, 0.413311, 0.387575, -0.490643, -0.359774, -0.601804, -0.353298, 0.201422, -0.169671, 0.510365, -0.649038, -0.552832, -0.169816, 0.172119, 0.136421, 0.564754, -0.55819, -0.401257, 0.800774, 0.521626, 0.490733, 0.86661, 0.89032, 0.665018, 0.237532, -0.382774, 0.00236125, 0.539134, 0.838375, 0.228804, -0.801612, 0.573055, -0.255407, 0.843569, 0.221366, 0.337131, -0.919309, 0.892674, 0.665713, -0.156655, -0.241056, -0.479928, 0.921957, -0.0210458, -0.381265, -0.881599, 0.203119, -0.0158425, 0.557955, 0.359327, 0.139658, -0.774921, 0.0531343, -0.0858255, 0.313561, -0.287561, -0.81024, -0.472659, 0.917033, 0.914205, 0.0987964, 0.352739, 0.00959104, -0.139849, -0.457419, 0.797247, 0.551424, 0.506137, 0.459455, 0.136334, -0.268888, 0.763405, 0.769952, -0.264782, 0.187712, 0.0129788, -0.286129, 0.185465, -0.0341903, 0.228207, 0.00623307, -0.872974, -0.127942, -0.561502, -0.255896, 0.933863, 0.668732, -0.170025, -0.266085, 0.170366, 0.321651, 0.422324, 0.682563, -0.820314, -0.0726884, -0.938354, 0.634074, -0.66141, 0.928206, -0.404897, 0.52315, 0.611955, -0.449682, -0.852194, 0.835773, 0.248732, -0.993863, 0.530461, -0.734219, -0.765153, 0.267582, 0.156604, -0.20558, 0.0311686, 0.352137, 0.296178, -0.141801, 0.870968, -0.321199, 0.760407, 0.0239854, -0.701189, -0.570808, 0.149639, -0.140418, -0.307628, 0.545203, -0.536007, -0.868585, -0.306593, -0.834006, 0.227323, -0.832806, 0.414993, 0.725935, 0.10161, -0.808247, -0.520825, -0.296807, -0.640502, 0.555719, 0.870814, -0.0349983, -0.701412, -0.881061, 0.356322, -0.453389, -0.042217, -0.174317, -0.25615, 0.752365, 0.44795, -1.00376, -0.877439, -0.117812, 0.617393, 0.369636, 0.480755, 0.49834, -0.248286, -0.998209, 0.890007, -0.001686, 0.443584, 0.122998, 0.276443, -0.857189, -0.470103, -0.244625, -0.162422, -0.89171, 0.834276, 0.344353, 0.904955, 0.0365195, -0.378199, 0.0874904, -0.691389, -0.139562, 0.643898, 0.374543, 0.303568, 0.593785, 0.191362, -0.571021, 0.387395, 0.644054, 0.753198, -0.860675, 0.903474, 0.873035, 0.810803, -0.732042, -0.0735176, -0.33047, 0.900679, -0.609799, 0.943691, -0.11692, -0.423821, -0.0925041, -0.362795, -0.654563, 0.359698, -0.645332, -0.888922, 0.122235, -0.102145, 1.0021, -0.379922, -0.432483, -0.127411, 0.47122, 0.816638, -0.846139, 0.102259, 0.490532, -0.451914, -0.105617, 0.384487, -0.784524, 0.63331, 0.255702, -0.669954, 0.346026, -0.954055, 0.748831, 0.729114, 0.189823, 0.667681, -0.159985, 0.779497, 0.218214, 0.540149, -0.234623, 0.924752, 0.596803, 0.383021, -0.309503, 0.60693, -0.88839, -0.945461, -0.432152, -0.955131, 0.65756, -0.22462, -0.937519, 0.133364, -0.661016, -0.00872041, 0.86886, 0.202384, 0.382605, 0.827824, -0.553951, -0.832953, -0.57288, 0.0374722, 0.693982, -0.583847, 0.716973, 0.858881, -0.136212, -0.142269, -0.491351, -0.993739, -0.253453, 0.928133, 0.713783, -0.601352, 0.307571, -0.727918, 0.217108, -0.454404, 0.108349, -0.22739, -0.41916, -0.205762, 0.691732, 0.943716, 0.824215, 0.370388, -0.589122, -0.386702, -0.66002, -0.431043, -0.569336, 0.20558, 0.115441, 0.709157, -0.593667, -0.106056, -0.643613, -0.254953, 0.922177, -0.102768, 0.789787, -0.463805, -0.955871, -0.745763, 0.749925, 0.55143, 0.346155, -0.454234, 0.0869729, 0.951292, 0.110301, -0.884215, 0.651552, 0.953538, 0.0289501, -0.551744, -0.283835, 0.110825, -0.648334, -0.251722, 0.628753, -0.249353, -0.863062, 0.799616, -0.982343, -0.80347, -0.179397, -0.958371, -0.492542, -0.637902, 0.792849, -0.265264, 0.171, 0.0962768, -0.596526, 0.0451013, 0.602305, -0.109202, -0.916387, 0.323338, -0.293775, 0.14184, -0.0242611, -0.50174, -0.124105, -0.523572, 0.448085, 0.660274, 0.343779, -0.899911, 0.875905, 0.434677, -0.971435, -0.619367, -0.801509, 0.485264, -0.646104, 0.138736, 0.559692, -0.98143, 0.543337, -0.583668, 0.554714, -0.456273, -0.499159, 0.130913, 0.546265, 0.167268, -0.207847, 0.250585, 0.673042, 0.214933, 0.913131, 0.802845, 0.734746, -0.48238, 0.290682, -0.0264319, -0.936438, -0.106454, 0.915182, -0.386409, -0.0466105, 0.934484, -0.249951, 0.653894, -0.981717, 0.627766, 0.859378, -0.682837, -0.924085, 0.295654, 0.92351, 0.990851, 0.794339, 0.168915, -0.0967808, 0.679481, 0.741909, 0.119026, -0.0398167, 0.676432, -0.532847, -0.695911, 0.403908, -0.61747, 0.297774, 0.320313, 0.540725, 0.821364, 0.905865, -0.633781, 0.177086, 0.451465, 0.0929467, -0.448917, -0.721775, 0.897461, 0.971189, 0.776184, -0.429463, -0.678342, 0.964016, -0.907657, -0.752332, 0.113459, 0.196753, 0.733304, 0.950882, 0.0820285, 0.841748, 0.249108, 0.470601, 0.222114, 0.644178, -0.985885, 0.301126, 0.899871, 0.274711, 0.0682395, -0.824575, -0.919266, 0.339078, -0.88314, -0.716476, -0.929178, 0.461512, 0.140825, -0.828027, 0.878147, -0.675083, 0.965053, 0.552494, 0.815613, -0.936702, -1.00141, 0.691104, -0.740922, 0.328133, -0.859291, 0.501094, -0.691435, -0.315648, -1.00157, 0.821668, 0.899394, -0.902553, 0.670967, -0.75873, 0.903794, 0.877757, 0.597449, 0.631982, -0.725491, 0.179608, 0.040727, -0.781676, 0.568359, 0.131416, -0.807576, 0.95157, 0.524772, 0.879335, 0.24998, 0.128204, 0.932628, 0.978247, -0.715166, 0.459903, -0.0514937, 0.0306878, -0.884727, 0.672592, 0.553882, -0.147013, 0.0460855, 0.531989, -0.262551, 0.754493, 0.493772, 0.1786, -0.82982, -0.863335, 0.113959, -0.599199, 0.68465, 0.792719, 0.472075, -0.649981, -0.107219, -0.320931, 0.760093, -0.935076, -0.246132, -0.0857611, -0.198251, 0.7763, 0.522449, 0.187234, -0.0469571, 0.300561, -0.315509, -0.759226, 0.304483, -0.0595396, 0.78268, 0.195852, 0.865766, -0.737913, -0.965286, -0.116306, 0.352682, 0.761644, -0.765071, 0.936193, 0.891051, 0.152079, 0.801816, -0.429851, -0.366139, -0.300634, -0.528258, -0.955214, -0.0429539, -0.959929, -0.613554, 0.619343, 0.852346, 0.404215, 0.757491, 0.474442, -0.829107, 0.689902, -0.830328, 0.269993, 0.0699533, 0.59457, -0.530505, 0.907451, -0.870222, 0.794613, -0.547411, -0.491249, 0.101724, -0.883259, 0.68107, -0.0260237, 0.338621, 0.841338, -0.0560555, 0.624418, 0.553989, 0.482046, 0.762758, -0.59284, 0.321516, -0.464128, -0.512117, 0.232514, -0.823845, 0.58844, -0.515568, 0.315659, 0.573752, 0.414497, 0.988432, -0.608947, 0.771032, -0.788454, -0.711753, -0.0277539, 0.246744, 0.686396, -0.394331, -0.264498, -0.173843, 0.8234, -0.615147, -0.303639, -0.161055, 0.722919, -0.103267, -0.32388, 0.946472, 0.269233, 0.231764, 0.561034, 0.361513, 0.439699, 0.259067, 0.492906, 0.79022, 0.986007, 0.111805, -0.898665, 0.527025, -0.924477, 0.421191, 0.410119, 0.968804, 0.31463, -0.101395, -0.26914, 0.1993, -0.06153, -0.92087, -0.712655, -0.959054, 0.869202, 0.340989, 0.821921, 0.365805, 0.772662, 0.690046, 0.563103, 0.0368148, 0.920053, 0.507015, -0.705672, 0.018724, 0.143115, 0.19146, -0.578124, 0.622184, -0.67387, -0.558529, 0.802602, 0.0906281, -0.457483, -0.493899, -0.863195, 0.471405, 0.872836, -0.467488, 0.0255089, 0.749346, -0.581149, 0.881295, 0.794579, 0.35628, -0.4649, 0.0118716, 0.289621, 0.114141, -0.590794, 0.675925, 0.297809, -0.816811, 0.783904, 0.500704, -0.829158, 0.668606, 0.218552, 0.544046, -0.988173, -0.866594, -0.232012, 0.554088, 0.366927, -0.950972, -0.193094, -0.59756, 0.957985, 0.387366, 0.668496, 0.364221, 0.441718, 0.96332, 0.977785, -0.619192, 0.943402, -0.753392, 0.322832, 0.740358, 0.0872011, 0.324606, 0.168316, -0.994596, 0.664201, -0.973254, -0.484542, 0.178058, -0.208529, -0.930734, -0.438116, 0.0824959, -0.706583, 0.211369, 0.393242, -0.850645, 0.830959, -0.982131, 0.086695, -0.0956982, 0.784982, 0.411226, -0.555405, 0.156583, 0.194389, -0.286263, -0.511154, 0.746584, 0.75391, 0.834124, -0.38147, 0.761653, -0.89574, 0.977952, -0.163784, 0.460843, 0.979929, 0.720754, -0.87183, 0.0334947, -0.216527, -0.375391, 0.00685422, 0.488878, -0.249353, 0.376877, 0.254693, 0.400741, 0.263794, 0.558432, -0.220261, 0.479029, -0.242719, 0.072674, -0.0335308, 0.705749, 0.192569, -0.721747, -0.567482, 0.991628, -0.952673, 0.911726, -0.785067, 0.882453, -0.946589, 0.140062, 0.91156, 0.68063, 0.692736, -0.650119, -0.56593, -0.444698, 0.861413, -0.482767, -0.193669, -0.509834, 0.720264, 0.124907, 0.846658, -0.581063, 0.212624, 0.278719, 0.222807, 0.701027, 0.226642, 0.906975, 0.111015, 0.0237699, 0.861681, 0.578863, -0.802231, 0.899996, -0.0327321, 0.217111, -0.880771, -0.998828, 0.818893, 0.607939, -0.151097, 0.528921, -0.0312482, 0.795533, -0.387204, -0.264394, -0.149994, -0.0307166, -0.226225, -0.385153, 0.212854, -0.813766, 0.588169, -0.247067, -0.404911, -0.317826, -0.728977, -0.531767, -0.676902, -0.706559, -0.366, -0.174394, -0.266534, 0.816623, 0.767702, 0.659103, -0.87555, -0.834671, -0.0666601, -0.802276, -0.906152, 0.309797, 0.630021, 0.231117, -0.731503, -0.682454, -0.370036, 0.82089, -0.795235, -0.709216, -0.924367, 0.372011, -0.0656307, -0.216205, 0.585829, -0.965569, 0.569771, 0.951959, -0.0801844, 0.665386, 0.933134, 0.0200237, 0.108938, -0.390842, 0.158364, -0.160273, 0.911259, 0.938157, 0.975358, 0.878643, 0.395275, 0.698029, 0.292064, -0.572406, 0.53495, 0.956664, -0.940628, -0.726832, 0.645561, -0.828571, -0.731524, 0.421089, 0.652965, 0.660138, 0.995293, 0.00881167, -0.654724, -0.514149, -0.0657874, -0.456849, 0.773247, -0.00823151, 0.282805, 0.515975, -0.049485, -0.213249, -0.755917, 0.184967, 0.135292, -0.24157, -0.533039, 0.187698, 0.587861, -0.451115, -0.663967, -0.298144, -0.711341, -0.828517, 0.0113336, -0.285837, 0.117458, 0.672622, 0.24212, 0.880269, 0.670248, 0.261025, -0.19815, 0.18719, -0.405159, 0.740933, 0.631421, 0.857086, -0.423134, 0.0742482, 0.199649, 0.564259, -0.0492624, -0.622183, 0.467422, 0.636658, -0.214304, 0.317198, -0.233842, 0.809236, 0.677934, -0.709959, -0.599111, 0.977819, 0.12464, 0.316292, -0.372596, 0.455123, -0.897375, -0.0155337, -0.789136, -0.870955, -0.2536, -0.459618, 0.126726, -0.364643, 0.777297, 0.557192, 0.328508, -0.365081, 0.505396, 0.446192, 0.0536348, -0.726831, -0.816323, -0.82166, 0.787099, -0.249497, 0.915126, -0.730266, -0.233539, 0.516905, 0.448073, 0.102884, -0.716906, -0.287, -0.0498932, 0.824013, -0.788047, 0.276597, 0.673259, 0.322839, -0.541395, 0.356102, -0.04029, -0.127501, -0.69037, -0.265982, -0.417642, 0.11315, -0.769152, -0.930018, -0.13983, -0.181946, -0.858294, -0.140364, 0.17327, -0.622663, -0.566435, 0.526999, -0.131724, -0.978782, -0.0438623, 0.758827, 0.365905, 0.174795, -0.262116, 0.738227, 0.0306263, 0.694918, -0.679284, 0.544459, -0.00327546, -0.373119, 0.953789, 0.313054, -0.479543, -0.702756, -0.966014, 0.231913, 0.397316, 0.446902, 0.799646, -0.544715, 0.443119, 0.612311, -0.672047, 0.48585, 0.589947, -0.883787, 0.439667, 0.218213, -0.3867, -0.555905, 0.0369926, -0.287738, 0.0606993, -0.94921, -0.0150275, 0.993894, -0.47227, -0.569506, -0.0124298, 0.132748, 0.428634, -0.448026, 0.361594, -0.476879, -0.176873, -0.63872, 0.238241, 0.392279, 0.456701, -0.186352, -0.27744, -0.410925, 0.458903, 0.428438, 0.298904, 0.666947, 0.678434, -0.740419, 0.358372, -0.629235, 0.192832, 0.966411, -0.818922, 0.918331, -0.399657, -0.923661, 0.680832, -0.094073, 0.652482, -0.750281, -0.103672, 0.0235129, -0.608266, -0.0127605, 0.110486, 0.527307, 0.94271, 0.0908875, 0.177786, -0.420054, -0.590567, 0.725749, -0.293464, -0.0735043, 0.499592, -0.565692, 0.859658, -0.195827, 0.398639, -0.375676, -0.236903, -0.72412, -0.571273, 0.10518, 0.386046, 0.470077, -0.582182, -0.511511, -0.258937, 0.0282469, 0.831001, 0.888925, 0.330801, 0.465511, 0.949845, 0.741091, -0.752396, -0.718282, 0.457819, -0.123646, -0.00073005, 0.345841, 0.141881, -0.72275, 0.361969, -0.907159, -0.757517, -0.710588, -0.715408, -0.828669, -0.936738, 0.983417, 0.378716, -0.399889, 0.499178, 0.510093, 0.50292, 0.779005, 0.0430037, 0.209746, -0.0351476, -0.893992, -0.34482, 0.164325, 0.337603, -0.929406, -0.831348, -0.878779, -0.349609, 0.120097, -0.620099, 0.99229, -0.957197, -0.64672, 0.162929, -0.44301, 0.903531, -0.826575, 0.45527, 0.896132, -0.138521, -0.806157, 0.0701976, -0.234295, 0.0165932, 0.743333, 0.341471, 0.64185, 0.172794, 0.46926, 0.71353, 0.894929, -0.583815, -0.685246, 0.684141, 0.565712, 0.506832, 0.582731, -0.537982, 0.891656, -0.624488, -0.322118, 0.0715948, 0.882502, 0.70413, 0.490057, 0.380828, -0.862916, 0.00150384, -0.479925, -0.235284, -0.922734, -0.353068, -0.239992, 0.296318, -0.221735, -0.486229, 0.912194, -0.992291, 0.520583, 0.472055, 0.35444, 0.851278, 0.714169, -0.0842864, -0.52485, 0.778969, -0.561726, 0.202268, 0.848094, 0.0136311, -0.019341, -0.400882, -0.912132, -0.629668, 0.43, -0.103075, -0.32534, -0.359094, -0.571767, -0.697818, -0.288395, -0.227831, 0.738136, -0.0874608, -0.950028, -0.43551, -0.0878218, 0.993639, -0.930399, -0.0026237, -0.297229, -1.00543, -0.648833, -0.0830266, -0.145876, -0.770913, 0.277111, -0.167341, 0.833449, 0.544143, -0.488829, -0.919884, 0.891324, 0.222711, 0.224589, -0.0371609, 0.678215, -0.336116, 0.561061, 0.0435559, 0.397967, 0.179752, -0.1688, -0.393583, -0.111629, -0.00529739, 0.493146, -0.0285876, -0.367361, 0.170153, -0.290327, 0.0116683, 0.45471, 0.63751, -0.923093, 0.351698, 0.310036, -0.924719, 0.793732, 0.674514, -0.104051, -0.300608, -0.243482, -0.24516, -0.781781, -0.00956443, -0.481888, 0.158099, -1.00069, -0.877138, -0.580867, -0.833955, -0.918342, -0.382721, 0.00745147, -0.983728, 0.207943, -0.598719, 0.0260222, 0.236509, 0.54621, -0.226286, -0.594935, 0.128989, 0.861641, 0.875487, -0.170777, -0.0662461, -0.0181535, -0.468816, -0.0089505, 0.73425, -0.421828, 0.241977, 0.246354, 0.131081, -0.137387, 0.740381, 0.890759, -0.309337, -0.8911, -0.518519, 0.244751, 0.741415, 0.221888, -0.805487, 0.65055, -0.261717, 0.535851, -0.955098, -0.17816, -0.206308, -0.510819, -0.687232, -0.846796, -0.51595, -0.473956, -0.235606, 0.26508, 0.506758, 0.970774, -0.696286, -0.84796, 0.733785, 0.343453, -0.866573, 0.739787, -0.24507, -0.280711, 0.743175, 0.00144796, -0.461989, 0.844763, 0.529565, 0.291286, 0.806137, -0.292309, 0.375694, -0.872269, -0.589198, -0.807279, -0.641383, -0.557588, 0.987641, -0.852744, 0.474161, -0.671779, -0.0260045, -0.801102, 0.450572, -0.288521, -1.00621, 0.904306, 0.440992, -0.650622, 0.762703, -0.0725173, 0.0295886, 0.0644478, 0.257981, 0.806025, 0.838864, -0.654996, 0.348118, 0.0845745, 0.515801, -0.904521, -0.467344, 0.359731, -0.704124, -0.353798, -0.12503, -0.693738, -0.369773, 0.596877, -0.377653, -0.270379, -0.0348619, 0.500769, -0.761962, 0.82215, -0.703425, -0.805575, 0.165358, -0.0272592, -0.513345, 0.906989, -0.529671, 0.881333, 0.900067, 0.56726, 0.0584408, 0.761578, 0.743398, 0.914595, -0.49192, 0.0430493, -0.761461, 0.974597, 0.358467, -0.792082, -0.350322, 0.400174, -0.297082, -0.592893, 0.440829, -0.57683, -0.603112, 0.719626, 0.129255, -0.824027, 0.775596, -0.566908, -0.0655495, -0.44117, -0.96698, 0.0992192, 0.233387, -0.196163, 0.968201, 0.143149, -0.254244, -0.914017, -0.209334, -0.394054, -0.70172, -0.432495, -0.310421, 0.187035, -0.0203236, -0.548005, 0.845407, 0.852198, -0.809421, -0.474131, 0.0135195, 0.328611, 0.406633, -0.505435, -0.477403, 0.198818, -0.225351, 0.39909, 0.867229, -0.804069, -0.135429, 0.527801, -0.604555, -0.41967, 0.181005, 0.442959, 0.885282, 0.056446, 0.531257, 0.963764, -0.122306, -0.940655, -0.653738, -0.231402, -0.8082, 0.349636, -0.580153, -0.085434, -0.491482, -0.353374, 0.373001, -0.54045, 0.770205, 0.789334, -0.42576, -0.948722, 0.983452, 0.530472, 0.449259, 0.453926, -0.573456, 0.440648, 0.55301, 0.154511, -0.422978, -0.154349, 0.983782, 0.700926, -0.950075, 0.532666, -0.75948, 0.831897, 0.729531, 0.423789, 0.0341719, -0.830747, 0.72491, -0.736319, 0.631031, 0.790629, 0.329826, -0.621543, -0.476085, -0.568882, 0.046768, -0.257184, 0.709632, 0.247287, 0.248488, 0.294752, 0.863001, 0.392725, 0.767252, -0.707869, 0.440217, 0.650257, 0.834855, -0.544232, -0.019451, 0.0731863, 0.948499, 0.689517, -0.768197, 0.945609, -0.332035, 0.0933272, -0.574009, -0.857691, 0.892775, 0.450368, -0.924269, 0.582733, -0.615884, -0.538064, -0.679975, 0.215553, 0.15537, 0.895978, 0.872963, -0.0835195, -0.636194, 0.551324, -0.485129, -0.362332, 0.396387, -0.0592252, -0.311396, 0.0991528, 0.724298, -0.838061, -0.761944, 0.0488627, -0.421604, 0.764198, -0.101821, 0.659774, -0.59878, -0.967031, 0.610526, 0.528507, 0.838205, 0.162323, 0.732783, 0.979004, -0.303088, 0.972485, -0.692806, 0.848187, 0.62207, -0.70786, -0.0736018, 0.321672, -0.339864, -0.140394, -0.454084, 0.565203, 0.673212, 0.362814, -0.417303, 0.262812, -0.788934, -0.946874, -0.249152, -0.174811, -0.317499, -0.295427, -0.47703, 0.946979, -0.587999, 0.121367, 0.989876, -0.155503, 0.980395, 0.59796, -0.211302, -0.447824, -0.696282, 0.969924, 0.820199, 0.596126, -0.694549, -0.70151, 0.19558, -0.593838, -0.447596, 0.370663, 0.612209, 0.944447, -0.766995, 0.244293, 0.380173, 0.325139, 0.0214246, -0.839153, -0.982077, 0.193086, 0.816928, 0.967341, -0.77966, -0.679954, 0.141603, -0.0335933, -0.936585, -0.272358, 0.332115, -0.262416, 0.914936, 0.0272737, 0.364358, -0.652397, -0.326731, -0.156158, 0.289411, 0.492131, -0.461068, 0.991004, 0.785468, -0.455459, -0.62612, -0.000201512, -0.484372, -0.0128995, -0.126036, 0.490269, 0.280695, 0.462476, 0.541599, 0.556172, 0.649321, -0.276876, 0.378357, -0.791346, 0.202301, -0.49809, 0.233813, -0.707393, -0.900188, 0.841269, 0.871777, -0.726508, 0.817142, 0.758302, 0.922815, -0.0968202, -0.00848904, -0.0787991, 0.057874, -0.201095, 0.444206, -0.315644, 0.146511, -0.940952, -0.155245, -0.344091, 0.261008, -0.891102, 0.238248, -0.0154832, -0.423373, 0.945857, -0.105405, -0.490647, 0.393917, 0.987904, -0.669805, -0.0382833, 0.371657, -0.977027, -0.211483, 0.976759, -0.502615, 0.0455627, -0.899228, 0.000199202, -0.674967, 0.362968, 0.840134, 0.869693, 0.576698, -0.164168, 0.720615, -0.123535, 0.902997, -0.827278, -0.886328, -0.533193, 0.268611, -0.561456, 0.470144, 0.579475, -0.475781, -0.947061, -0.686687, -0.236963, 0.524931, 0.930228, -0.320571, 0.97569, -0.25308, 0.566408, 0.32825, -0.600899, 0.586417, 0.609586, 0.486505, -0.415743, 0.297766, -0.774855, 0.00452804, 0.460963, -0.902341, 0.614562, -0.929982, 0.0269886, -0.861216, 0.420965, 0.889492, 0.945612, 0.109467, 0.142734, 0.0462386, 0.336645, 0.29326, 0.671775, -0.582386, -0.174156, 0.172041, -0.302456, -0.0400575, 0.493697, 0.469944, 0.10358, -0.495575, -0.771952, 0.42939, 0.548001, -0.346784, 0.464267, 0.0725871, 0.0950516, 0.0797145, -0.932408, 0.0326887, -0.463721, 0.555745, 0.461662, -0.560508, 0.316891, -0.712103, -0.752045, -0.591425, 0.187824, 0.169287, 0.650567, -0.897608, -0.905938, -0.621745, 0.944009, -0.945771, -0.340825, -0.822932, 0.988627, 0.887078, 0.168741, 0.46698, 0.0184269, 0.561343, 0.491515, -0.703096, -0.768016, 0.441134, -0.963917, 0.975505, -0.867995, 0.616308, 0.380803, 0.634247, -0.43332, -0.860621, -0.789531, -0.0434616, -0.089338, 0.37721, -0.501432, 0.840474, -0.0683909, -0.808448, -0.0457724, -0.542548, -0.0504993, 0.0239398, -0.451185, -0.936519, -0.924434, 0.989383, 0.978682, 0.112537, 0.783449, -0.19351, 0.56902, -0.311736, 0.0813093, -0.738263, 0.929566, -0.519378, -0.433875, -0.910226, -0.854904, 0.297309, -0.655004, -0.72679, 0.78787, -0.727143, -0.0868178, -0.271497, 0.0528093, -0.622865, -0.699538, 0.726435, 0.236211, 0.257241, -0.968277, 0.506158, 0.820431, 0.85133, -0.734234, 0.170389, -0.650136, -0.126227, 0.702463, 0.0506896, -0.891168, 0.489612, -0.103229, -0.45346, 0.0407083, -0.3296, 0.296036, -0.332259, 0.14788, -0.73152, -0.27176, 0.20191, 0.362694, 0.96049, -0.873817, -0.855828, -0.998665, 0.876667, -0.0249293, -0.250191, 0.166847, -0.917844, 0.984139, -0.134252, 0.397366, 0.717209, -0.325222, 0.652853, 0.565154, 0.434007, -0.963177, -0.872855, -0.984633, 0.72101, -0.00832902, -0.113265, 0.522532, 0.887721, 0.164912, 0.331929, 0.116055, 0.711862, -0.645248, 0.262773, -0.292904, -0.213519, -0.245944, 0.926394, 0.594613, -0.878862, 0.695638, 0.780718, 0.237586, 0.125007, -0.557, 0.952196, -0.23057, 0.872148, 0.707924, -0.703515, 0.201707, 0.0231513, -0.359196, 0.451289, 0.0854469, -0.372985, -0.145885, -0.206495, 0.622121, 0.601519, 0.930496, -0.184551, 0.00761757, -0.37743, -0.329019, 0.912113, -0.434478, -0.919365, 0.651085, -0.238485, 0.317308, -0.0749081, -0.729878, 0.249329
]},"hidden2":{"biases":[
-0.567943, -0.815643, -0.0319526, -0.656528, 0.579454, 0.164911, 0.711393, 0.965129, -0.270292, 0.997366, 1.02733, -0.913566, 0.480023, 0.304542, 0.176312, -0.569281, -0.913299, 0.0511898, 0.986321, -0.250189, -0.179663, 0.829302, 0.646379, -0.735806, 0.182001, 0.108077, 0.457736, -0.11773, -0.525273, 0.590677, 0.208996, 0.921837, 0.280844, 0.924314, 0.484245, 0.848451, -0.706906, 0.592467, 0.495681, 0.902484, -0.341523, 1.02113
],"weights":[
-0.373057, 0.494298, 0.56472, 0.654759, 0.184473, 0.967676, -0.842339, 0.173077, -0.608684, 0.357101, -0.756831, -0.276171, -0.486679, 0.637652, 0.957117, -0.497209, 0.126232, -0.463412, 0.852918, -0.247061, 0.698646, -0.910504, 0.903159, -0.0265559, -0.908242, 0.435204, -0.378717, -0.654945, 0.579562, -0.0517839, -0.0811, -0.146, 0.778097, -0.663433, -0.268398, -0.827229, 0.0810621, 0.467504, 0.500554, -0.141298, -0.0165743, 0.844601, -0.0222835, -0.236522, -0.52239, 0.793345, 0.977752, -0.671208, 0.0963097, 0.858188, 0.266415, -0.636283, -0.966892, 0.780262, 0.0611336, -0.646945, -0.634212, -0.318423, 0.478292, 0.801443, 0.119408, 0.312486, 0.357359, -0.674736, -0.462916, 0.189997, -0.0420756, -0.168146, -0.0879342, 0.879724, 0.51485, -0.791254, 0.989829, 0.901562, 0.600821, 0.975732, -0.274635, 0.954251, 0.340512, 0.0182062, -0.425513, 0.0305525, -0.144967, -0.265654, -0.0222835, -0.236522, -0.52239, 0.793345, 0.977752, -0.671208, 0.0963097, 0.858188, 0.266415, -0.636283, -0.966892, 0.780262, 0.0611336, -0.646945, -0.634212, -0.318423, 0.478292, 0.801443, 0.119408, 0.312486, 0.357359, -0.674736, -0.462916, 0.189997, -0.0420756, -0.168146, -0.0879342, 0.879724, 0.51485, -0.791254, 0.989829, 0.901562, 0.600821, 0.975732, -0.274635, 0.954251, 0.340512, 0.0182062, -0.425513, 0.0305525, -0.144967, -0.265654, 0.578337, -0.572631, -0.895867, 0.937221, 0.102406, -0.240475, -0.505474, 0.24382, 0.0617925, 0.133127, 0.351149, -0.276948, -0.703912, -0.350719, -0.642649, -0.224976, -0.038057, 0.144356, -0.260095, -0.400911, 0.0581544, -0.307324, -0.770833, -0.282794, -0.632084, -0.432348, 0.0253517, 0.156536, -0.106714, 0.432602, -0.189083, 0.445427, 0.320219, -0.927042, -0.275266, 0.667332, -0.378991, -0.714243, 0.753724, 0.538107, -0.334494, 0.090264, 0.578337, -0.572631, -0.895867, 0.937221, 0.102406, -0.240475, -0.505474, 0.24382, 0.0617925, 0.133127, 0.351149, -0.276948, -0.703912, -0.350719, -0.642649, -0.224976, -0.038057, 0.144356, -0.260095, -0.400911, 0.0581544, -0.307324, -0.770833, -0.282794, -0.632084, -0.432348, 0.0253517, 0.156536, -0.106714, 0.432602, -0.189083, 0.445427, 0.320219, -0.927042, -0.275266, 0.667332, -0.378991, -0.714243, 0.753724, 0.538107, -0.334494, 0.090264, -0.806757, 0.632001, -0.371577, 0.0337246, 0.0272194, 0.0771425, -0.408781, 0.428805, -0.992684, -0.245641, -0.952496, -0.975855, -0.84313, 0.525256, -0.588191, -0.843937, 0.943426, 0.221244, -0.655618, -0.0716929, 0.44486, 0.827736, 0.450429, 0.808494, -0.165199, -0.0704433, -0.109076, 0.189972, -0.590466, 0.476637, -0.773652, -0.680594, -0.299618, -0.438952, 0.342406, 0.611341, -0.21097, -0.995462, -0.910698, -0.563681, -0.102489, 0.996977, -0.806757, 0.632001, -0.371577, 0.0337246, 0.0272194, 0.0771425, -0.408781, 0.428805, -0.992684, -0.245641, -0.952496, -0.975855, -0.84313, 0.525256, -0.588191, -0.843937, 0.943426, 0.221244, -0.655618, -0.0716929, 0.44486, 0.827736, 0.450429, 0.808494, -0.165199, -0.0704433, -0.109076, 0.189972, -0.590466, 0.476637, -0.773652, -0.680594, -0.299618, -0.438952, 0.342406, 0.611341, -0.21097, -0.995462, -0.910698, -0.563681, -0.102489, 0.996977, 0.242941, 0.934746, 1.00217, 0.481613, 0.0136045, -0.834879, 0.0892618, 0.938764, 0.417318, 0.494946, 0.478432, -0.578696, -0.0708537, 0.510958, 0.38159, -0.75697, -0.648119, -0.0667832, 0.786017, 0.449688, -0.0742787, 0.454009, 0.783675, -0.18616, 0.148868, 0.41035, -0.298364, -0.627055, 0.843225, -0.129108, -0.206048, 0.280983, 0.736911, 0.452097, -0.191587, -0.879235, 0.44219, -0.604564, -0.298576, 0.340039, 0.0406569, 0.356185, 0.242941, 0.934746, 1.00217, 0.481613, 0.0136045, -0.834879, 0.0892618, 0.938764, 0.417318, 0.494946, 0.478432, -0.578696, -0.0708537, 0.510958, 0.38159, -0.75697, -0.648119, -0.0667832, 0.786017, 0.449688, -0.0742787, 0.454009, 0.783675, -0.18616, 0.148868, 0.41035, -0.298364, -0.627055, 0.843225, -0.129108, -0.206048, 0.280983, 0.736911, 0.452097, -0.191587, -0.879235, 0.44219, -0.604564, -0.298576, 0.340039, 0.0406569, 0.356185, 0.6112, 0.645223, 0.870159, -0.748125, 0.15795, -0.713536, -0.282212, -0.801329, -0.595384, 0.767367, 0.714226, 0.651522, 0.681817, -0.260468, -0.710103, -0.0569248, -0.403431, -0.0342241, 0.103323, -0.627204, 0.983941, 0.207231, 0.12783, -0.163567, -0.573213, 0.0161045, -0.792259, -0.51729, -0.927852, -0.946447, 0.870585, -0.66662, -0.850172, 0.144517, -0.640503, -0.669725, 0.0954058, 0.956995, -0.963559, -0.597819, 0.646515, 0.48749, 0.6112, 0.645223, 0.870159, -0.748125, 0.15795, -0.713536, -0.282212, -0.801329, -0.595384, 0.767367, 0.714226, 0.651522, 0.681817, -0.260468, -0.710103, -0.0569248, -0.403431, -0.0342241, 0.103323, -0.627204, 0.983941, 0.207231, 0.12783, -0.163567, -0.573213, 0.0161045, -0.792259, -0.51729, -0.927852, -0.946447, 0.870585, -0.66662, -0.850172, 0.144517, -0.640503, -0.669725, 0.0954058, 0.956995, -0.963559, -0.597819, 0.646515, 0.48749, -0.0899955, -0.237112, -0.750741, -0.0905413, 0.69389, 0.765558, 0.635395, -0.353424, 0.144664, 0.424927, -0.866271, -0.57171, 0.744465, -0.961108, 0.204143, 0.285827, -0.0462849, -0.498681, 0.107093, -0.235691, 0.591625, 0.216641, -0.0282464, -0.338415, -0.348407, -0.25206, -0.571564, 0.362058, -0.904742, 0.387318, 0.0919411, 0.585713, -0.319686, 0.949259, -0.524762, 0.61909, 0.725965, -0.866923, 0.494411, -0.847373, -0.248846, -0.0629812, -0.0899955, -0.237112, -0.750741, -0.0905413, 0.69389, 0.765558, 0.635395, -0.353424, 0.144664, 0.424927, -0.866271, -0.57171, 0.744465, -0.961108, 0.204143, 0.285827, -0.0462849, -0.498681, 0.107093, -0.235691, 0.591625, 0.216641, -0.0282464, -0.338415, -0.348407, -0.25206, -0.571564, 0.362058, -0.904742, 0.387318, 0.0919411, 0.585713, -0.319686, 0.949259, -0.524762, 0.61909, 0.725965, -0.866923, 0.494411, -0.847373, -0.248846, -0.0629812, -0.968358, -0.359312, -0.159965, 0.688959, -0.156102, 0.865672, 0.350588, 0.170831, -0.812546, -0.540904, -0.550572, -0.942399, 0.30258, 1.00658, -0.128023, 0.633387, 0.101975, 0.905008, 0.607267, 0.190079, -0.332161, -0.542386, 0.201626, 0.298337, 0.517795, -0.85933, -0.356812, 0.0938045, 0.0585989, -0.292873, 0.843059, 0.552544, 0.566313, -0.36314, 0.0297747, 0.932858, -0.00437168, -1.01452, -0.74638, 0.759384, 0.723182, -0.134794, -0.968358, -0.359312, -0.159965, 0.688959, -0.156102, 0.865672, 0.350588, 0.170831, -0.812546, -0.540904, -0.550572, -0.942399, 0.30258, 1.00658, -0.128023, 0.633387, 0.101975, 0.905008, 0.607267, 0.190079, -0.332161, -0.542386, 0.201626, 0.298337, 0.517795, -0.85933, -0.356812, 0.0938045, 0.0585989, -0.292873, 0.843059, 0.552544, 0.566313, -0.36314, 0.0297747, 0.932858, -0.00437168, -1.01452, -0.74638, 0.759384, 0.723182, -0.134794, -0.242091, 0.829716, 0.740417, -0.592182, -0.806753, 0.755307, 0.79747, 0.52152, 0.10829, 0.767891, -0.624447, -0.896699, 0.652596, 0.819016, -0.34743, 0.74826, 0.594841, 0.489142, -0.996345, 0.252403, 0.185382, -0.696498, 0.414856, 0.386994, -0.680279, -0.754537, 0.494044, -0.158128, -0.555295, 0.217528, -0.0877692, 0.0826851, -0.130169, 0.451707, -0.742753, -0.5099, -0.269903, 0.79351, -0.0822739, 0.799905, 0.547751, 0.0180911, -0.242091, 0.829716, 0.740417, -0.592182, -0.806753, 0.755307, 0.79747, 0.52152, 0.10829, 0.767891, -0.624447, -0.896699, 0.652596, 0.819016, -0.34743, 0.74826, 0.594841, 0.489142, -0.996345, 0.252403, 0.185382, -0.696498, 0.414856, 0.386994, -0.680279, -0.754537, 0.494044, -0.158128, -0.555295, 0.217528, -0.0877692, 0.0826851, -0.130169, 0.451707, -0.742753, -0.5099, -0.269903, 0.79351, -0.0822739, 0.799905, 0.547751, 0.0180911, 0.304281, -0.676803, -0.373673, -0.731024, -0.780315, 0.717676, 0.295906, -0.235146, -0.758047, -0.445572, 0.408746, 0.0999271, -0.98897, 0.23833, 0.366633, 0.331444, 0.217812, 0.42296, 0.666345, -0.827463, -0.553808, -0.869774, -0.403438, -0.277305, 0.887456, -0.701983, -0.967358, 0.017756, 0.621546, -0.177981, -0.773295, -0.380534, -0.400597, -0.567954, 0.503863, -0.18166, -0.39354, -0.337886, 0.446358, 0.369564, -0.061538, -0.893677, 0.304281, -0.676803, -0.373673, -0.731024, -0.780315, 0.717676, 0.295906, -0.235146, -0.758047, -0.445572, 0.408746, 0.0999271, -0.98897, 0.23833, 0.366633, 0.331444, 0.217812, 0.42296, 0.666345, -0.827463, -0.553808, -0.869774, -0.403438, -0.277305, 0.887456, -0.701983, -0.967358, 0.017756, 0.621546, -0.177981, -0.773295, -0.380534, -0.400597, -0.567954, 0.503863, -0.18166, -0.39354, -0.337886, 0.446358, 0.369564, -0.061538, -0.893677, 0.128887, -0.788324, -0.178538, 0.144853, 0.240203, 0.205524, 0.741648, -0.715996, -0.746311, 0.695552, 0.270533, -0.922477, 0.349235, -0.33611, -0.239942, -0.983334, 0.992704, -0.354813, 0.752059, 0.451478, -0.0373322, 0.801921, -0.922799, 0.0278684, -0.727, 0.820998, -0.966801, 0.95987, 0.809557, -0.791713, 0.788032, 0.903327, 0.580627, -0.438443, 0.261283, 0.770841, -0.242893, 0.193528, 0.910355, -0.709862, -0.197042, 0.870033, 0.128887, -0.788324, -0.178538, 0.144853, 0.240203, 0.205524, 0.741648, -0.715996, -0.746311, 0.695552, 0.270533, -0.922477, 0.349235, -0.33611, -0.239942, -0.983334, 0.992704, -0.354813, 0.752059, 0.451478, -0.0373322, 0.801921, -0.922799, 0.0278684, -0.727, 0.820998, -0.966801, 0.95987, 0.809557, -0.791713, 0.788032, 0.903327, 0.580627, -0.438443, 0.261283, 0.770841, -0.242893, 0.193528, 0.910355, -0.709862, -0.197042, 0.870033, -0.778884, -0.764273, -0.170427, 0.850471, -0.117262, -0.570575, -0.00389769, 0.0798206, 0.195705, 0.301168, -0.638155, 0.0403028, 0.152762, -0.0514989, -0.605112, -0.435378, 0.442806, -0.093275, 0.672641, 0.0373049, -0.8346, 0.405751, -0.972722, -0.874231, -0.577601, 0.675455, 0.118699, 0.168581, 0.511349, -0.23018, 0.0647543, 0.777412, -0.96303, -0.143477, -0.176001, -0.371372, 0.908893, 0.720189, 0.0164458, -0.452569, 0.626832, 0.82066, -0.778884, -0.764273, -0.170427, 0.850471, -0.117262, -0.570575, -0.00389769, 0.0798206, 0.195705, 0.301168, -0.638155, 0.0403028, 0.152762, -0.0514989, -0.605112, -0.435378, 0.442806, -0.093275, 0.672641, 0.0373049, -0.8346, 0.405751, -0.972722, -0.874231, -0.577601, 0.675455, 0.118699, 0.168581, 0.511349, -0.23018, 0.0647543, 0.777412, -0.96303, -0.143477, -0.176001, -0.371372, 0.908893, 0.720189, 0.0164458, -0.452569, 0.626832, 0.82066, -0.451399, 0.809468, 0.985796, 0.628763, -0.643146, 0.786738, -0.0647788, 0.606679, 0.440476, 0.0296159, -0.505924, 0.189009, 0.877803, -0.166139, -0.362839, 0.951811, -0.501644, 0.910075, -0.684825, 0.0129395, -0.828169, 0.644213, -0.841305, 0.624204, 0.755267, -0.724902, -0.687724, 0.778285, -0.475337, -0.643758, 0.0751646, 0.827544, 0.274326, 0.045141, -0.457303, 0.539684, 0.163186, 0.469167, -0.478408, 0.000470521, -0.013408, -0.0533721, -0.451399, 0.809468, 0.985796, 0.628763, -0.643146, 0.786738, -0.0647788, 0.606679, 0.440476, 0.0296159, -0.505924, 0.189009, 0.877803, -0.166139, -0.362839, 0.951811, -0.501644, 0.910075, -0.684825, 0.0129395, -0.828169, 0.644213, -0.841305, 0.624204, 0.755267, -0.724902, -0.687724, 0.778285, -0.475337, -0.643758, 0.0751646, 0.827544, 0.274326, 0.045141, -0.457303, 0.539684, 0.163186, 0.469167, -0.478408, 0.000470521, -0.013408, -0.0533721, -0.400766, -0.208957, 0.533554, -0.839157, 0.697159, 0.153615, -0.380628, 0.0901395, 0.272752, -0.48353, -0.160288, -0.951056, 0.815938, -0.674464, -0.805649, -0.238068, -0.52738, 0.302946, -0.800828, -0.280405, -0.661231, -0.685284, 0.255446, -0.092162, 0.179232, -0.594646, 0.799098, -0.831671, -0.79235, -0.465329, 0.332229, -0.509893, -0.436251, 0.348424, 0.384603, 0.620193, 0.416366, -0.348769, 0.140938, -0.502576, -0.638414, -0.949415, -0.400766, -0.208957, 0.533554, -0.839157, 0.697159, 0.153615, -0.380628, 0.0901395, 0.272752, -0.48353, -0.160288, -0.951056, 0.815938, -0.674464, -0.805649, -0.238068, -0.52738, 0.302946, -0.800828, -0.280405, -0.661231, -0.685284, 0.255446, -0.092162, 0.179232, -0.594646, 0.799098, -0.831671, -0.79235, -0.465329, 0.332229, -0.509893, -0.436251, 0.348424, 0.384603, 0.620193, 0.416366, -0.348769, 0.140938, -0.502576, -0.638414, -0.949415, -0.761652, -0.974988, -0.104027, -0.0272075, 0.187849, -0.166178, 0.0043979, 0.134704, 0.890711, -0.175593, 0.666752, -0.436805, 0.886555, -0.911741, -0.317736, 0.0557704, -0.474029, 0.648134, 0.532956, -0.138966, 0.37443, -0.605294, -0.795076, -0.607137, -0.949474, -0.295591, -0.384171, 0.541891, -0.92934, 0.403177, -0.515588, -0.939423, 0.583349, 0.261662, -0.567944, -0.684339, 0.0888611, -0.204665, 0.0632423, -0.373127, 0.807601, -0.169161, -0.761652, -0.974988, -0.104027, -0.0272075, 0.187849, -0.166178, 0.0043979, 0.134704, 0.890711, -0.175593, 0.666752, -0.436805, 0.886555, -0.911741, -0.317736, 0.0557704, -0.474029, 0.648134, 0.532956, -0.138966, 0.37443, -0.605294, -0.795076, -0.607137, -0.949474, -0.295591, -0.384171, 0.541891, -0.92934, 0.403177, -0.515588, -0.939423, 0.583349, 0.261662, -0.567944, -0.684339, 0.0888611, -0.204665, 0.0632423, -0.373127, 0.807601, -0.169161, 0.912118, 0.555697, 0.107221, -1.07519, -0.0976656, -1.03893, 0.399862, 0.185301, 0.600118, 0.159837, 0.320965, -0.346072, -0.532205, -0.431017, 0.773214, -0.00563962, 0.910619, 0.725833, -0.308201, -0.475696, -0.468453, -0.261724, -0.549818, -0.17381, -0.166568, -0.454329, 0.890053, 0.671773, -1.00023, 0.952084, 0.322768, 0.436978, 0.735915, 0.70464, 0.0872136, 0.0955698, 0.926278, -0.182778, 0.270773, 0.959115, -0.702251, -0.0461514, 0.912118, 0.555697, 0.107221, -1.07519, -0.0976656, -1.03893, 0.399862, 0.185301, 0.600118, 0.159837, 0.320965, -0.346072, -0.532205, -0.431017, 0.773214, -0.00563962, 0.910619, 0.725833, -0.308201, -0.475696, -0.468453, -0.261724, -0.549818, -0.17381, -0.166568, -0.454329, 0.890053, 0.671773, -1.00023, 0.952084, 0.322768, 0.436978, 0.735915, 0.70464, 0.0872136, 0.0955698, 0.926278, -0.182778, 0.270773, 0.959115, -0.702251, -0.0461514, -0.213563, -0.881856, -0.937779, -0.322295, -0.868793, -1.08698, -0.779228, -0.0641646, 0.467985, -0.276706, 0.897984, -0.284859, -0.240395, -0.109553, 0.649183, 0.637657, -0.509375, 0.835337, -0.602338, 0.232327, 0.572977, 0.702747, -0.966972, -0.571712, -0.301923, -0.536944, 0.0557561, 0.294121, -0.134531, -0.850359, -0.690856, -0.533636, -0.500062, -0.868457, 0.840141, -0.0783257, -0.0385653, 0.93532, -0.671422, 0.848858, 0.648058, -0.289743, -0.213563, -0.881856, -0.937779, -0.322295, -0.868793, -1.08698, -0.779228, -0.0641646, 0.467985, -0.276706, 0.897984, -0.284859, -0.240395, -0.109553, 0.649183, 0.637657, -0.509375, 0.835337, -0.602338, 0.232327, 0.572977, 0.702747, -0.966972, -0.571712, -0.301923, -0.536944, 0.0557561, 0.294121, -0.134531, -0.850359, -0.690856, -0.533636, -0.500062, -0.868457, 0.840141, -0.0783257, -0.0385653, 0.93532, -0.671422, 0.848858, 0.648058, -0.289743, 0.901005, -0.332931, -0.784138, -0.488757, 0.1546, -0.839162, -0.533423, 0.816715, 0.014871, -0.452856, -0.377632, 0.701482, -0.739559, -0.193732, -0.600757, -0.358936, 0.474347, 0.0188357, -0.226449, -0.873751, -0.0796558, 0.0954074, 0.517904, -0.675838, -0.313142, -0.829901, -0.326134, 0.926052, 0.237129, -0.691796, -0.0262804, 0.344045, 0.391217, 0.537494, 0.108632, -0.753852, 0.589835, 0.0192946, -0.134014, 0.418871, -0.767153, 0.800998, 0.901005, -0.332931, -0.784138, -0.488757, 0.1546, -0.839162, -0.533423, 0.816715, 0.014871, -0.452856, -0.377632, 0.701482, -0.739559, -0.193732, -0.600757, -0.358936, 0.474347, 0.0188357, -0.226449, -0.873751, -0.0796558, 0.0954074, 0.517904, -0.675838, -0.313142, -0.829901, -0.326134, 0.926052, 0.237129, -0.691796, -0.0262804, 0.344045, 0.391217, 0.537494, 0.108632, -0.753852, 0.589835, 0.0192946, -0.134014, 0.418871, -0.767153, 0.800998, 0.908774, -0.104096, 0.561664, -0.0515235, 0.760373, 0.00128239, -0.53299, -0.972089, 0.551512, -0.722634, -0.944521, -0.137967, 0.482223, -0.662026, -0.12039, 0.709684, 0.533618, 0.844662, 0.819605, -0.890028, 0.655737, 0.1654, -0.835854, 0.214982, 0.694008, 0.0505944, -0.0940339, -0.310346, 0.628819, -0.533787, -0.866201, 0.916557, 0.261169, 0.831164, -0.819228, 0.978401, 0.859189, 0.102345, -0.168567, -0.980474, 0.351028, 0.142324, 0.908774, -0.104096, 0.561664, -0.0515235, 0.760373, 0.00128239, -0.53299, -0.972089, 0.551512, -0.722634, -0.944521, -0.137967, 0.482223, -0.662026, -0.12039, 0.709684, 0.533618, 0.844662, 0.819605, -0.890028, 0.655737, 0.1654, -0.835854, 0.214982, 0.694008, 0.0505944, -0.0940339, -0.310346, 0.628819, -0.533787, -0.866201, 0.916557, 0.261169, 0.831164, -0.819228, 0.978401, 0.859189, 0.102345, -0.168567, -0.980474, 0.351028, 0.142324, 0.0814213, 0.935678, 0.471728, -0.150623, -0.997272, 0.0269411, -0.536302, 0.568361, 0.465327, -0.74483, -0.70015, 0.85128, 0.194996, 0.84711, 0.565691, -0.639715, 0.917009, 0.933352, -0.097499, 1.00684, -0.666386, 0.752507, 0.805994, -0.00212207, -0.897413, 0.297185, 0.0832232, -0.333684, -0.779334, -0.83806, 0.243942, -0.151289, 0.125165, -0.717761, 0.747079, 0.389142, -0.83713, -0.881279, -0.0215702, -0.839105, 0.306769, -0.110057, 0.0814213, 0.935678, 0.471728, -0.150623, -0.997272, 0.0269411, -0.536302, 0.568361, 0.465327, -0.74483, -0.70015, 0.85128, 0.194996, 0.84711, 0.565691, -0.639715, 0.917009, 0.933352, -0.097499, 1.00684, -0.666386, 0.752507, 0.805994, -0.00212207, -0.897413, 0.297185, 0.0832232, -0.333684, -0.779334, -0.83806, 0.243942, -0.151289, 0.125165, -0.717761, 0.747079, 0.389142, -0.83713, -0.881279, -0.0215702, -0.839105, 0.306769, -0.110057, 0.200053, 0.146023, -0.954695, -0.169874, -0.239462, 0.70969, -0.403679, -0.853636, 0.151606, -0.135658, -0.95326, -0.870808, -0.768644, -0.481406, 0.049301, -0.881287, -0.381926, 0.018036, 0.963974, -0.0717198, -0.760312, 0.159159, -0.947463, 0.032581, 0.648317, 0.857985, -0.979406, 0.650827, -0.479738, 0.656756, 0.421023, -0.448441, 0.897277, 0.619715, -0.113026, -0.619013, -0.485647, 0.870836, 0.366408, -0.396842, 0.296245, 0.644637, 0.200053, 0.146023, -0.954695, -0.169874, -0.239462, 0.70969, -0.403679, -0.853636, 0.151606, -0.135658, -0.95326, -0.870808, -0.768644, -0.481406, 0.049301, -0.881287, -0.381926, 0.018036, 0.963974, -0.0717198, -0.760312, 0.159159, -0.947463, 0.032581, 0.648317, 0.857985, -0.979406, 0.650827, -0.479738, 0.656756, 0.421023, -0.448441, 0.897277, 0.619715, -0.113026, -0.619013, -0.485647, 0.870836, 0.366408, -0.396842, 0.296245, 0.644637, 0.299738, 0.17662, -0.795243, 0.691473, -0.65993, 0.644815, -0.161951, 0.134773, -0.245793, 0.929601, -0.134676, 0.551337, -0.562819, 0.0728116, 0.00112754, -0.788266, -0.317035, -0.347653, -0.0354197, 0.372385, -0.862701, 0.0200065, 0.0447201, -0.228702, 0.777238, -0.562911, 0.176121, -1.03754, 0.829234, 0.622645, -0.641482, -0.838332, -0.680756, -0.960758, -0.0185103, -0.392893, -0.358659, 0.295915, 0.087201, -0.299084, -0.193022, 0.905644, 0.299738, 0.17662, -0.795243, 0.691473, -0.65993, 0.644815, -0.161951, 0.134773, -0.245793, 0.929601, -0.134676, 0.551337, -0.562819, 0.0728116, 0.00112754, -0.788266, -0.317035, -0.347653, -0.0354197, 0.372385, -0.862701, 0.0200065, 0.0447201, -0.228702, 0.777238, -0.562911, 0.176121, -1.03754, 0.829234, 0.622645, -0.641482, -0.838332, -0.680756, -0.960758, -0.0185103, -0.392893, -0.358659, 0.295915, 0.087201, -0.299084, -0.193022, 0.905644, 0.490846, -0.362061, 0.000679251, -0.164303, 0.0788406, -0.361138, -0.343252, -0.611133, -0.113861, 0.856593, 0.275477, 0.861824, -0.690129, 0.0368318, 0.859623, -0.354779, -0.135121, 0.585987, -0.375775, -0.970458, -0.0574352, -0.573899, -0.246637, -0.367094, 0.0424013, 0.935589, -0.412965, 0.188341, 0.257965, 0.547097, -0.0402308, 0.362945, 0.241546, 0.257876, -0.522722, -0.608379, 0.358241, 0.890435, -0.887971, -0.176242, -0.798175, -0.610655, 0.490846, -0.362061, 0.000679251, -0.164303, 0.0788406, -0.361138, -0.343252, -0.611133, -0.113861, 0.856593, 0.275477, 0.861824, -0.690129, 0.0368318, 0.859623, -0.354779, -0.135121, 0.585987, -0.375775, -0.970458, -0.0574352, -0.573899, -0.246637, -0.367094, 0.0424013, 0.935589, -0.412965, 0.188341, 0.257965, 0.547097, -0.0402308, 0.362945, 0.241546, 0.257876, -0.522722, -0.608379, 0.358241, 0.890435, -0.887971, -0.176242, -0.798175, -0.610655, -0.903217, -0.472021, -0.0190956, -0.344968, 0.223508, 0.193476, 0.342625, 0.418023, -0.484829, -0.426223, -0.0775217, -0.118796, -0.484856, -0.866029, -0.284164, -0.694137, 0.248273, 0.615129, 0.713663, 0.932436, 0.868493, 0.425693, -0.608469, -0.965899, -0.954788, 0.470452, 0.515834, 0.698548, 0.879503, -0.978339, 0.330055, 0.225936, -0.733732, 0.110125, 0.462406, 0.727705, -0.410968, 0.538266, -0.233873, 0.779349, 0.577079, 0.505275, -0.903217, -0.472021, -0.0190956, -0.344968, 0.223508, 0.193476, 0.342625, 0.418023, -0.484829, -0.426223, -0.0775217, -0.118796, -0.484856, -0.866029, -0.284164, -0.694137, 0.248273, 0.615129, 0.713663, 0.932436, 0.868493, 0.425693, -0.608469, -0.965899, -0.954788, 0.470452, 0.515834, 0.698548, 0.879503, -0.978339, 0.330055, 0.225936, -0.733732, 0.110125, 0.462406, 0.727705, -0.410968, 0.538266, -0.233873, 0.779349, 0.577079, 0.505275, -0.168807, -0.0280643, -0.549931, 0.742913, 0.0448201, -0.940522, 0.00714164, 0.439921, -0.612161, 0.60906, 0.935772, -0.7328, 0.467804, 0.942983, -0.649778, -0.376367, 0.65637, -0.324173, 0.0939668, 0.873497, -0.337788, -0.237623, -0.362911, 0.235408, 0.237681, -0.0220504, -0.581148, 0.705245, 0.357165, -0.555798, -0.26698, -0.253217, 0.00984431, 0.517912, 0.151816, -0.0225883, 0.695407, 0.649817, -0.20742, -0.734602, -0.870699, -0.344133, -0.168807, -0.0280643, -0.549931, 0.742913, 0.0448201, -0.940522, 0.00714164, 0.439921, -0.612161, 0.60906, 0.935772, -0.7328, 0.467804, 0.942983, -0.649778, -0.376367, 0.65637, -0.324173, 0.0939668, 0.873497, -0.337788, -0.237623, -0.362911, 0.235408, 0.237681, -0.0220504, -0.581148, 0.705245, 0.357165, -0.555798, -0.26698, -0.253217, 0.00984431, 0.517912, 0.151816, -0.0225883, 0.695407, 0.649817, -0.20742, -0.734602, -0.870699, -0.344133, 0.265804, 0.608214, -0.275138, -0.976004, -0.954113, 0.0231437, -0.482106, -0.84852, -0.869201, -0.971061, 0.772436, -0.845399, -0.643246, -0.166022, -0.917364, -0.883958, 0.748231, 0.0392579, -0.567339, 0.463382, -0.351287, 0.0449648, 0.900462, 0.374484, 0.441998, -0.536377, -0.565295, 0.877235, -0.983612, 0.867522, 0.907041, 0.178086, -0.783373, 0.0286253, -0.85443, 0.555337, 0.57316, 0.114186, -0.353486, 0.897409, -0.942318, 0.952114, 0.265804, 0.608214, -0.275138, -0.976004, -0.954113, 0.0231437, -0.482106, -0.84852, -0.869201, -0.971061, 0.772436, -0.845399, -0.643246, -0.166022, -0.917364, -0.883958, 0.748231, 0.0392579, -0.567339, 0.463382, -0.351287, 0.0449648, 0.900462, 0.374484, 0.441998, -0.536377, -0.565295, 0.877235, -0.983612, 0.867522, 0.907041, 0.178086, -0.783373, 0.0286253, -0.85443, 0.555337, 0.57316, 0.114186, -0.353486, 0.897409, -0.942318, 0.952114, -0.164642, 0.974778, -0.69226, 0.0914084, 0.820834, 0.391649, -0.375991, 0.353184, -0.00972162, 0.594561, -0.71737, -1.00472, 0.693337, -0.621023, -0.751568, -0.0835827, -0.224901, 0.206613, -0.00939735, 0.841651, 0.498093, 0.238438, -0.586791, 0.878749, 0.0262039, 0.575405, -0.0722777, 0.255635, 0.597887, 0.645205, 0.0810335, 0.656815, -0.865171, 0.368375, 0.0420831, 0.172661, 0.597852, 0.253535, 0.293049, 0.163731, -0.958159, -0.442458, -0.164642, 0.974778, -0.69226, 0.0914084, 0.820834, 0.391649, -0.375991, 0.353184, -0.00972162, 0.594561, -0.71737, -1.00472, 0.693337, -0.621023, -0.751568, -0.0835827, -0.224901, 0.206613, -0.00939735, 0.841651, 0.498093, 0.238438, -0.586791, 0.878749, 0.0262039, 0.575405, -0.0722777, 0.255635, 0.597887, 0.645205, 0.0810335, 0.656815, -0.865171, 0.368375, 0.0420831, 0.172661, 0.597852, 0.253535, 0.293049, 0.163731, -0.958159, -0.442458, -0.88782, -0.848948, -0.893728, -0.284225, 0.115575, -0.349235, -0.0230619, -0.634808, -0.886368, 0.743765, -0.823224, 0.436958, -0.818726, 0.622779, -0.335169, 0.0742396, 0.763416, 0.615823, -0.883323, -0.379477, -0.356994, -0.294599, -0.660212, 0.748188, 1.00913, 0.567234, -0.614978, -0.249223, -0.340227, -0.319888, 0.367022, 0.739068, 0.855922, -0.865401, 0.719195, 0.968666, -0.138771, -0.0740988, 0.407073, -0.7292, 0.305162, 0.151082, -0.88782, -0.848948, -0.893728, -0.284225, 0.115575, -0.349235, -0.0230619, -0.634808, -0.886368, 0.743765, -0.823224, 0.436958, -0.818726, 0.622779, -0.335169, 0.0742396, 0.763416, 0.615823, -0.883323, -0.379477, -0.356994, -0.294599, -0.660212, 0.748188, 1.00913, 0.567234, -0.614978, -0.249223, -0.340227, -0.319888, 0.367022, 0.739068, 0.855922, -0.865401, 0.719195, 0.968666, -0.138771, -0.0740988, 0.407073, -0.7292, 0.305162, 0.151082, 0.208712, -0.421263, -0.175853, -0.0441033, -0.370489, -0.963877, 0.908086, 0.323862, 0.689845, 0.790076, 0.216306, -0.952641, 0.482074, 0.400667, 0.313685, -0.750375, 0.28818, -0.456833, 0.308356, -0.866266, 