{"hidden1": {"biases": [
0.38955, -0.0167913, 0.297293, 0.593972, 0.887292, 0.799653, 0.906037, -1.02994, -0.0115649, 0.591991, -0.686868, 0.0558692, -0.963567, -0.20355, 0.911124, 0.404167, -0.388744, -0.31954, 0.199964, 0.969481, -0.308036, -0.627494, 0.714871, 0.558615, 0.162489, -0.736354, 0.54463, -0.406325, -0.211359, 0.686354, -0.789045, 0.575768, -0.589378, -0.394541, -0.461212, 0.771175, 0.148011, -0.804478, -0.331973, -0.733177, -0.260862, -0.897785
], "weights": [
-0.455857, -0.474665, 0.133032, -0.133296, -0.220569, 0.32829, 0.951793, 0.169701, -0.269218, -0.55144, 0.605534, -0.356948, 0.306793, 0.412311, 0.281284, -0.787702, -0.388404, -0.848459, -0.447081, 0.717662, -0.266717, -0.469649, 0.532076, 0.132792, -0.770832, -0.114602, -0.152395, -0.833911, -0.627072, -0.0478678, -0.0346928, 0.445105, 0.0908815, -0.101854, 0.663198, -0.513846, 0.362025, 0.6343, 0.40468, 0.154211, 0.360961, 0.769918, 0.47246, -0.560021, 0.85852, -0.516314, -0.134406, 0.128279, -0.382863, 0.917952, 0.99607, 0.0546222, 0.659299, 0.362769, -0.313472, 0.895523, 0.801342, -0.325098, 0.489885, 0.126366, -0.59065, -0.588905, 0.32817, -0.157583, 0.443994, -0.737562, 0.982184, 0.353097, -0.518686, 0.352897, 0.80896, -0.551628, 0.592138, 0.494836, -0.742668, -0.37025, -0.364487, -0.326562, -0.267173, -0.696174, -0.1219, -0.0143207, 0.110416, -0.820539, -0.807714, -0.712008, -0.0680016, 0.211502, 0.250424, 0.869665, 0.931046, 0.639195, -0.383027, -0.678462, -0.313937, 0.516389, -0.142013, -0.757261, 0.499851, 0.892609, -0.767379, 0.688411, -0.525975, 0.204475, -0.485125, 0.900831, 0.518608, 0.370391, 0.838934, -0.460898, -0.68685, 0.999963, -0.395167, -0.69665, -0.866355, 0.217919, -0.708349, 0.623546, 0.879043, 0.925101, 0.216753, -0.960177, -0.785856, -0.226468, -0.147057, -0.825437, 0.900043, -0.451709, -0.660692, 0.878007, -0.794302, 0.726316, -0.872988, 0.560508, -0.102463, -0.395661, 0.316009, -0.902975, -0.0990375, 0.897244, 0.465411, 0.196737, -0.875372, -0.547469, 0.84552, 0.769533, 0.703392, 0.801737, -0.435779, 0.842647, 0.867741, 0.227223, 0.736777, -0.281033, -0.973417, -0.784004, -0.699361, 0.513866, -0.362539, 0.987444, -0.6427, 0.893835, -0.749207, 0.823323, 0.100348, 0.699286, 0.971282, -0.0998199, -0.953221, -0.19591, 0.230909, 0.116805, -0.322603, -0.878633, -0.106948, 0.0946705, 0.487672, -0.700627, -0.191805, -0.184582, -0.898823, 0.255107, 0.914221, -0.601543, 0.0984371, -0.847232, 0.426472, 0.940307, 0.886079, 0.266199, -0.741799, 0.462496, 0.605103, 0.296176, -0.149542, 0.0118642, 0.00148961, -0.405633, -0.223784, -0.225781, -0.580519, 0.177403, -0.693601, -0.769517, -0.0148894, -0.0502294, 0.326121, -0.561652, -0.984264, 0.835448, 0.651693, 0.466633, -0.979905, -0.518046, 0.227755, 0.95765, 0.174249, -0.417946, -0.512465, 0.258186, -0.555947, -0.199299, -0.379195, -0.969987, 0.215521, 0.871486, -0.385001, 0.610401, 0.513422, -0.736206, -0.243622, 0.280541, -0.942738, -0.471594, 0.7246, 0.518504, -0.340495, 0.663878, 0.297003, -0.707039, -0.727766, -0.269497, -0.747892, -0.476176, 0.0197024, 0.725815, 0.949049, -0.0519992, -0.0871237, 0.535648, 0.0640515, 0.771389, 0.49289, 0.924093, 0.0666243, 0.69349, -0.755944, -0.989886, 0.487361, 0.108268, -0.427285, 0.813769, 0.512264, 0.446318, 0.71569, 0.276722, -0.295478, -0.398784, -0.503157, 0.116307, 0.512606, 0.902056, 0.640103, -0.186027, 0.783643, -0.518316, 0.192251, -0.745608, 0.368417, 0.217465, -0.174023, -0.548401, -0.462321, -0.907343, 0.50153, -0.765836, 0.305539, 0.513606, -0.637428, -0.915216, 0.504743, 0.83646, -0.61562, -0.207078, 0.897169, -0.259743, 0.722275, 0.010214, -0.812186, -0.209035, 0.246816, -0.240095, -0.952502, -0.443252, 0.665725, -0.893277, -0.499535, -0.173428, -0.818289, -0.280196, 0.735293, -0.256888, -0.656746, -0.0228198, 0.418753, -0.330907, 0.39134, -0.671235, -0.493947, 0.0751938, -0.925715, 0.269412, -0.452149, -0.316657, 0.347281, 0.689715, 0.379575, -0.378226, 0.110216, -0.21463, 0.973454, -0.248552, 0.00166296, -0.410786, 0.296364, 0.891843, 0.360121, -0.218542, -0.120115, 0.887467, 0.119343, -0.846847, 0.0839259, 0.395564, 0.725706, 0.0779712, 0.663607, -0.270632, -0.51589, -0.0461893, -0.702979, -0.121979, 0.494897, -0.206138, -0.961753, -0.00432769, -0.80651, 0.0146341, -0.492479, 0.201732, 0.610197, 0.11206, -0.0204486, 0.0987504, 0.237469, 0.342821, -0.309016, 0.13457, 0.212172, -0.0103124, 0.114948, -0.329056, -0.22905, 0.493144, 0.709755, -0.381884, -0.892016, 0.0772393, 0.486537, -0.341977, -0.777879, -0.115424, 0.345006, 0.430656, 0.803248, -0.512456, 0.804989, 0.865713, 0.248522, -0.107283, 0.235422, 0.197969, 0.566435, -0.898815, -0.745595, -0.51004, 0.533029, 0.127585, 0.593832, -0.679511, 0.961368, -0.334237, 0.27544, -0.0712318, 0.822384, 0.822267, -0.634939, -0.860902, 0.0110469, 0.480789, -0.577467, -0.994325, 0.906721, 0.814779, 0.270233, 0.767177, 0.464403, -0.400024, -0.441601, 0.356887, -0.380075, 0.90062, 0.976903, 0.663006, 0.875028, -0.420536, 0.638401, -0.184081, 0.655247, -0.034792, 0.848639, 0.296948, -0.0670269, 0.28139, -0.0392686, 0.0749948, 0.903977, 0.215235, 0.773554, 0.21455, 0.954308, 0.901013, 0.981108, -0.277385, -0.382936, -0.48419, 0.569967, -0.886991, -0.305309, 0.853089, 0.200045, -0.28965, 0.734298, -0.794012, -0.277559, -0.969071, 0.0391402, 0.358106, 0.209987, -0.587386, 0.394223, 0.486848, 0.331171, 0.726631, 0.0742579, 0.561539, -0.0830165, 0.315867, 0.115381, -0.0176625, 0.499924, 0.608174, -0.292337, -0.323956, 0.693214, -0.759761, 0.477253, 0.707515, -0.0752966, -0.944371, -0.517283, 0.952331, -0.124634, -0.604956, 0.717302, -0.535062, -0.4597, -0.586215, -0.455875, 0.199987, 0.493098, 0.471342, -0.76763, 0.993733, -0.982811, 0.983902, -0.28999, 0.0494755, -0.770999, 0.901956, 0.321692, -0.668251, -0.645045, -0.299333, 0.910155, 0.629744, -0.477216, -0.968259, -0.44066, -0.0997673, -0.3273, 0.536746, 0.169668, -0.0693104, -0.956647, 0.0685038, 0.122586, 0.193003, -0.941259, 0.0739265, 0.843137, 0.212618, -0.653483, -0.399715, 0.384064, 0.00154818, -0.480959, 0.877211, -0.962605, -0.367, 0.342762, 0.570187, -0.576091, -0.820409, -0.659246, -0.316647, -0.690355, 0.0621671, -0.401373, 0.829243, 0.189545, -0.142268, -0.709936, -0.230046, -0.874274, 0.670326, -0.734135, 0.324323, 1.00454, 0.755703, 0.580678, -0.0162536, 0.824111, -0.854377, -0.515062, -0.95207, 0.506398, -0.561158, 0.539814, 0.724083, -0.407837, -0.79209, 0.636942, 0.865068, 0.167778, 0.0100375, 0.475312, 0.289824, -0.458458, 0.880799, 0.0991865, -0.0948644, 0.592487, -0.953369, -0.564256, 0.683292, -0.961758, 0.88457, -0.752178, -0.499984, -0.400256, -0.039783, 0.437507, 0.887789, 0.535644, 0.334154, -0.723657, 0.356066, 0.686583, -0.871627, -0.192019, 0.874962, -0.965079, 0.317217, 0.531315, -0.719622, -0.663177, 0.842837, -0.742376, -0.0992968, -0.971539, 0.949473, 0.773512, -0.233942, 0.120306, 0.371314, 0.403318, 0.730288, 0.0134655, 0.139726, -0.94777, 0.291687, 0.498992, -0.527523, -0.36229, 0.444708, -0.117898, -0.165269, -0.239727, -0.867957, 0.49223, 0.589386, 0.316015, -0.791049, 0.0562855, 0.152814, -0.785143, -0.623485, 0.67626, -0.34321, 0.797047, -0.714918, -0.464948, 0.979268, -0.0698088, -0.721574, -0.96435, 0.132405, -0.752739, -0.728443, 0.368632, 0.179479, -0.572663, 0.388143, 0.494086, 0.451375, -0.989149, -0.670079, -0.458399, -0.366491, -0.805734, 0.836542, 0.928408, 0.419526, 0.836854, 0.138656, 0.297895, -0.97628, -0.0688006, 0.183604, 0.402741, -0.403928, 0.00342941, -0.581122, -0.848625, -0.0236548, 0.800703, -0.347718, -0.441947, 0.117935, -0.559626, 0.764533, 0.391357, 0.502645, -0.868156, -0.166885, -0.717244, -0.805738, 0.676723, 0.768207, 0.28318, 0.89734, -0.335128, 0.911693, -0.0914164, 0.623395, 0.310731, -0.460584, -0.116799, 0.751235, 0.727491, -0.899432, 0.866937, 0.162608, -0.154989, 0.420835, -0.0194957, 0.324553, -0.993235, -0.910338, 0.70155, 0.684397, 0.856016, 0.986052, 0.53329, 0.779503, 0.307302, 0.392935, 0.0541608, 0.535599, 0.507881, 0.814442, -0.100118, -0.693581, -0.966714, 0.524713, -0.0249057, 0.907105, 0.072479, 0.319379, -0.667574, -0.957445, -0.106274, 0.922723, -0.279358, -0.488989, 0.909418, -0.278946, -0.159667, -0.842443, 0.447171, 0.197675, 0.0801898, -0.473619, -0.0573111, 0.854993, -0.767167, 0.533524, -0.443108, -0.779543, 0.555344, 0.128249, -0.839349, -0.839354, -0.169702, 0.880018, 0.898837, 0.231594, 0.132853, 0.863923, -0.86871, -0.403243, 0.117953, 0.988668, 0.642762, -0.284038, -0.0138839, 0.247832, 0.486181, -0.100068, -0.91561, -0.8138, 0.575959, 0.664114, -0.660515, -0.812469, 0.348579, 0.893969, 0.923255, -0.745857, 0.188725, 0.835339, 0.491451, -0.199911, 0.458268, -0.328795, -0.688398, 0.426235, 0.694839, -0.504397, -0.165512, 0.100777, 0.422716, -0.268798, 0.146034, -0.844609, -0.664888, -0.841238, 0.844004, 0.75996, 0.15942, 0.88362, 0.3199, 0.245823, 0.457878, -0.0944334, 0.878798, -0.851845, -0.357606, -0.547941, -0.485775, -0.855879, -0.65796, 0.133437, -0.728871, -0.696797, 0.972427, 0.38367, 0.343621, -0.685691, 0.465665, -0.890776, 0.415354, 0.667507, -0.0280913, 0.113982, 0.0990251, 0.313928, 0.646755, -0.0836539, -0.307122, -0.0603877, -0.911501, -0.00155795, -0.890999, -0.647524, -0.967431, 0.393666, 0.555783, 0.466796, 0.786833, 0.34222, 0.228644, -0.347294, -1.00088, 0.728545, -0.863542, 0.638682, 0.530669, 0.950156, -0.671095, -0.41846, 0.481131, -0.127896, 0.118143, 0.422684, 0.627988, -0.959893, -0.287795, -0.212757, -0.064458, 0.573223, 0.807186, 0.177595, -0.981837, 0.654633, 0.642251, -0.708845, -0.63936, -0.599568, 0.0409533, 0.410449, 0.104137, 0.444084, -0.649866, 0.294812, -0.230864, 0.397147, -0.391833, 0.725254, 0.36555, -0.385023, 0.773171, 0.780571, -0.738697, -0.153274, 0.902297, 0.335096, 0.573602, -0.331259, 0.400301, -0.298357, -0.0779032, -0.941314, -0.0698503, 0.529501, 0.253708, -0.848764, -0.275074, -0.896155, -0.0335635, -0.125531, -0.0241151, 0.875731, 0.606605, 0.648601, 0.322841, -0.266661, -0.711682, 0.548939, -0.819929, 0.0387459, -0.458456, -0.390389, -0.101815, 0.656005, 0.771565, -0.0214409, -0.960219, 0.19405, 0.069458, -0.0634419, -0.488054, -0.248162, -0.163274, -0.24603, 0.869925, -0.00613352, 0.538339, 0.615036, 0.326975, 0.410175, -0.791544, -0.134854, -0.146685, 0.0478045, -0.432433, 0.172552, 0.278531, 0.828854, 0.920512, -0.551009, -0.892748, -0.0323246, 0.530024, -0.340309, 0.361825, -0.496253, 0.961065, -0.379718, -0.143678, 0.0673828, 0.854359, 0.331628, 0.343767, -0.610445, 0.862087, -0.170901, -0.80544, -0.109499, 0.610024, -0.928126, -0.837052, -0.819739, -0.595215, -0.769701, 0.851768, 0.285199, -0.16081, -0.541939, -0.390359, -0.838734, -0.865791, 0.344261, 0.377257, -0.531172, 0.90023, -0.844701, 0.616312, -0.463653, -0.341007, 0.740736, -0.189555, -0.515518, -0.662609, -0.264891, 0.859922, -0.00477062, 0.913209, -0.069658, -0.362506, -0.559628, -0.302324, 0.68681, -0.29896, 0.906387, 0.281828, 0.975508, 0.938202, -0.638721, -0.835611, 0.381722, -0.0553255, 0.906296, 0.925905, 0.337537, 0.637033, -0.597722, -0.277288, 0.375113, -0.873761, 0.267981, 0.794543, 0.558273, -0.750573, 0.352159, -0.8407, -0.864523, 0.460746, 0.884414, 0.736483, -0.472959, -0.895225, 0.454875, -0.762712, -0.16538, 0.249179, -0.904334, -0.562424, 0.971105, 0.272511, 0.420867, 0.737399, 0.682176, 0.0396018, -0.920232, -0.143233, -0.531639, 0.241502, -0.568226, 0.116828, 0.394204, 0.364438, 0.507584, 0.436359, -0.0264693, 0.269503, -0.320732, -0.428567, -0.0289883, -0.240121, 0.0605527, 0.0959237, -0.628137, 0.293247, -0.174101, 0.830106, 0.147397, 0.730971, 0.210468, 0.289185, -0.091524, -0.869967, 0.147481, -0.807173, -0.61547, -0.609361, -0.821259, 0.50114, -0.105322, -0.58004, 0.741834, 0.156284, 0.155471, 0.497553, 0.158801, 0.539651, -0.297464, -0.548084, -0.0158944, -0.237164, 0.299917, -0.850634, 0.253746, 0.348495, -0.434107, -0.992951, -0.74256, -0.56171, -0.574984, 0.0848317, -0.0965464, 0.335284, -0.208626, -0.928085, 0.644344, 0.828502, -0.737231, -0.695752, 0.202462, 0.906304, -1.00067, 0.152815, -0.66321, 0.528988, 0.218256, 0.099984, 0.477459, -0.81742, 0.597825, 0.67537, -0.485451, -0.748974, 0.400184, 0.0843626, 0.972764, -0.0965315, -0.0880793, -0.895351, -0.94373, -0.324301, -0.629112, 0.539556, 0.534246, -0.0146678, 0.939225, 0.436318, -0.401341, -0.309845, -0.875312, -0.138629, 0.342325, 0.98013, -0.144065, 0.142687, 0.808029, 0.508456, -0.67007, -0.891239, -0.547006, -0.696383, -0.229212, -0.274412, -0.211153, 0.523928, -0.678914, -0.459494, -0.746567, -0.585585, -0.326435, 0.450393, 0.362004, 0.989203, 0.876005, -0.950903, 0.479786, -0.839948, 0.935203, -0.431863, 0.725987, 0.325361, 0.248592, 0.388851, -0.268574, -0.780914, -0.00582783, -0.704816, 0.978293, -0.960232, -0.861675, 0.0579921, 0.740534, 0.220363, 0.433538, -0.732523, -0.302366, -0.168351, 0.5724, 0.285388, 0.574587, 0.0556422, 0.784134, -0.180644, -0.946374, 0.0437318, -0.0863915, -0.697294, -0.934956, -0.646841, 0.706863, -0.640327, -0.86278, -0.0759252, 0.14518, 0.949, -0.688919, -0.520855, 0.540004, 0.415024, 0.706678, 0.361138, -0.465779, 0.130486, 0.718872, -0.991102, 0.206339, -0.489606, 0.576291, 0.185953, 0.98544, -0.786428, 0.663385, -0.38429, -0.0833542, -0.613584, -0.487032, -0.815783, -0.789478, -0.210698, 0.325781, -0.446653, 0.267799, -0.375267, -0.539937, -0.674663, -0.437384, 0.738276, -0.743914, 0.0663267, 0.869369, 0.0110471, 0.452947, 0.38125, 0.76363, -0.828978, -0.88896, -0.619126, -0.528296, -0.983883, -0.166596, -0.167175, 0.481671, 0.295114, 0.981433, 0.942128, -0.824981, -0.300966, -0.452594, -0.869313, 0.91299, 0.632416, 0.981258, 0.751437, -0.0142962, -0.587006, -0.0234112, -0.952342, 0.515266, 0.991463, -0.467506, -0.840114, -0.558543, -0.865144, -0.732058, -0.621308, -0.574708, 0.535746, -0.757623, -0.275904, -0.509257, 0.685259, 0.137535, 0.977238, -0.570727, 0.639501, -0.311594, -0.196411, -0.366342, 0.964646, -0.0493604, -0.251723, 0.447272, 0.600125, 0.668034, -0.924179, 0.21616, -0.285546, 0.896314, 0.94019, 0.519398, -0.588402, -0.788863, 0.493656, -0.425836, 0.479514, -0.392421, -0.11181, -0.137739, 0.811922, -0.752914, 0.870987, -0.103901, -0.86818, 0.488525, 0.176881, -0.204118, -0.5491, -0.994684, -0.731011, 0.990936, -0.279115, 0.98465, 0.835325, -0.291653, 0.0770886, 0.440767, 0.264795, -0.625877, -0.852365, -0.0404231, -0.182614, -0.172898, -0.843305, -0.399913, -0.202216, -0.734896, -0.171628, -0.197184, -0.149993, 0.916361, 0.592771, 0.555172, -0.156271, -0.350957, -0.143181, 0.553482, -0.239299, -0.114774, -0.139136, -0.766082, -0.256816, -0.416701, -0.448257, -0.112413, -0.713797, -0.763301, -0.0276694, -0.318459, -0.891665, 0.42356, 0.615953, 0.248634, -0.283489, 0.414207, 0.448538, -0.187095, 0.478221, -0.944608, -0.952757, 0.806632, -0.449684, -0.540542, -0.309274, -0.30029, 0.448203, 0.99863, 0.536988, 0.174063, 0.534773, -0.843786, 0.950141, 0.825977, 0.147335, 0.173946, 0.338695, 0.255497, -0.476503, -0.899839, 0.279069, 0.144757, 0.438955, 0.627737, 0.354382, 0.37213, -0.968454, -0.909888, 0.278651, 0.0728414, 0.393775, 0.636828, -0.650926, -0.648879, -0.929907, -0.668308, -0.077979, 0.802109, 0.373126, -0.825971, 0.823834, 0.668655, -0.267839, -0.571666, -0.980321, -0.846529, -0.647597, 0.428641, 0.394129, -0.441848, 0.755919, 0.791776, 0.920351, -0.106658, 0.306533, -0.757587, -0.0621308, -0.412065, -0.924281, 0.507268, 0.13731, -0.532401, -0.442484, -0.0287255, -0.353528, 0.906773, -0.728219, 0.0847908, 0.142629, 0.593333, 0.800372, 0.193233, -0.47179, 0.255563, 0.342573, 0.265325, -0.0640723, 0.52331, -0.350921, 0.28476, -0.767572, 0.605199, 0.156197, -0.331382, 0.536191, 0.725647, 0.00745805, -0.584529, 0.51889, 0.549943, -0.229246, 0.378577, 0.595023, 0.207642, -0.128684, 0.721573, 0.650531, -0.935408, -0.356463, -0.0854954, 0.946834, -0.353865, -0.157724, 0.62451, -0.51923, 0.431556, 0.789302, 0.627774, -0.210316, 0.39632, -0.788549, 0.0897655, 0.655192, -0.971403, 0.550158, 0.55053, 0.360791, 0.605913, -0.482756, -0.656779, -0.538037, -0.30974, 0.196435, 0.822301, 0.540545, 0.796312, -0.259182, -0.79443, 0.112566, 0.285111, -0.362482, 0.0590478, -0.355337, -0.810661, -0.871397, -0.74529, -0.739045, 0.682922, 0.216878, -0.135647, 0.353867, 0.233502, -0.941209, 0.93975, -0.207316, 0.115477, 0.0808073, 0.386295, -0.971151, 0.78528, 0.895676, -0.977179, -0.904212, -0.834508, 0.56381, -0.312678, 0.526787, 0.142374, 0.924623, 0.125006, 0.285967, 0.266563, 0.127155, -0.421965, -0.320598, 0.240043, -0.341076, 0.167085, 0.493127, 0.9617, -0.700415, 0.889938, -0.488634, 0.648215, 0.62547, 0.55834, 0.881571, 0.973465, 0.923259, 0.609984, 0.369866, -0.671149, 0.0950826, 0.0613646, -0.2895, -0.531858, 0.992592, 0.726616, -0.273524, 0.610136, 0.427528, -0.673817, 0.562862, 0.78048, -0.982262, 0.18569, 0.19836, 0.797008, -0.679882, -0.579729, 0.398726, -0.494011, 0.0577936, -0.232922, 0.864707, 0.589949, 0.555773, -0.244941, -0.888879, 0.780769, -0.936783, -0.894851, -0.834185, -0.648671, 0.801158, -0.382026, 0.276171, 0.860103, -0.929887, 0.867966, -0.520443, 0.954281, 0.288193, -0.907692, -0.22881, -0.776138, 0.867092, 0.0608823, -0.488717, -0.682829, -0.708296, 0.155232, -0.0582717, 0.0632936, -0.11542, 0.463669, -0.026243, 0.238042, -0.684025, -0.231853, 0.758467, -0.827126, 0.61917, -0.993224, -0.128521, 0.0933125, -0.545082, 0.538335, 0.522548, 0.719742, 0.411588, -0.360668, -0.318163, -0.83578, -0.864975, 0.590901, 0.853231, 0.0292019, 0.0147949, 0.659317, 0.434178, 0.507599, -0.644653, 0.480798, 0.0151392, 0.936013, -0.810016, -0.793286, 0.522853, 0.0435173, 0.657409, -0.142562, 0.00592487, -0.673281, -0.705562, -0.927693, -0.259581, -0.226161, -0.442464, 0.723204, -0.62709, -0.863635, 0.218885, 0.215884, 0.51072, 0.895958, 0.101673, 0.340356, 0.440417, -0.120442, -0.722523, -0.846009, 0.839436, -0.229587, -0.412775, 0.779941, -0.698001, -0.973648, -0.504737, 0.26427, -0.71556, -0.277783, 0.404503, 0.578317, 0.638074, 0.589837, -0.897146, 0.995138, -0.312432, 0.199265, -0.24825, 0.434179, 0.360457, 0.425012, 0.589059, -0.112734, -0.201718, -0.401499, 0.898585, 0.512194, -0.314368, -0.43165, 0.279098, -0.40356, -0.92672, 0.490043, 0.851618, 0.933401, -0.493765, 0.818736, 0.52611, -0.770219, 0.537137, -0.154947, -0.747267, -0.55603, -0.681989, 0.300934, 0.569051, -0.373912, -0.994211, -0.681216, 0.24201, -0.499163, -0.76228, 0.201347, 0.217113, 0.551024, -0.762482, 0.584407, -0.219887, 0.358043, -0.309382, -0.281896, 0.255517, -0.934605, -0.857307, -0.973663, 0.980139, 0.201467, -0.260017, 0.661208, -0.324138, 0.102541, -0.577804, -0.327161, -0.0437869, -0.205879, -0.326974, -0.968988, 0.91465, -0.242915, -0.999141, -0.350783, -0.102181, -0.245664, -0.771119, -0.729968, 0.180354, 0.769319, -0.275192, -0.401325, 0.483542, 0.0643949, 0.287789, -0.113651, -0.350602, 0.901143, -0.432683, 0.69334, 0.449225, -0.601562, 0.343618, 0.270261, -0.0953218, -0.880293, 0.64755, -0.993387, 0.195141, -0.331451, -0.351677, -0.547771, 0.450408, -0.382435, -0.196954, 0.788022, 0.432838, 0.349263, -0.432802, -0.154872, 0.161036, 0.363259, 0.0883872, -0.242792, 0.476532, 0.333454, 0.205667, 0.782372, 0.0663884, -0.875841, -0.55499, 0.408343, -0.78777, -0.634026, 0.325159, 0.2623, 0.816094, 0.564271, 0.281781, -0.664271, -0.111217, 0.525778, -0.173408, -0.425964, 0.522471, -0.0630494, -0.410041, -0.161301, 0.615568, -0.749347, -0.484303, -0.022697, 0.496502, 0.621906, -0.0879614, -0.796557, -0.152903, 0.354148, -0.323094, 0.663917, 0.129153, 0.369331, -0.243087, 0.645219, 0.319747, 0.276051, 0.0199145, 0.8975, -0.0538657, -0.0978775, 0.405899, -0.997023, -0.720604, 0.998934, 0.628804, 0.899868, 0.744145, -0.290431, 0.531689, 0.964007, -0.667472, 0.373608, 0.611606, 0.835056, 0.139549, -0.913373, 0.910806, 0.676342, 0.61926, 0.0756974, 0.0687871, -0.830457, -0.945283, 0.671912, 0.2352, 0.616642, -0.601712, -0.520838, -0.994723, -0.259645, 0.543089, 8.21799e-06, -0.742745, -0.473711, 0.50864, -0.815886, -0.500441, 0.762892, -0.68911, 0.462862, -0.622456, 0.285915, 0.568913, -0.702702, -0.41395, -0.244107, 0.631858, 0.214034, 0.318995, 0.253795, 0.276638, -0.739492, 0.300458, -0.690599, 0.507844, -0.773942, -0.75457, -0.754978, -0.743789, 0.708567, -0.461181, 0.399637, -0.941164, 0.356056, -0.0852819, 0.73335, -0.678422, -0.984555, 0.127933, 0.00819575, -0.022083, -0.945745, 0.142973, 0.975228, 0.519657, -0.450038, -0.795722, 0.57482, -0.942565, -0.973538, 0.100994, -0.910081, 0.570982, 0.660196, 0.19559, -0.57599, 0.604446, 0.72632, -0.335215, 0.869246, 0.155577, -0.665102, -0.409058, -0.87586, -0.0895392, -0.447334, 0.644158, -0.198216, 0.953059, 0.920651, 0.831744, -0.574436, -0.318247, -0.117492, -0.335921, 0.012362, 0.259558, -0.74331, 0.460041, 0.691128, -0.96212, 0.504489, -0.667975, 0.0891992, 0.769931, -0.175978, -0.764241, 0.23872, 0.507737, -0.221545, -0.182987, -0.524895, -0.733175, -0.110007, 0.481057, 0.990204, 0.163337, 0.153176, -0.305389, 0.076345, 0.387104, -0.552202, -0.241322, 0.688951, -0.393825, -0.0119152, -0.0750178, -0.617882, 0.459474, -0.334267, 0.842917, -0.215584, 0.192102, -0.297831, -0.810678, -0.520006, -0.542018, -0.113359, -0.444425, -0.154319, -0.811664, -0.831802, 0.0666539, -0.845543, 0.517359, 0.671855, 0.489519, -0.69615, -0.505933, -0.075934, 0.235188, 0.671835, -0.00837073, -0.208762, -0.370851, -0.829066, 0.385189, -0.300682, -0.722508, -0.608631, -0.483628, 0.351931, 0.218533, 0.78106, -0.0643316, -0.208037, 0.650413, 0.806496, 0.643862, 0.000820859, 0.136683, -0.338124, 0.409267, 0.85619, 0.510433, -0.619552, -0.621666, 0.751896, 0.218668, -0.902204, -0.690378, 0.548867, 0.0443197, -0.452262, -0.450083, -0.365243, -0.470027, 0.0847434, -0.821109, -0.789628, 0.844233, 0.728008, -0.731569, 0.853, 0.875254, -0.940604, 0.886739, 0.687608, 0.828015, 0.244224, 0.276586, -0.204814, 0.696623, -0.700984, -0.949797, 0.75551, 0.972022, 0.806838, -0.78851, -0.843432, -0.359387, 0.788654, 0.606836, -0.725304, 0.433202, 0.215282, -0.546496, 0.139604, 0.433225, 0.177896, -0.174101, 0.0981779, -0.425345, -0.922993, -0.621586, 0.694037, 0.682784, 0.897566, 0.154818, -0.697561, 0.840891, 0.417797, -0.791413, -0.943673, -0.764265, 0.304628, -0.720891, -0.369947, -0.103008, 0.78917, 0.362016, -0.221805, 0.355128, -0.740177, 0.00372038, 0.457781, 0.75434, -0.952964, -0.19072, 0.328877, -0.837386, 0.00800717, 0.36229, 0.225174, -0.721938, 0.808238, 0.391441, -0.433891, -0.0600323, -0.182587, -0.618247, -0.793712, -0.484163, -0.24589, 0.380408, -0.719974, 0.859199, -0.949254, -0.333833, -0.918361, 0.0536126, 0.846863, 0.0618593, -0.809523, -0.664242, -0.682518, -0.689937, 0.0494122, 0.435154, -0.35951, -0.24722, 0.473185, 0.904833, 0.573733, -0.737348, 0.344615, -0.0941068, 0.386046, -0.365971, 0.048518, -0.732251, -0.423439, -0.215532, -0.813663, 0.549708, 0.586049, 0.707813, 0.374425, -0.413182, 0.0149923, 0.500325, 0.900769, 0.22537, 0.36119, 0.358332, 0.0783166, 0.503389, 0.915252, 0.587022, -0.19056, 0.495442, 0.653903, -0.987481, -0.621198, 0.166429, 0.438256, -0.0967987, -0.230247, 0.2503, -0.757801, -0.532831, -0.151334, -0.856456, -0.425622, -0.680057, 0.78924, 0.102232, -0.753805, -0.918732, -0.245949, -0.830369, 0.710283, 0.0235603, -0.382369, -0.776128, -0.431132, -0.859514, 0.152318, 0.603789, -0.421347, -0.429952, 0.951018, -0.193403, -0.79908, -0.20086, 0.421047, -0.838962, -0.183433, 0.0299333, -0.845351, 0.924608, 0.741654, 0.84406, -0.232713, 0.951422, 0.876041, -0.682002, -0.278622, -0.453516, -0.645982, -0.114752, -0.901822, -0.470489, -0.894783, -0.269827, 0.455758, 0.629632, 0.386356, -0.455915, -0.639859, -0.280625, 0.517393, 0.812611, -0.8041, -0.470305, 0.221506, 0.771786, -0.0425492, -0.232909, 0.661503, -0.286031, 0.516754, 0.154076, -0.925814, 0.044829, 0.25131, 0.717315, 0.978244, -0.73983, -0.152345, 0.46164, 0.571811, -0.69399, 0.776336, 0.789451, -0.588309, -0.839292, 0.13208, -0.843735, 0.571352, 0.153354, 0.294771, 0.300447, -0.943621, -0.540739, 0.393426, -0.869044, -0.832742, 0.0218678, 0.922605, 0.658259, 0.110696, 0.151872, -0.409505, 1.00183, -0.700912, -0.44358, 0.576323, 0.548624, 0.265416, 0.900385, 0.698952, -0.666619, -0.68918, 0.18392, 0.902993, -0.354831, 0.217538, -0.614595, -0.394947, -0.46263, 0.0863882, 0.4971, -0.326293, -0.241356, -0.0122419, -0.829497, -0.477196, 0.90153, -0.409931, -0.815361, 0.153012, 0.958617, 0.982035, -0.546166, -0.028358, 0.371955, 0.414069, 0.842368, -0.389881, -0.0182994, -0.952519, 0.162969, -0.248388, 0.246715, 0.986871, -0.583892, 0.884432, -0.311646, -0.982954, 0.397232, 0.966645, -0.17922, 0.0290086, 0.81148, -0.326782, 0.815102, 0.413935, 0.151602, 0.821261, -0.450568, 0.0373465, -0.70684, 0.804583, 0.324216, 0.6197, 0.892191, 0.13665, -0.843032, -0.341086, -0.738515, 0.938129, 0.379252, -0.431015, -0.987593, 0.226637, -0.76111, -0.635353, -0.936454, -0.299077, -0.969071, -0.0606145, -0.129844, -0.936601, 0.379354, -0.789189, -0.294771, 0.281883, 0.118491, -0.968835, -0.469765, -0.478764, -0.660091, -0.578185, 0.4665, 0.879898, -0.662781, 0.383858, 0.981318, 0.417934, -0.989808, 0.0212333, 0.0114349, -0.754323, -0.730542, -0.303948, -0.0110437, -0.21095, -0.554616, 0.667659, -0.96166, -0.837706, 0.390209, -0.776366, -0.292876, -0.458251, -0.120495, 0.966041, 0.132081, -0.460559, 0.862479, -0.90376, -0.191146, -0.886585, 0.366801, -0.193775, -0.80565, -0.05436, 0.152622, -0.29412, 0.702438, 0.0872828, 0.137577, -0.156096, -0.621041, -0.520564, -0.399591, 0.365976, 0.159642, 0.38594, 0.116453, -0.326143, 0.062063, -0.696145, -0.55801, 0.200585, 0.876711, 0.656525, 0.89391, 0.800786, 0.724262, 0.536756, -0.543609, -0.343262, -0.808019, 0.564992, -0.291849, 0.378786, -0.947805, -0.535175, -0.202127, -0.361343, 0.172265, -0.145413, 0.543846, 0.709832, 0.410664, -0.823557, -0.69518, -0.548515, -0.230581, 0.853624, 0.459728, -0.425931, -0.525804, -0.837187, -0.723542, 0.566289, -0.269918, 0.499652, -0.403642, -0.592747, 0.431075, -0.679783, 0.62811, 0.0869503, -0.0598616, 0.980374, 0.703124, -0.0195753, -0.443086, -0.272752, 0.112086, 0.00164427, 0.122914, 0.165076, -0.17193, -0.690541, 0.480974, 0.698917, 0.211253, 0.796645, -0.270399, -0.886736, -0.0363497, 0.173677, -0.914465, 0.111565, 0.585421, 0.848336, -0.369738, 0.516021, -0.49252, -0.907878, 0.291775, -0.362817, -0.250349, 0.553657, 0.783654, 0.554037, 0.672639, -0.867008, -0.539057, -0.121441, -0.323381, 0.961976, 0.623745, 0.378088, 0.837366, 0.435732, -0.132079, -0.771103, -0.355095, 0.500882, -0.156493, -0.962319, 0.471981, -0.0744979, 0.573135, 0.796175, -0.139174, -0.189466, 0.881129, 0.867351, 0.0569462, -0.317189, -0.880737, 0.343978, 0.966662, -0.0946667, 0.180812, -0.980197, -0.929712, 0.571724, 0.925748, -0.561831, 0.652787, 0.720469, -0.862047, -0.669724, 0.0445354, 0.972852, -0.996317, -0.376037, 0.811952, 0.297481, -0.146548, -0.224885, -0.649863, 0.690642, -0.819803, 0.690204, -0.182967, 0.915599, -0.0962792, 0.220817, -0.122154, 0.0318367, 0.569808, 0.838786, -0.141462, 0.74728, -0.473229, 0.839958, -0.897815, -0.575708, 0.370196, -0.257449, -0.937983, -0.782944, -0.42441, 0.442538, 0.309554, -0.21422, -0.64979, -0.983421, 0.194156, -0.923302, -0.0929917, 0.891349, 0.738304, -0.42262, 0.215672, 0.465771, 0.308107, 0.88577, -0.817749, 0.248359, 0.691842, 0.727081, 0.992476, -0.226246, 0.173285, 0.891524, -0.823293, 0.0366287, 0.205551, -0.250112, -0.62032, -0.815743, 0.078494, -0.602593, 0.18781, 0.161212, -0.117694, -0.773901, -0.956951, -0.176441, 0.840757, -0.399947, 0.96404, 0.764805, 0.414199, -0.72263, 0.573255, 0.227396, 0.986919, 0.998074, 0.900543, 0.156024, 0.737145, -0.606976, -0.679674, -0.897445, 0.797191, -0.93384, 0.233972, -0.00190897, 0.512128, -0.0386318, 0.0360015, -0.132515, 0.424999, 0.38923, 0.861509, -0.719056, 0.737133, -0.321033, -0.821376, 0.00610848, 0.190298, 0.362639, -0.601975, -0.664506, 0.104121, -0.401637, -0.677596, 0.873481, 0.628639, -0.66313, 0.997625, 0.0978278, -0.292411, -0.485917, -0.475764, 0.992188, 0.195934, -0.331635, 0.96825, -0.625865, -0.779672, -0.470542, -0.101834, 0.835913, -0.329174, 0.322569, -0.145092, -0.850178, 0.653208, 0.805894, 0.405432, -0.891145, 0.388388, 0.790462, -0.930075, 0.622509, -0.542713, -0.49583, 0.951371, -0.405867, 0.835216, 0.108513, -0.753756, -0.868296, -0.119277, -0.216017, -0.914045, 0.201805, 0.166474, 0.39549, -0.340345, -0.0963858, -0.353142, 0.147811, 0.47551, 0.960872, -0.149529, 0.0795379, 0.212499, -0.0786278, 0.502202, 0.228872, 0.286062, -0.758762, -0.754675, -0.618099, -0.710158, -0.150154, 0.0925852, 0.0920329, 0.647541, -0.52575, 0.915594, -0.234992, -0.718001, 0.199498, 0.49352, 0.166677, 0.183956, 0.29151, -0.915209, -0.0490797, -0.228439, 0.402609, 0.537368, 0.430415, -0.769596, -0.123058, 0.249314, 0.503694, 0.567305, 0.67805, 0.584775, 0.968806, 0.769786, 0.593832, -0.0785688, -0.189351, -0.127028, -0.668703, 0.438028, -0.881092, 0.989277, 0.459202, -0.616877, -0.940068, 0.0380573, -0.732376, 0.523555, -0.865692, -0.210669, 0.068601, 0.790149, 0.81926, 0.453416, 0.887014, 0.779451, -0.272585, 0.992678, -0.955786, -0.40931, 0.570652, -0.353884, -0.8389, -0.786804, 0.738183, -0.379119, -0.368739, -0.587132, 0.757857, -0.728269, 0.313331, 0.363336, 0.611361, -0.280417, -0.372341, -0.310202, -0.619539, -0.847156, -0.731561, -0.999839, -0.123355, 0.455292, -0.476172, -0.447591, -0.645002, 0.524999, 0.426287, -0.32154, 0.274673, 0.55254, -0.233168, 0.937652, -0.267297, 0.413539, -0.149813, -0.176328, 0.673211, -0.843814, 0.0116626, -0.696206, -0.995322, 0.0754482, -0.52452, 0.174354, 0.0983645, -0.63274, -0.963309, 0.0887917, 0.744335, 0.0772624, -0.773075, 0.785636, -0.718129, 0.833734, 0.10768, -0.769154, 0.997136, -0.390974, -0.0922265, 0.570312, 0.423319, -0.336495, -0.971456, -0.289246, 0.821934, 0.517715, -0.0793235, -0.964962, -0.609613, 0.0698057, -0.757135, 0.889839, -0.320598, -0.367754, -0.413118, 0.588001, -0.0482474, -0.473553, 0.481074, -0.780577, -0.815034, 0.973177, 0.0306294, 0.574603, 0.493401, 0.859631, 0.323091, 0.00994966, -0.182231, 0.248251, -0.0591228, 0.357944, 0.836898, -0.0825925, 0.434524, -0.441683, -0.563856, 0.387669, -0.612427, 0.177899, -0.0107053, -0.420051, 0.699901, 0.417038, -0.40214, 0.735281, 0.265563, -0.96264, 0.505377, -0.913137, 0.346414, 0.250223, -0.103375, -0.708432, -0.0638551, -0.655754, -0.408941, 0.306341, 0.184051, -0.580688, 0.197549, 0.896497, -0.647853, 0.75487, 0.867893, -0.866493, -0.860855, -0.399845, 0.991437, -0.928597, -0.711291, 0.345524, -0.521838, -0.541121, 0.628394, 0.226501, 0.637923, -0.621915, 0.387459, 0.931557, -0.562089, -0.00316837, 0.261627, 0.239493, 0.816534, 0.747646, -0.748014, -0.0378933, 0.161413, 0.805578, 0.480975, -0.588135, -0.00624379, -0.650259, -0.819821, -0.704351, 0.220197, 0.095667, -0.887996, 0.769028, 0.33979, -0.785666, 0.4214, -0.396034, 0.617915, 0.534606, -0.983238, -0.139973, 0.661434, -0.989946, 0.280281, -0.966207, 0.697176, -0.633847, -0.540577, 0.826808, 0.752289, -0.896702, -0.0715362, 0.99472, 0.738935, 0.858375, -0.71091, -0.869057, 0.652854, -0.38932, -0.792816, 0.964013, 0.123012, -0.0803747, 0.617687, -0.959698, -0.680735, -0.276489, -0.00915477, 0.660409, -0.860114, -0.507214, -0.263396, 0.0759554, -0.590067, 0.383559, 0.262387, -0.53509, 0.156724, 0.599447, 0.965459, 0.29891, -0.402298, -0.0620929, -0.403384, -0.089514, 0.495194, 0.720853, -0.21814, -0.0410932, -0.956213, -0.874479, 0.488422, 0.275308, -0.0522149, 0.484301, 0.581782, 0.445059, 0.00250007, 0.802154, 0.0779329, -0.530181, -0.846064, -0.417689, 0.53665, -0.869873, -0.402026, -0.643234, 0.843498, -0.205027, 0.0396562, -0.931999, 0.989053, 0.588254, -0.687325, 0.0626823, -0.0139798, -0.312846, -0.856741, 0.191825, -0.514761, 0.941713, -0.712238, -0.420979, 0.848726, 0.213449, -0.635625, 0.203363, -0.390246, 0.0992731, -0.855042, 0.396657, 0.558979, -0.103789, 0.915237, 0.0888989, -0.342446, 0.422567, -0.495249, -0.600561, -0.642707, 0.532915, -0.093272, 0.641533, -0.430832, -0.0903073, 0.664024, -0.683907, 0.862137, -0.976145, -0.408301, 0.660163, 0.563482, 0.698993, -0.49248, -0.0303279, 0.330429, 0.720496, 0.225705, -0.669152, 0.897602, -0.524966, -0.722238, -0.309356, 0.195479, -0.774463, 0.516996, 0.205874, -0.28728, -0.489728, -0.0697393, -0.152304, 0.176957, 0.563682, 0.63902, -0.564694, 0.942292, -0.828585, -0.238165, -0.251694, -0.292, -0.209938, 0.0605256, -0.705469, 0.000932879, -0.426066, 0.0367675, 0.967869, -0.976222, 0.520156, 0.750374, 0.236072, 0.955163, -0.93882, -0.506321, 0.0887356, 0.379106, 0.337208, -0.108253, 0.00320753, 0.873011, 0.998995, -0.45751, 0.858562, -0.83317, 0.0862509, -0.90002, -0.689714, -0.482297, -0.709005, 0.74976, 0.613003, 0.651453, -0.682844, 0.439257, -0.0931198, -0.716907, 0.92237, 0.992297, -0.68986, 0.600124, 0.906797, 0.034156, 0.15925, -0.57999, -0.129189, -0.905776, -0.390454, 0.168164, -0.435976, -0.828083, -0.0256198, 0.96826, -0.178523, -0.401753, 0.745293, 0.0643224, 0.732411, -0.376021, -0.993938, 0.0831463, -0.628434, 0.697954, 0.279958, -0.919663, 0.737445, -0.269442, 0.141058, 0.988132, -0.702663, 0.481225, 0.655868, 0.447077, 0.791605, 0.83106, -0.987936, 0.508173, 0.67081, -0.965651, -0.222783, 0.515035, -0.295411, -0.130919, 0.338831, 0.0802096, 0.116355, 0.898334, 0.471159, 0.745207, -0.143675, 0.488888, -0.632845, 0.645444, 0.324577, -0.352337, -0.481213, 0.258234, -0.557018, 0.440495, 0.336816, 0.261661, 0.0896408, -0.908954, 0.435376, -0.892488, -0.503901, 0.659443, -0.00836873, 0.679147, -0.828612, -0.319716, 0.314881, 0.614458, 0.266555, 0.887037, 0.709195, -0.438457, 0.672523, 0.987509, -0.478, 0.52881, 0.823019, -0.881095, -0.591514, 0.259701, 0.534723, 0.108375, 0.969428, -0.38793, -0.641516, 0.94243, 0.281347, -0.826507, -0.406967, -0.804712, -0.27879, 0.579118, 0.444131, 0.636751, 0.446777, 0.451198, 0.900185, -0.0113434, -0.272655, -0.376059, -0.22724, -0.985266, -0.851679, -0.454634, 0.365526, -0.152117, -0.18687, 0.434923, -0.494216, 0.532021, -0.220289, 0.684247, 0.558852, 0.173367, -0.574958, 0.365303, -0.293104, -0.245409, 0.572892, 0.368966, 0.271196, -0.284337, -0.731085, -0.255205, 0.81511, 0.59133, -0.680394, -0.0402094, 0.480302, -0.330163, -0.651678, 0.309647, -0.76724, 0.512443, -0.373361, 0.106239, 0.818958, 0.0445056, 0.768398, -0.923099, -0.425646, 0.110962, -0.0737655, -0.6852, -0.742375, -0.721941, -0.666351, 0.787583, 0.879463, -0.658422, -0.0605469, 0.441635, 0.879812, 0.423232, 0.494318, -0.841935, 0.113745, 0.55761, 0.37771, 0.373854, 0.637348, -0.733279, -0.423625, -0.137216, 0.944328, -0.433355, -0.248873, -0.0553752, -0.0034677, -0.948229, 0.65924, 0.904684, 0.151816, -0.757199, -0.371997, 0.588239, -0.372464, 0.32613, -0.65726, 0.557694, -0.846768, -0.400977, -0.416355, -0.622289, -0.123013, 0.654369, -0.0724878, -0.405899, -0.572139, -0.595899, -0.486649, 0.786384, -0.816683, 0.216909, -0.656703, -0.0509078, -0.440957, -0.0696816, 0.395673, -0.976565, -0.0578328, 0.202976, 0.323844, -0.73512, -0.284745, 0.229772, 0.117729, -0.213891, 0.40094, 0.241749, -0.731256, -0.0953619, -0.805923, -0.065255, 0.347732, 0.632215, 0.201192, 0.0967036, 0.313547, 0.0636242, -0.987131, -0.292734, -0.924733, -0.705696, 0.162733, 0.838078, 0.92085, -0.188252, -0.8743, -0.71059, 0.0194777, 0.379747, 0.989737, 0.715555, 0.635314, -0.996774, -0.700733, 0.560308, 0.854793, 0.723919, 0.168384, 0.876125, 0.484155, 0.67985, -0.53321, -0.354377, 0.896557, -0.436698, -0.414732, 0.273677, -0.391023, 0.277966, -0.979106, -0.65094, -0.322259, -0.450396, 0.614769, -0.950559, 0.523881, 0.808644, 0.0469949, 0.654781, -0.753098, 0.117299, 0.144808, 0.521904, 0.830338, 0.198192, 0.957501, 0.137756, -0.712284, -0.914717, -0.563696, 0.53713, 0.886335, -0.759469, 0.905337, -0.162015, -0.938999, 0.674684, 0.682968, 0.738188, 0.482428, 0.195675, -0.381089, 0.779713, -0.308779, -0.508477, 0.386286, -0.651359, -0.366454, -0.911976, -0.616664, 0.135096, -0.978884, -0.201418, -0.106302, -0.3685, 0.626223, -0.504626, -0.670583, 0.0250864, -0.495569, -0.530042, 0.7153, -0.640083, -0.729582, 0.19167, -0.745776, -0.498756, -0.1344, -0.538185, -0.93902, 0.274249, 0.68887, 0.438313, 0.220649, -0.181692, -0.388835, 0.56379, 0.322357, -0.0539436, -0.9094, -0.630709, 0.817139, -0.999545, -0.623025, -0.722716, -0.0967586, 0.753419, 0.515864, -0.426662, -0.987523, -0.869284, -0.474406, 0.375801, 0.213552, 0.0569407, -0.281613, 0.0869835, -0.469879, -0.76414, 0.932505, 0.422477, -0.98667, -0.273831, -0.842474, -0.839509, 0.647379, -0.512979, -0.0813092, 0.842551, -0.524158, 0.633734, -0.4243, 0.0526315, -0.588686, -0.698517, 0.781656, 0.550201, -0.440728, 0.80974, 0.888612, 0.92278, -0.948007, 0.603741, -0.250819, 0.303747, -0.00218541, -0.942149, 0.985483, -0.568949, -0.12482, 0.165611, -0.0911636, 0.110843, -0.777752, -0.922553, -0.769615, -0.0124336, 0.748842, 0.443554, -0.360698, 0.902229, -0.933292, -0.961868, -0.363435, 0.525482, -0.0412766, 0.168955, -0.167814, 0.938982, 0.546804, -0.0360369, -0.959494, 0.213153, 0.0181479, -0.363129, -0.877404, -0.765811, 0.552523, -0.557191, -0.298836, -0.257813, -0.294882, 0.907117, -0.174294, -0.379376, 0.610735, -0.709706, 0.720684, -0.236667, -0.748426, -0.643593, -0.900814, -0.997649, 0.897456, 0.928566, 0.62979, 0.283935, 0.258217, 0.522064, 0.359429, -0.396477, -0.173635, 0.963633, 0.643429, 0.925342, 0.763527, -0.066876, -0.629021, 0.611495, -0.842035, -0.234093, -0.648607, 0.0445945, 0.973457, -0.1724, 0.149463, -0.614972, 0.528335, 0.598569, -0.907305, -0.782103, -0.164541, 0.753061, -0.458965, -0.238529, 0.0851332, -0.961901, -0.329372, -0.767149, -0.293691, 0.153722, 0.333875, -0.55885, 0.765997, -0.156469, 0.153488, 0.679035, 0.624421, 0.532823, -0.513534, -0.329172, -0.479255, 0.668569, -0.343745, -0.532904
]}, "hidden2": {"biases": [
-0.423655, -0.438415, -0.627698, 0.678402, -0.374047, 0.802551, -0.613826, -0.829673, -0.17286, 0.82003, -0.820096, 0.351865, -0.793932, 0.320809, 0.0362569, 0.042537, 0.516505, -0.709795, 0.550115, 0.842464, -0.078464, -0.45384, 1.01045, 0.198555, -0.431039, -0.53123, -0.893555, -0.640915, 0.417784, 0.584284, 0.550016, -0.17953, 0.404087, -0.174753, -0.435326, -0.503723, -0.261308, 0.53134, -0.768185, 0.205742, -0.599165, -0.375977
], "weights": [
0.649145, 0.219922, -0.986203, -0.188411, 0.347153, 0.9347, -0.195664, -0.37946, -0.580473, -0.205338, -0.549848, 0.132831, -0.10167, 0.642942, -0.443029, 0.202546, 0.117693, -0.653434, -0.134993, 0.678642, 0.593507, 0.723368, -0.493237, 0.00991335, -1.02798, 0.0682894, 0.980752, -0.383985, 0.930094, -0.770529, 0.269613, 0.291887, 0.0218001, -0.139047, 0.833649, 0.388264, 0.447034, -0.951346, -0.10914, -0.752828, 0.552684, -0.426092, 0.786563, -0.919425, 0.501682, -0.0780909, 0.58674, -0.318497, -0.588828, 0.739931, 0.842737, 0.0439215, -0.839856, -0.660994, -0.448325, -0.105524, -0.395075, 0.266114, 0.917504, 0.193319, -0.063989, 0.821282, 0.54183, 0.333379, 1.01664, -0.639009, -0.465129, 0.939234, -0.956953, 0.0170718, 0.510777, 0.268669, -0.124903, 0.227487, -0.98843, 0.570702, 0.334849, -0.731646, 0.251411, -0.688125, -0.403379, -0.344687, 0.7224, 0.924259, -0.585847, -0.113997, 0.681197, -0.251862, 0.790107, 0.346612, 0.985144, -0.620294, 0.715955, -0.724086, -0.162339, 0.675023, 0.219563, 0.458723, -0.763764, 0.496073, -0.715497, -0.784726, -0.321021, 0.964356, 0.118519, -0.539146, -0.684391, -0.62175, -0.59292, 0.597901, 0.46067, 0.347933, -0.0117169, 0.258423, 0.344831, -0.122003, -0.225459, -0.581226, 0.44936, -0.859995, -0.325498, 0.710208, 0.494257, 0.8817, 0.59464, -0.552042, -0.326949, -0.860239, -0.746656, 0.430706, -0.44275, 0.510878, 0.914032, -0.711032, -0.878261, -0.56759, -0.334643, -0.104795, -0.167279, -0.205779, -0.570433, -0.140825, -0.218088, 0.307422, 0.846463, 0.381129, -0.156419, -0.460266, 0.385862, 0.12564, 0.408106, -0.445748, 0.48205, -0.742832, -0.821611, 0.592341, -0.739063, -0.0765522, 0.0987353, 0.15768, 0.813779, -0.879704, -0.542623, 0.569877, -0.0266792, 0.990249, -0.829202, -0.554254, 0.315973, -0.653545, -0.606503, -0.335697, 0.0292558, 0.639673, 0.675146, -0.581549, 0.856093, 0.548014, -0.911143, 0.536184, 0.177148, -0.974913, 0.359401, 0.33799, -0.555864, 0.0283362, -0.899688, 0.425231, -0.699554, -0.216005, 0.94065, -0.972141, -0.873385, -0.576199, 0.893893, -0.904433, -0.186503, 0.628404, -0.610348, -0.37957, 0.264444, 0.139993, -0.940534, -0.174437, -0.386547, -0.108945, 0.484667, -0.501284, -0.0107051, 0.579037, 1.0206, 0.800893, 0.467718, -0.848152, -0.370536, 0.750528, 0.459421, -0.950221, 0.300917, -0.514536, -0.127475, 0.0902614, -0.449634, -0.22968, 0.211929, 0.365145, 0.639386, 0.4569, -0.671525, -0.153672, 0.836391, -0.738037, -0.716493, -0.0293275, 0.375449, -0.78734, -0.155173, 0.0719457, 0.721443, 0.335551, -0.80417, 0.973511, 0.533643, 0.0587125, -0.0335912, -0.230016, 0.105901, 0.739846, -0.659703, -0.220169, -0.103563, -0.49553, -0.925004, 0.188193, 0.481423, 0.129427, -0.6411, 0.909655, -0.265746, 0.529693, -0.992572, 0.966489, -0.435127, 0.281853, 0.683507, -0.519731, 1.01265, -0.624504, 0.601054, 0.372581, 0.0272359, -0.709072, -1.02893, -0.837925, 0.681227, -0.433536, -0.0793171, 0.697729, 0.421657, -0.988929, 0.893377, 0.656514, 0.06255, 0.527632, -0.330244, -0.817969, 0.178384, 0.500512, 0.719862, 0.449592, 0.66648, -0.842203, -0.750176, -0.350967, -0.29953, -0.851079, 0.139429, 0.87772, 0.956609, -0.893215, 0.698749, -0.171074, -0.33756, 0.133299, -0.932878, 0.788026, -0.0737908, 0.204807, 0.084462, -0.405266, 0.781002, -0.0193076, -0.215062, -0.557964, 0.797234, 0.183634, -0.618902, -0.304114, 0.728961, 0.682833, 0.0957267, 0.917127, 0.743206, 0.703137, 0.432925, -0.736113, 0.0657666, -0.023542, -0.600167, 0.171258, 0.43662, 0.369224, 0.27814, 0.858772, 0.967886, -0.64563, 0.41644, 0.0199932, 0.348019, 0.780819, -0.334887, 0.373216, 0.221102, 0.499756, -0.410114, 0.805551, 0.136076, -0.141456, -0.503805, -0.603754, 0.554329, -0.568682, -0.573046, 0.232482, 0.390881, 0.445648, 0.839752, -0.213873, 0.228017, -0.274381, 0.519909, 0.877637, -0.261789, 0.713259, -0.674427, -0.77947, -0.498081, -0.865791, -0.265586, 0.534904, 0.143384, -0.898418, 0.682423, 0.767058, 0.712866, -0.274248, -0.00252676, 0.90747, 0.349169, -0.0130624, -0.733685, 0.408055, -0.517834, 0.112719, -0.286558, 0.698161, -0.124665, 0.984903, -0.46729, -0.289234, 0.734839, 0.519931, -0.424199, -0.448559, -0.425254, 0.645813, 0.651862, 0.275866, -0.429347, -0.0501758, -0.189219, -0.329339, -0.650505, 0.931332, -0.498834, 0.862492, 0.654168, -0.969418, -0.152443, -0.975256, -0.338354, 0.118243, -0.980846, 0.933745, 0.727708, 0.932935, 0.690291, 0.0177487, -0.756498, -0.493447, -0.44735, 0.987508, -0.776498, -0.626711, 0.74201, 0.974243, -0.715519, -0.575657, -0.57205, 0.422101, 0.52376, 0.685837, -0.340298, 0.0332267, -0.0924198, -0.713106, 0.215443, 0.598646, -0.506494, 0.174002, 0.18737, -0.409484, -0.27846, -0.52473, -0.146169, -0.181156, 0.999192, -0.551248, 0.130208, -0.804236, -0.787319, -0.33349, 0.445209, -0.346096, 0.15218, -0.442804, -0.981861, 0.413253, -0.305157, -0.424111, 0.716672, 0.889906, -0.330979, 0.406164, -0.600373, 0.665977, -0.826671, -0.725939, 0.139954, 0.0855019, -0.150774, 0.720609, -0.159066, -0.428501, 0.292488, 0.944623, 0.670827, 0.462322, 0.579851, -0.186873, 0.997149, 0.765515, 0.106442, 0.798499, -0.00236055, -0.406928, -0.257732, 0.41578, 0.876903, -0.0345262, 0.469877, -0.306714, -0.145181, 0.369888, -0.765521, -0.770436, 0.892022, -0.5981, 0.767632, 0.142562, 0.92221, 0.960632, 0.286952, 0.92615, -0.668596, 0.519987, -0.368861, -0.350246, -0.744614, -0.0762995, 0.272716, -0.998945, 0.77862, 0.327745, -0.389307, -0.487737, -0.890817, -0.805208, 0.149191, 0.364665, 0.330214, 0.910616, -0.0274928, -0.724261, 0.944741, -0.275958, 0.070376, 0.898503, -0.581537, 0.303008, 0.851371, -0.202255, 0.792345, -0.377402, 0.839651, -0.0439322, 0.00611561, 0.415231, 0.194639, -0.27006, -0.338028, 0.948611, -0.721389, 0.871826, 0.299413, -0.499193, 0.270005, -0.992747, -0.954121, 0.908213, 0.770352, 0.321709, 0.951563, -0.884854, 0.808796, 0.435092, 0.739615, 0.821771, -0.0862117, -0.258804, 0.904671, -0.760012, 0.404642, -0.948353, 0.196987, 0.83434, -0.643044, -0.257144, -0.916875, -0.695446, -0.567342, -0.703824, -0.488512, -0.966216, -0.682699, 0.971367, 0.3073, 0.349726, 0.544895, -0.782012, -0.838918, 0.0575823, 0.606408, 0.486524, -0.639788, 0.154461, -0.127798, 0.123797, -0.767738, -0.71773, -0.458241, 0.646444, -0.1043, 0.118209, 0.588183, 0.0914764, 0.470002, 0.530408, 0.685948, -0.889112, -0.604897, -0.830281, 0.551593, 0.656661, 0.832876, 0.928174, 0.407246, -0.684951, 0.0612703, 0.116286, 0.905093, 0.654083, -0.284399, -0.202625, -0.313798, 0.63601, 0.97332, 0.00561727, 0.311362, -0.520456, 0.602231, 0.971292, -0.156248, -0.382725, -0.3212, 0.212467, 0.572722, -0.438322, 0.0446424, -0.482727, 0.18825, -0.0379458, 0.391658, 0.406904, -0.57005, 0.732006, 0.379373, -0.981576, 0.050396, 0.457994, 0.363617, -0.761517, -0.866712, 0.556463, -0.46658, 0.25612, -0.123742, 0.784911, 0.034314, 0.0294257, 0.393644, 0.0262078, 0.762838, 0.627006, -0.170313, 0.315107, 0.635937, -0.147823, 0.962565, 0.141805, 0.343321, 0.326788, 0.238084, -0.0302645, 0.753508, -0.107785, -0.0377114, 0.467337, -0.721519, 0.48294, 0.38638, 0.582123, 0.140775, -0.234173, 0.564074, -0.0825397, 0.0509925, -0.765989, 0.824374, 0.565283, -0.9871, 0.585197, -0.132843, -0.385733, 0.713976, -0.942665, -0.665411, 0.00727721, -0.686976, 0.188037, -0.0985253, 0.0696536, 0.0807976, -0.557847, 0.533358, -0.222123, 0.955071, -0.458741, 0.468363, -0.823883, 0.0179626, 0.474926, -0.770747, 0.650288, -0.532294, -0.995441, -0.469783, -0.257013, 0.804011, -0.441355, -0.815291, 0.863007, -0.555738, -0.441328, 0.365483, 0.277047, -0.960466, -0.878047, -0.151942, 0.197752, -0.240945, 0.178483, -0.126127, 0.415521, -0.584616, -0.352565, -0.227868, -0.764117, 0.804158, 0.427401, -0.681282, -0.928693, 0.683801, 0.618098, -0.294582, -0.281546, 0.0696416, 0.720641, -0.735503, -0.855601, -0.902013, 0.578694, -0.686741, 0.461457, 0.0160567, -0.597616, 0.885685, 0.449063, -0.50905, 0.52794, -0.884643, -0.788426, 0.850355, -0.00448905, -0.86414, -0.127315, 0.403554, 0.972317, -0.092005, 0.921228, 0.472039, -0.28528, 0.65392, 0.88879, -0.42608, 0.0232127, -0.617713, 0.212095, -0.100271, 0.418812, -0.336761, -0.553154, 0.352364, 0.758096, 0.219258, -0.186504, -0.336233, -0.809878, -0.959031, -0.575236, 0.436748, -0.908576, -0.811579, 0.14798, 0.794284, -0.104336, -0.681552, 0.32441, 0.824178, -0.203049, 0.858397, 0.800493, -0.490344, -0.893348, -0.366836, 0.296024, -0.997608, -0.237116, -0.861003, -0.458663, -0.741314, 0.741504, -0.49792, -0.500019, 0.672548, -0.107871, -0.910767, -0.745622, 0.752195, 0.178908, -0.126892, -0.552562, -0.383362, 0.490087, -0.974801, 0.74933, -0.0212643, 0.90974, -0.61882, -0.00254298, 0.560429, -0.335885, 0.294714, -0.142644, 0.0398896, -0.0939093, 0.890731, 0.72685, -0.625703, 0.892165, 0.193277, -0.96853, -0.16817, 0.561756, -0.298675, 0.522556, 0.01523, -0.329567, 0.557081, -0.024016, -0.318976, -0.192129, -0.464003, -0.260113, 0.964513, -0.343221, 0.692719, -0.450558, -0.0505034, 0.902599, -0.248603, -0.76743, -0.355063, 0.86768, -0.456677, -0.321466, 0.0715482, 0.136406, 0.293163, 0.359832, 0.971016, 0.533493, -0.53421, 0.121111, 0.865758, 0.948485, -0.0811842, -0.475701, 0.0595407, 0.502383, 0.819973, -0.0550296, -0.405751, -0.382219, 0.56669, -0.60852, -0.828413, 0.814298, -0.859231, 0.110181, 0.591607, -0.530456, 0.217032, -0.825601, -0.493266, 0.0453242, -0.266475, -0.108177, 0.0888428, -0.455081, -0.508618, -0.638496, 0.914403, 0.26314, -0.877512, -0.454271, 0.350205, -0.0285331, -0.116052, -0.257634, -0.223449, 0.357257, 0.253065, 0.204403, -0.798265, 0.878649, 0.491973, 0.246255, -0.739122, 0.729423, -0.572375, -0.445888, -0.333201, 0.97498, 0.0667368, 0.329503, -0.596173, 0.255816, -0.534909, 0.587226, 0.415702, -0.258378, 0.311566, 0.551581, -0.465492, 0.620957, -0.633875, 0.726898, 0.606217, 0.201376, 0.299208, 0.0714129, -0.637555, -0.507224, -0.517078, 0.887737, 0.487708, -0.625198, -0.439861, 0.7119, 0.418807, -0.97457, -0.352203, 0.711681, 0.802021, -0.884624, 0.0651062, -0.232731, 0.367492, -0.159409, 0.428164, -0.78448, -0.838023, 0.656701, -0.74981, 0.68133, 0.93332, 1.0002, 0.0443874, -0.302116, -0.263343, 0.514045, -0.714821, -0.61594, -0.455772, -0.241635, -0.179681, 0.390089, -0.878113, 0.147192, 0.274405, -0.898087, 0.602465, 0.964006, 0.141085, 0.109421, -0.433697, 0.79622, 0.555249, 0.256716, -0.824713, -0.335451, 0.698709, 0.226497, 0.760354, 0.454584, -0.199384, 0.426972, -0.551179, 0.844694, 0.126739, -0.97775, 0.691795, -0.162901, 0.0604799, 0.728132, -0.592062, -0.0553432, -0.317653, -0.977361, 0.00799187, 0.503035, 0.0561656, -0.750143, 0.953972, 0.497566, 0.0748453, 0.21639, 0.846234, -0.997975, -0.924138, 0.211247, 0.891076, -0.147868, -0.17235, 0.268548, -0.0165573, -0.428079, -0.641211, -0.266909, -0.973959, 0.800858, -0.209376, 0.418312, -0.480711, 0.754676, -0.312615, 0.913402, 0.732569, 0.936164, 0.169422, -0.404774, -0.748442, -0.753576, 0.30912, -0.0697705, 0.862164, 0.112829, 0.152801, 0.648554, -0.636025, 0.0532171, 0.0151089, 0.86488, -0.349421, 0.343769, -0.732762, 0.157714, -0.836672, -0.391342, 0.409125, 0.0528765, -0.210399, 0.893754, -0.125627, -0.474181, -0.105217, 0.0416842, -0.314665, -0.580794, 0.762662, 0.550895, 0.879422, 0.42637, 0.216069, -0.632407, -0.262811, -0.812275, 0.0586224, -0.63198, -0.322252, -0.429543, -0.66217, -0.304644, -0.13734, 0.372071, -0.778069, 0.642622, 0.320268, 0.0294693, 0.0561318, 0.894006, 0.0481058, -0.381066, -0.118579, -0.950224, -0.721112, -0.349652, -0.323456, -0.769318, -0.154299, 0.648543, 0.384989, -0.089832, -0.656064, 0.18359, -0.358986, 0.460245, 0.341747, -0.55551, 0.126072, -0.302017, 0.55576, -0.695316, -0.874963, 0.891843, -0.470576, -0.226772, 0.915978, -0.249648, 0.753539, 0.567747, -0.774819, -0.397293, -0.311861, 0.9626, 0.830389, -0.153962, -0.217556, 0.650061, -0.770025, 0.213193, -0.512226, -0.862161, -0.0371864, -0.271406, 0.151381, 0.995096, -0.179567, 0.102685, -0.228567, 0.604962, 0.721914, 0.871551, -0.42126, -0.316255, -0.600134, 0.430487, -0.397344, -0.146986, -0.846447, 0.0869216, -0.276323, 0.0160699, 0.888932, -0.183667, -0.232368, 0.349658, 0.733441, -0.0928744, 0.658286, -0.0858939, -0.0110371, -0.427719, -0.987339, -0.309628, 0.305845, 0.863022, 0.628113, -0.429598, 0.80819, -0.815976, -0.884281, -0.839576, 0.525784, 0.0420027, -0.950498, 0.874164, 0.219803, 0.280576, -0.263822, 0.540254, -0.535713, -0.00164741, -0.73408, -0.468521, -0.248121, -0.27834, -0.175631, 0.091711, 0.13281, 0.750515, -0.872483, -0.155777, -0.190809, 0.669164, 0.815108, -0.816509, -0.985232, 0.750527, 0.152237, -0.204806, -0.71517, 0.00905106, 0.0859191, 0.268934, 0.854538, 0.267353, 0.423301, 0.602905, -0.196942, -0.937554, -0.178969, -0.48183, -0.244202, 0.279986, -0.233992, 0.139186, -0.751879, -0.26484, 0.123739, 0.537009, 0.699137, -0.761949, -0.898062, 0.018565, 0.64867, 0.847367, 0.911111, -0.228886, -0.1742, -0.736661, 0.225625, -0.546105, 0.962057, -0.420818, 0.0737863, 0.875985, -0.100002, -0.238083, 0.329323, 0.879236, -0.808696, 0.677174, -0.772182, 0.0963907, -0.280652, 0.192982, -0.226511, 0.350172, -0.382673, -0.82523, -0.972558, -0.792127, 0.840966, -0.914131, 0.0492506, -0.318298, -0.159564, 0.333682, 0.62568, 0.282063, 0.249068, -0.920134, -0.695277, 0.892023, 0.155617, 0.420305, -0.926827, 0.469118, -0.344826, -0.988533, 0.515278, 0.829094, -0.874186, -0.0213597, 0.1381, -0.353448, 0.279942, 0.88442, 0.00787739, -0.707407, 0.666258, 0.318269, 0.469664, 0.376499, 0.0969275, -0.829762, 0.213006, -0.23261, 0.890917, 0.982114, 0.644428, -0.16788, 0.678738, -0.0474151, -0.673962, -0.723141, -0.108072, 0.0913896, -0.666106, -0.253304, -0.0621116, -0.605008, 0.874323, 0.81919, 0.850305, 0.682391, -0.106544, 0.868076, 0.426001, -0.611006, -0.0690527, 0.13694, -0.15509, -0.778055, -0.535071, -0.396006, -0.682421, 0.467025, -0.627215, -0.903615, 0.27108, -0.539968, -0.988912, 0.357364, -0.0273267, -0.423104, -0.921314, 0.053635, 0.061628, 0.949138, -0.812074, -0.0636529, -0.205106, -0.347646, -0.892101, -0.347013, 0.0436628, 0.471672, -0.0960803, 0.382514, -0.961346, -0.420884, 0.368939, -0.759486, -0.84193, -0.938172, -0.96939, -0.806609, -0.0393612, 0.60425, 0.915233, -0.695829, -0.237932, 0.888119, 0.637103, -0.352668, -0.238139, -0.884532, -0.205825, -0.990733, -0.982921, 0.358482, 0.284544, -0.313056, 0.112824, 0.148502, 0.419648, -0.181632, -0.68911, 0.767292, -0.795469, -0.467149, 0.909874, 0.824538, -0.294698, -0.660886, -0.0609284, -0.194077, -0.941911, 0.510355, -0.688375, -0.953938, -0.458693, 0.961005, 0.0897423, 0.575832, -0.265752, 0.899524, -0.417914, -0.190933, -0.198601, 0.670888, -0.418754, 0.972281, 0.94345, -0.879652, -0.25672, -0.529205, -0.692301, -0.221467, 0.763059, 0.946566, -0.29468, -0.0572997, 0.0713134, -0.210599, -0.390997, -0.282794, -0.521815, 0.753977, 0.961089, -0.445825, -0.00332996, 0.964365, 0.715559, -0.064167, 0.286285, 0.0334005, 0.89114, 0.0657303, -0.389173, -0.770183, 0.933476, -0.729248, -0.0172632, -0.220048, -0.366275, 0.399351, 0.331481, -0.923325, 0.873517, 0.127426, 0.233869, -0.125985, 0.610411, 0.0252557, 0.808989, 0.216697, -0.334397, -0.109187, 0.520304, 0.224163, -0.748281, -0.0686941, 0.36026, -0.065424, 0.397344, -0.987646, 0.333225, -0.420443, -0.352259, -0.60359, 0.525897, 0.858761, 0.400967, 0.66877, -0.530891, -0.437409, 0.467492, 0.914614, -0.319402, 0.40646, -0.41927, -0.879049, -0.69714, 0.150896, 0.922458, -0.987365, 0.279937, -0.366212, 0.609139, -0.71501, -0.246613, 0.499456, -0.242776, 0.728101, 0.311445, 0.111222, -0.473087, -0.494621, -0.468385, 0.997715, 0.762228, 0.566763, 0.38367, -0.863046, 0.102275, 0.579887, -0.66652, 0.129808, 0.21264, -0.556934, 0.944984, 0.974389, -0.143572, 0.403852, -0.36229, 0.653587, 0.777195, 0.460851, -0.494896, -0.27955, 0.482752, 0.149005, 0.821952, -0.702527, 0.533888, -0.589717, -0.785489, -0.917381, 0.83841, -0.0333625, 0.308773, -0.743846, -0.581938, 0.724577, -0.461529, -0.453241, 0.556778, 0.513327, 0.36931, -0.92319, -0.480841, -0.657212, 0.443035, 0.999141, -0.828417, 0.645969, 0.218388, 0.593268, 0.207398, -0.818597, -0.915699, 0.15006, 1.01567, -0.496559, 0.757387, 0.828021, 0.272897, -0.313429, -0.177175, 0.252202, 0.944569, 0.182296, -0.435659, -0.540536, 0.395118, -0.9323, -0.503979, 0.724173, -0.487512, 0.602281, -0.78175, -0.0909037, -0.0334272, -0.493431, 0.27154, -0.344974, 0.506153, 0.305805, 0.744547, 0.984475, -0.800142, 0.273538, 0.22253, 0.141197, -1.00601, -0.711968, 0.461893, -0.598073, -0.888731, 0.431563, -0.523929, -0.332582, 0.535246, 0.498938, -0.934604, 0.247865, 0.852884, 0.926338, -0.285493, 0.0566493, -0.00260227, 0.935059, 0.27754, -0.176358, 0.39952, -0.346887, -0.995524, 0.449735, -0.912998, 0.0170195, 0.661584, 0.94692, 0.106845, -0.312247, 0.592691, -0.673727, 0.616192, 0.435231, 0.535599, -0.0504201, 0.689561, -0.607979, -0.592314, -0.118842, 0.840127, -0.872984, -1.01466, 0.403698, -0.470947, -0.352733, 0.106785, -0.624062, 0.844629, 0.885816, 0.373307, 0.401554, 0.424801, -0.830973, 0.219303, -0.52838, 0.465299, -0.725274, -0.381016, 0.989267, -0.343503, 0.650912, 0.454409, 0.595516, 0.588907, -0.183996, -0.31253, 0.537125, 0.703859, 0.429585, -0.0134083, 0.732682, -0.283348, -0.551756, -0.738346, 0.710376, -0.484941, -0.966467, -0.169391, 0.377636, -0.918664, -0.0958428, -0.506796, 0.646552, 0.061433, -0.766587, 0.518794, -0.494204, -0.0847181, 0.0155477, -0.882798, -0.72763, -0.535786, -0.284149, 0.331691, -0.0814791, -0.486241, 0.65509, 0.582414, 0.752859, -0.0430663, 0.206533, -0.0561285, 0.809752, -0.509104, 0.195488, 0.228024, 0.278164, -0.02979, 0.0374841, 0.562498, -0.060348, -0.949554, 0.398226, 0.926233, -0.331667, -0.27392, 0.61086, 0.378485, 0.390637, 0.891256, 0.845187, 0.233781, 0.695039, 0.047791, -0.0577991, -0.435, 1.00985, 0.180275, 0.259125, 0.968464, -0.413973, 0.351188, 0.661994, -0.22729, -0.0900771, -0.727398, 0.781195, -0.480666, -0.577641, -0.918418, 0.847598, -0.925265, -0.71031, 0.294774, 0.52038, 0.86862, -0.315773, 0.697719, 0.806436, 0.616422, -0.736798, 0.186942, -0.645183, -0.526019, 0.86311, -0.148603, -0.236078, -0.265083, -0.0669594, 0.98789, -0.166209, -0.549653, -0.50368, 0.355399, -0.955724, -0.54323, 0.299672, -0.868636, 0.563893, 0.787953, -0.471667, -0.313302, -0.000621968, 0.0960921, 0.474363, 0.219654, 0.0992409, 0.239872, 0.144207, -0.828323, 0.376418, -0.61008, 0.272152, 0.855773, 0.0644555, 0.125344, 0.326833, 0.377936, -0.764013, -0.43349, -0.0592756, -0.547776, 0.623668, -0.27717, 0.747226, 0.340947, 0.781989, 0.337815, 0.145376, 0.221604, 0.478534, 0.900945, 0.745552, 0.471153, 0.251515
]}, "output": {"biases": [
0.336374, -0.918954, 0.783782, -0.335947, -0.506569, -0.639244, 0.0462654
], "weights": [
0.0842686, -0.246798, 0.163851, 0.306741, -0.543253, -0.457314, -0.28335, 0.240896, 0.714318, 0.0612062, -0.812088, 0.924899, -0.0936386, -0.787685, 0.298745, -0.0207419, -0.986019, -0.401867, 0.392681, 0.659948, -0.694593, -0.208844, 0.850295, -0.973593, -0.0212926, -0.259184, -1.20497, -0.626255, -0.521094, 0.236325, -0.0324009, 1.00865, 0.90077, 0.207809, -0.451519, -0.125878, -0.367831, -0.973354, 0.274914, 0.0169998, -1.13918, -0.813498, -0.946209, 0.137808, -0.761298, -0.491759, 0.612328, -0.313693, -0.249054, -0.310831, -0.90268, -0.534592, -0.543144, 0.563, -0.25844, 0.996802, -0.389594, 0.539396, -0.692142, -0.677774, 0.804747, 0.59905, -0.973032, -0.19162, -0.932762, -0.409196, -0.323301, -0.289046, 0.418886, -0.824225, -0.253744, -0.666398, 0.582142, 0.354507, -0.331985, 0.915285, -0.77686, -0.236275, 0.474817, 0.913127, 0.600642, -0.387624, 0.21238, -0.831522, -0.353955, 0.153146, 0.550471, 0.804217, -0.851938, -0.623398, 0.661329, 0.934728, -0.315948, -0.522382, 0.31976, -0.167643, -0.0468809, -0.336981, 0.528225, 0.871044, -0.486347, 0.508711, -0.921306, -0.309219, -0.172323, 0.10347, 0.686822, -0.387063, -0.96509, -0.416419, 0.508685, -0.727504, -0.109791, -0.966903, 0.477553, -0.223341, -1.11722, 0.137959, -0.20956, -0.00702135, -0.69706, -0.364578, -0.477067, -0.510057, -0.578183, -0.980045, -0.613169, -0.901496, 0.707389, -0.743689, -0.899835, 0.355205, -0.776399, 0.502517, 0.828278, -0.660986, -0.819297, -0.330117, -0.0702442, -0.472819, -0.917496, -0.248991, -0.554549, -0.923544, -0.011159, 0.603286, -0.579659, -0.886132, 0.242247, 0.720944, -0.644572, -0.465423, -0.316953, -0.647024, 0.924978, -0.937259, 0.941628, -0.892428, -1.09011, -0.946797, 0.810965, 0.223718, 0.127862, -0.802152, 0.22504, 0.722127, -1.08547, -0.528724, 0.126739, -0.380631, -0.213925, 0.363469, 0.791969, 0.494376, 0.997337, 0.175361, 0.083325, 0.470322, 0.94822, 0.765, 0.529712, -0.996692, -0.582194, -0.596715, -0.18992, -0.5055, -0.568285, 0.392496, -0.878038, -0.114634, 0.427491, -0.235709, 0.771569, 0.304529, 0.215431, -0.979781, -0.22409, 0.514988, 0.00854281, 0.858093, 0.506869, 0.473673, -0.514228, 0.697305, 0.220482, -0.589369, -0.0676472, -0.141401, -0.316407, 0.912825, 0.363093, -0.462752, 0.988301, 0.6295, -0.813528, 0.767177, 0.267793, 0.303182, -0.300124, 0.711818, 0.755795, -0.129579, 0.0961078, -0.326109, 0.336772, -0.986221, -0.552405, 0.809738, 0.590988, 0.810427, 0.192858, 0.830254, -0.612994, -0.592364, -0.912074, -0.238625, 0.109564, 0.587716, -0.88969, -0.507998, -0.543166, 0.553071, 0.821299, -0.98262, -0.327055, 0.823792, 0.902, -0.465471, 0.321145, 0.618966, -0.511999, -0.156878, -0.364026, -0.699646, -0.99345, 0.722574, 0.816325, 0.327005, -0.323895, -0.366322, -0.944988, 0.420827, 0.49102, 0.147209, -0.194935, -0.388456, 0.586831, -0.167375, -0.817142, -0.828134, -0.235373, 0.226713, 0.919511, 0.956575, -0.317545, -0.253901, 0.0550163, -0.593022, -0.191857, 0.450754, 0.808029, 0.288114, -0.0689058, -0.650342, 0.275346, 0.461572, 0.539666, 0.986975, 0.252265, 0.51243, -0.544843, 0.209783, -0.465525, 0.0975145
]} }